[{"b":[-0.4455484236132485,0.39011347414663594,-0.9314578822921701,0.2772823695654442,-1.3130992579685261,1.138743059240518,-0.9242419506992281,-0.2630508688377581,1.190475352191867,1.9192884711939555,-1.3727584399381916,-0.6735380294446247,-1.0820582006267643,-0.37803336262597426,2.7129339070902816,-1.3448627297087579,0.3559319506129508,-0.8962060820846187,0.5858149420366496,-0.08326903292881442,1.0172780091256692,-1.162781856872936,-0.8239070056808374,-1.7898323113381396,0.42256669056330226,0.3481760070224572,1.605640118252512,0.475928111221843,1.646536185593301,0.4891011637185921],"w":[[-0.7396746341683101,-0.41633889071795227,0.18341351473208542,0.9466969178766148,-0.11157230392338327,1.0975464212186874,0.07983435198976305,-0.4465454262445723,-0.15636793553664358,-1.0002477338182099,1.5801023902912654,0.3158258459335458,0.8797196438393006,-0.12261672784294055,-0.21188035792567497,-0.9160525441554428,0.15324178584997405,-0.3876589867923184,0.573868421069606,0.8018220318568376,-0.3822906079024216,1.5418156661986024,-0.22521828350649786,-0.506044487671424,0.5546954392286023,1.1969112201797316,0.3163492672871757,0.33845346874457377,0.26324968462856635,1.7997451317838096,1.3291465466634678,-0.8072128938490539,-0.18780148699592555,1.232311603847361,-0.8703491256315107,-1.3055575541279218,-0.7736043964182528,-0.7827706490425665,-0.38754258603745695,2.292342942236209,0.8030647028424064,-1.7599201321523623,-0.6200984782512085,-0.322565498228244,1.2025219969422527,-0.7730639780553376,1.1679222181943403,-1.0083589432739317,-1.2385934738457682,-1.7399386660549292,-0.5524492460234834,0.15584751031328298,-0.08203771211875349,0.17423628998627863,0.10032669376945526,0.14915703625243792,-0.08372048006347932,1.4638281178573727,-0.9631699864810545,0.6790631718499257,1.6837348169123243,0.6628003467391111,0.09478412450355243,-1.0975898453887716,0.16357320786383445,-0.09666011260584378,-0.6639703158243598,-1.603800901360273,2.1056996769461276,1.958703457779323,-0.0104150467600552,-0.00786933356059307,-0.2776076166079571,-1.3804737464929795,0.5899913772061672,1.8528354331300134,-0.010320968400780443,-2.1174474758362183,0.6758972811234121,-0.9961392414536808,0.19822775903937426,1.7080314703534616,1.647987363859599,0.6364107275480271,-0.5759375508750173,0.4676857729318204,-0.06058629534073762,1.2118189044955543,-0.6355658302125219,0.23898976478896747,0.11242704488994251,1.5774409110695478,-0.3043489382042046,1.9944392074224628,-0.6108060299780338,-0.7312014598755016,0.5298478709983058,0.39792263943228934,0.21888834684620995,1.390486985728817,-0.5928405069811463,1.020577431904564,1.767823337406057,-0.20802452129053045,-0.21276693479657274,1.7573617412102835,0.8216128915032633,-1.738946621539564,-0.7637296951325565,-0.24744133364321136,-0.020340482942265467,0.9434469898223247,-0.7007273376872661,-1.0126429553866338,1.0092337888720684,-0.9247279701134354,0.3621937534347084,1.4259938605044937,1.1225308567165744,-0.5698135060308304,1.9450937589829393,-2.1023392639916527,1.455894433127949,-0.08514046407618346,0.29457670157293947,-0.29789043350128264,0.4202979057062456,1.6868160862253194,-0.5228348486270932,0.07010503483080611,-0.7751968850262602,-0.8850304429980647,-0.60745239450275,1.2022033809305641,1.1172934994714252,1.5593113616868257,-0.26612820973315116,-0.7065386785993928,-1.6699926519152857,-0.27684681410717543,-1.374476099410063,1.4043048966538372,-0.9894968428784701,0.2104186130571666,1.9199109663664233,1.1466197095141781,0.32867423343948426,-0.2390771357624627,0.631754803187977,0.05497738654033278,0.46041320216960785,-0.2703644744083404,0.8422074781224352,1.8717345700934311,-1.0799249243235791,-0.9067581084214624,-0.404217758640977,-0.06730432006257446,-0.5599405659876441,-1.6318006376094927,-0.7896412262922555,0.8924814678571598,-0.8033549474566846,0.04451135157331796,-0.33881420633725545,-0.5296018540104388,-0.29506716878488215,0.585833162621362,0.04169289322885322,-1.443288105261932,-0.25362924244002627,0.5717524595961728,-0.23649466790626095,-0.0938315096591706,-0.4730394491125369,-0.17943766132192285,-1.645871150018574,0.34160202826495606,1.7539208294866169,0.930559825442196,-0.3957807923815887,0.7013182785902724,2.0811847757895436,-0.07136903396484633,0.27666387290480626,0.0297693226883496,2.3291894457844324,0.34632408225641714,-1.6174245231993432,0.4099830401764837,-0.9192507093037571,-0.5181991955361331,-1.5336840065511483,-0.39039026045468245,1.8752700046217359,-0.44599205355253746,-0.1522385565109393,2.1058344315539426,-2.3181058673310964,0.2018597639598865,0.6181460089952284,1.327318973076304,0.38415830782783983,0.7524752650810621,-0.11336831298096908,-0.8402886492588032,-0.06390193193054922,-0.4625262172766859,0.7168575805745088,1.3051226597284786,1.6906939919593131,0.6479789554046518,1.8953418129420363,1.471294808142447,-1.0363598489163182,-0.45718371699729754,-0.5648207156438285,0.5749164505365533,0.11522730162593607,0.3962344971995016,-0.20801605277855592,0.21521359979318738,-1.2721270072828954,0.2459122139236637,-1.6759033223142095,1.6387890789446073,1.1056950922040925,-0.39248870108614137,-0.869278132594792,0.6667722125617991,0.47895107273145754,-0.20564752687272964,0.4520029569597541,0.9133300325220641,0.60023180698926,1.3498808167796919,0.547553758464126,0.7334663250195844,0.4857202538020032,0.11171019187607222,0.684744535881766,0.45942947830128433,0.6599126182000477,0.34260216358494705,1.4106169408036857,-1.7947269825025578,-0.08988546489995891,1.5949106499972572,0.03332322037293512,0.04829193835118984,-0.765713194406028,-1.8489106511863806,1.2059108827007936,-0.014979028810513358,-0.7736869220449155,1.5446258348869533,-0.3766118807967385,1.5995269536431516,0.39438450487580595,-0.6677464025985518,1.158323170000931,0.05778877671170365,0.8132255450987227,0.11183903925200253,-0.9434811605392224,1.4587926463770775,2.0857890231360074,0.6787184973848381,0.5892071799955363,-0.32440597479386507,0.25473127717430316,-0.9492990528931257,0.6816590896815323,-1.464830158258151,-0.6276866674983526,-0.24333493798814107,0.5793824056710181,0.8951622624139012,1.6693838997951704,-1.2996463633677096,0.79019318786546,1.1452488082026793,-0.6430089139577523,-1.190157110917043,-1.1661436654333794,-0.050040250342647655,0.4367304211216659,0.8035118153715709,0.06420158636999385,1.1746534493451506,-0.5758570795880698,1.690516507977972,1.0349600023702892,1.2984288798829695,0.9332107959651446,0.1744206315155405,-0.24923527035680412,0.17321560871602432,-0.6422073671247707,-0.35975546815725046,0.5702069815202138,-0.25237521650639755,0.5435007294042601,-0.6347767155657862,0.5597312407344583,-0.04572339398291082,0.4504528547624394,0.36601977140423325,-1.222314636532059,-1.5506710744102956,0.4759755451075419,-0.8722163808687917,0.09837819065451657,0.9413882658095767,2.7838450343248073,1.5268807248277667,0.90362397990815,1.5096477909270845,1.2227676077312706,0.9704417501198895,-0.15627150862960157,0.8310142545247917,0.924994725239017,-0.004704859111929127,0.29455028538704525,0.4739425008900142,-0.1201996807287666,-0.09536409472138274,0.3863215704233935,-0.1856758188518546,1.1120385708037215,1.1636978960872402,0.6955756332568449,-0.5849394450098835,1.4630916756389014,-0.9098191726218059,-1.5302772538114435,-0.43854159523731223,-0.5890543306236815,-0.15947310200621462,-0.5065997743333792,-1.0451016193740073,0.024285576683156795,-0.28448145208004105,1.3697657975873494,-0.17483174014407585,-1.0764236533161997,-0.6096969945041743,0.11147788887017301,-0.34134723356862245,0.7537854980424261,-0.8362132905408574,-1.5555666037854956,1.6531217861998486,0.5394548675843396,2.230391945016293,0.4098804966713767,1.4093957987537982,-0.013853746465754423,0.3404302997732112,1.3915410694635504,0.2775986082923459,0.6957896225050259,-1.9585559221009745,-0.28381930218357215,0.4149960141220316,0.24947991439143244,0.048360873109038444,1.3560406351339587,1.0252699159545977,0.3280000658685545,0.5484478438223216,-2.2001900829364573,0.34121699696072044,0.45081268487905074,-1.7076719302690715,-0.8272822440893743,-0.05878661025962949,0.3071445942301658,1.24000847454106,-0.18698936547318637,-0.6489726814679091,-1.2052330263614395,-0.2606032009795923,-0.3562910887983193,0.1291669312545265,-0.051208910347349326,-0.6089084319341399,-0.15865623007656773,1.453479975850709,1.5951488794100241,1.766587151090635,-1.5168570841735944,1.2368679762687602,1.1928532187232954,0.1677732786670017,0.5783883158975733,-0.4171864996530822,-0.8265725936790167,-1.0001543480356268,0.046762861966783,-1.7753985588230436,-0.6310915526472352,-1.1564292534615672,-0.9675758951574448,-2.134259452374037,-0.34768661196505735,0.39256540199900036,0.618378883683317,-0.6451571684223452,-1.2640083473918338,-0.6588900363980487,-0.203015848997131,-0.9654134851738407,0.09776851492448706,1.3221925820749814,0.022091607437025033,-1.3008172197777401,1.313367916208877,0.15451100351219013,-0.9394331955994345,-1.2948789367650853,0.3944375343200417,1.5833390082564271,-0.1173730166735102,1.3217838376113349,-1.6499527310323265,-0.34485907422956846,-0.7117828472958609,0.6183263027199322,-0.5381710403538166,-0.17404485355655597,-1.1390148991692661,-0.1570007083006892,-1.645542389399654,-0.9153063911570151,-0.6771907580402766,0.14527252220581452,0.7135957640191902,-1.6985099797945062,-0.5677095397404428,-0.6742649725113357,-1.4078664884655845,-0.14364007931598438,-0.3599477843387609,-0.5563349889368947,1.7912126627187592,0.6723928258835246,0.7261503651514094,-0.10936716915642683,-0.7683859363559999,-0.1665029947480849,-0.5514813016703295,-0.1867903941934601,-0.5240074557651853,0.6942610738582617,-0.6762820149278211,0.48224506985607035,-1.4554285998529095,1.0857191595727547,-0.9289992567002242,-0.9394320938450864,-1.3575351464030405,-0.8932281579130874,-1.5450942919902462,-0.8451816982126458,-0.4711521082463719,-0.17986171064253237,-0.4243828985389848,-0.9550567794208362,-0.8061215817323262,-0.45830013333551917,-1.1468928269513057,-0.5540980004566868,0.8232971787640418,-0.7319430333723069,0.2557525414327133,-0.3111854592051557,3.402205474236431,-0.5346235376970353,0.1881792095443084,-1.1300972634425432,0.34609546428672877,-1.1554757175856283,-1.706725430827117,-1.1901444819102251,0.7345787651712717,1.5837284789055153,0.24489012529224452,0.20359002147955452,-1.9364945314003656,-1.8618479484814778,-1.3503214162335535,-2.1020867086144412,-0.4180804585366206,-0.9139308292924411,0.6822469245053959,-0.9762128741734548,-0.1763134904162109,-0.9314406400812579,0.9662480217389469,-0.7119103314821978,0.9266495635253952,0.6118733221686512,2.5122488589052265,0.8165872216493769,0.6065165111442249,1.4006176115136184,-0.5027843552303128,-0.1247266793286565,-3.996249085967182,-0.19796670726623564,0.9588775004695624,-1.1089225586508402,2.9292550284335492,0.02511465594751526,-0.2525922335643358,0.6365290610259242,-0.7353694776178725,-0.48234342285760806,-0.21846155185070779,1.6494478744299512,-0.9947153851691597,1.0528817608524605,-2.010698548341865,1.2251650831101855,2.0992177252559303,0.5483898935335857,-0.23958431473607014,-1.308988071750339,1.091017310458311,2.0462872905370135,0.46221924656897656,-2.0693850320767266,-0.40619137957408774,1.1222734041456173,0.7992174187557152,-0.6472352299382892,-1.411541541215236,2.3815550717160483,-0.13493076384788072,-0.2425452018485907,-0.1438624578077678,0.7669819695396218,3.056691356727521,1.4752662760971176,1.6984122401558208,0.874598097096687,0.11474645641806601,0.5633763734482509,0.6811991613484191,0.9837456931013365,-0.226256388225037,-0.3886703013684091,-1.2617321737167735,0.28282959664938245,1.078614506039478,1.0033097885697835,-1.3018576796319665,-2.0080778721567447,-0.17524484425678918,0.4205903832592003,1.876711283809365,-0.3810516040314096,-0.010934245076582466,-0.973747869375466,0.975520127913605,-0.31358702026882745,1.290384383224627,0.010974834581045262,2.404520949344716,1.4700987763747015,-0.16140615148035303,0.1827435877653308,-0.46158917618789186,1.9962806638013706,-0.6165200494450899,2.4149404151836986,-0.5592954068684629,0.7963136428901745,1.6437232480540875,1.61190627429681,-1.1767500349996192,-0.0838841612581163,1.7284402598719033,1.2940068586336042,-0.18565664332520618,-1.7168874346768639,-0.020769094052080137,1.3424116841189724,1.8742321886467,-0.68471891362888,1.3984453334212255,0.163736153861275,2.0142808958801273,0.945300078433138,1.3077312583559877,0.5987710670210638,0.7125039023608334,0.6093301933011188,0.013375672023929308,0.7162060350761013,0.8366130289138884,-0.27549429310120505,2.1852117766714643,0.369599033750306,0.22652600718470298,1.6179503619109141,-0.30750578683303836,-0.1782162871730568,0.37695345206184483,0.024498330746682083,1.0087764391907204,-0.9587195715804142,-0.7442184697155948,0.14077494098750304,0.19213969841182668,-0.39065879498637496,0.3079202864610343,1.5491600729264603,0.18776016714319152,0.26605170980738374,0.30362290606275677,-1.3859143743909754,-0.05101646842067785,0.3199640078774324,-0.7144678402704642,2.254807842343086,0.31708535731881027,0.4946965582898981,-0.20090000263965505,0.5854840406609226,-0.9516313124281096,-0.8750849998226468,-1.11595481365985,-0.44485566544703486,-0.6490281411501154,-1.27226073456112,0.9642746041951618,0.11743808177642333,1.01095686092617,0.8478398206159041,0.06563535471485528,0.8575715776465146,-0.5630767311023401,-1.3230796222595431,-0.7972341281911575,0.02651722714259712,1.1892147572617207,-0.7978647251665111,-0.5650325704557235,1.4482785833932328,-1.180346432317983,0.36575513212583916,0.31609602853147295,0.1414265011536272,2.4457795494539782,0.03403148824065412,2.2374143842080367,-0.03486570253028866,-0.1183183078581112,-0.3703825710558499,0.1830268887250016,0.35103673558051923,0.11893754477579394,1.1552170823670158,0.3566017185299452,-1.4858249639492294,1.4666832094277005,-0.10926223497944172,-0.2684062997620116,-1.1566214967946216,0.6268082131548857,0.9767425041317658,0.3087992049084782,0.23252518023927057,1.4285052368841358,-0.016880929411978128,-0.44919458247153454,-0.8796682847341276,-0.7577445441565456,0.726352204558804,0.361406195012245,-0.5673336323337898,-0.5895086635649748,1.082911447072986,-0.8054301715717944,-1.3757399023794257,-0.17740286161240007,0.321332091548355,-0.1736326436618982,0.6217279310832909,1.9507931136739871,1.817216390602427,-1.5480675586430663,1.4566607084726566,0.9557962414171843,-2.01838652489761,0.13480340935069476,1.0232642209478808,-0.8337234522410255,0.13519879117037428,-0.5940859471048928,-1.2052146729811795,0.36594791001223825,0.5284234517532681,1.303920978948077,-0.22186466786047565,1.1166695126248256,0.6849304799693196,0.26322785555247935,0.4162055194028964,0.09963674994341117,-1.4612110514926604,1.4690227697938287,-0.3417767572661915,0.8741155588505257,0.9141988776110036,-0.8665797385737617,-0.3938038996014377,1.6065409073309722,-0.9441412421556895,0.43544379658001703,1.8215541569902158,-0.9538065718186044,0.7319314783851039,1.2048716736640357,1.2720967607708187,0.9153940471600295,-0.7557893821810638,0.8327397954341196,0.23850599321493687,2.3175162409061785,-0.21075820563586853,0.18482061533883032,-0.06932343138389734,0.44590146944162484,1.4656995144614318,-2.6632968835496267,0.6161051348805373,0.4073859405424383,0.22049959078689865,0.31458389028594536,-1.1428286849126394,3.490029502053291,0.09244094560822698,0.8356824510229197,-0.9316709555721375,0.802828822878367,-1.2402849025184162,-0.13099174692344293,-0.12578020699375733,-1.0285806578849328,-0.7290575464747939,1.609422052372619,1.3724393819318208,-3.2272232135511056,-0.6134951638467292,0.9217696420100719,1.3944565890729648,1.211035725996394,0.20748130814254667,-1.643285159423199,0.8177445731851066,1.9640255107612052,-1.4229396163185142,0.8832420179961016,1.729402393867099,0.4599528691328915,-0.08563677449025904,0.005317750040801084,-1.622575572365212,-0.5889092156927292,0.031419132714194054,-0.2703361538069794,-0.5866263330447012,-0.2995893971451798,0.5006705570915254,1.224258650894566,1.2998189751988798,-2.33466743706132,1.0451375027297747,1.2073212418520562,1.4244586740448848],[0.8410876443007438,-1.1480080389610423,-0.0400644076304195,0.018573882510768785,0.2024228009565154,-0.1915970413874733,-0.5296177090803058,0.8371666068841989,-1.2915165082024758,0.4895312100886164,-0.7045904036477469,-0.5343620161248699,-1.1754007096645567,1.1687727201965357,2.3618309334281875,-0.8335558298512692,0.5309047063475021,2.058080195237007,-0.2958122074265281,-0.9950296786254381,0.012833250490694425,-0.5124015163196742,0.672964825732386,-0.42205466735698544,-1.2520515142900204,1.6898862162103798,-0.316944184481452,-1.7067987951385075,1.3414055295456466,1.0097995533543644,0.45411594949486656,1.140331278954729,2.5570734428174626,1.3936332787877375,-0.346324320030256,0.3695109038581166,-0.438580192633392,-0.937303350093398,-0.942154779830733,-1.8055164923491527,0.8128860758906197,0.5210550926488359,1.4661411898306855,1.3740680350463128,0.16561815699118693,0.6370190514889857,0.5104226997195727,1.3629936319271472,-0.30530019908891176,-0.01116405327789256,-0.6489555360658469,-1.4956284952450012,-0.07624282299906006,0.272232730612862,0.2624201496308756,-0.7891657434993529,0.5035742018092381,0.6290400871826358,-1.6647164882718553,0.9401725966182984,-0.7340346280188597,-0.2628045863996014,-0.8746623789186256,0.20093242350570725,-1.300777408085977,-0.6358603784784826,0.02730143284302623,-1.4130741798136983,1.0821812593949809,-0.10965858670280328,0.8194859471231379,-0.601986883910266,1.2753636853977348,0.7894476926625339,-1.1795788707566897,-0.9690923233475278,-0.2995491732529655,-1.2142837828373318,0.40536889803475895,-1.03005769625059,-1.1631274436248582,-1.1012288889780495,-0.18436189209513668,0.4342430190768542,1.1621238656427313,-0.20073678146742863,-0.6892424928436962,-1.092827651956427,-0.03981803490916621,2.1513212822368235,-1.780064272282023,1.0667516160423627,-0.43552276951165203,0.37363176015330096,0.6577955913799127,0.1791053335282128,-0.4652535881276344,-2.0635468063205304,-1.016169303936644,0.28915481325464765,-1.6170590469893895,0.24680842086298663,0.39693074979105275,-2.0797925554705525,-0.3570531430995628,-0.9005088361200023,0.274115559269756,0.42529337618780133,0.5926863991489963,0.3421643351183066,0.39330600634005974,0.05362966841723981,1.339679379022847,0.4469487928554608,0.5198396963763082,0.0469966528583176,-1.2768069186674107,0.5529049325977399,-0.37189990640601717,-0.4576735539168488,0.859220433636495,-1.5513093990742834,-0.7563745201415384,-1.3396581558078642,-1.854259444176272,-0.5428648868765044,-1.6040212341022493,1.5690322700993224,0.5725960345779642,-1.5196981332033506,0.19060609841020743,-0.5883959513374686,-0.49348198699005985,-1.5727344229405689,-1.142525376489319,1.9830973514206738,-0.14970152492819633,-0.5710187100384195,-0.811223530425018,0.9501010748265903,1.302370935502267,0.7108584790022155,-0.43709783462026336,-2.3338235461546817,0.5386955588693547,0.07433941111681996,2.072728789998514,-0.8317430712804789,-0.8470467696838214,-0.5263033023455995,-0.8194835026508666,-0.5823694558651787,0.44072167319992395,-1.6244785965221888,0.7947877871342005,-1.7062553599415968,-0.12974776953654985,1.4146875484250354,-0.5258652050917275,0.471569673740304,1.025750383863613,0.2311155259786365,-0.5366951233285957,-0.4824427660765871,-1.2441314824383163,-0.7989612835023739,0.2266754804966529,-0.4144341614609216,1.0497151064651893,-0.07465486272584887,0.9829087053375887,0.879393248972277,-0.057136183237668545,0.9907869022821633,0.354474009832447,0.097669860756171,-0.07416629728301118,-0.9230549300490323,0.00772851779140309,0.41301942617580745,-0.0608186291920398,-1.0390337170465913,0.351969890538125,-0.9225067515679032,-0.7642996926957718,-0.7206727857802043,0.4722536998353147,-0.2304773975704506,-1.7382820869801805,0.6760175117264688,0.2371671938930786,-0.14958695902663652,1.4460526655701142,-0.18942871573179326,-0.09396675146068455,-0.021238492690562594,1.9010970706594355,0.7338039455463529,1.242047078711854,-0.375558819033221,1.5118191607611091,-1.319401950079877,1.9728015803338295,-0.5276935763535807,0.10031743660913037,1.2118069146719355,0.18237777962322183,0.05919964870471631,-1.109847244055879,0.49591143012303995,0.005830033152356362,-0.27209923862216534,0.2987189292520806,2.2494614550984296E-4,0.4278184580897107,-1.2971260316321536,1.132853415251658,0.22278705644852964,-0.025446677078211195,-1.0864322529507164,0.852775357046313,0.19121049559143508,1.7244872623039942,0.05910348117847804,0.6636870765000599,-0.719606132777388,-1.5794284259104512,0.50742267483655,-0.4490257704437702,-0.7222176255467183,0.0853144952127867,0.12841873150454408,0.18862657702168928,0.6162962250607988,-1.1932556126699547,0.39125494819535256,0.5414178190812667,-0.48067733382012756,-1.9297837963800752,0.7267997153724455,-0.7645875540920221,-0.9405720531209087,0.48959249372923913,1.6129742010820451,-1.5141163416885046,1.7609807791176564,0.5108515914640088,0.21863455916642552,0.0869296972886163,-0.8883705067997312,1.4583461915647433,-0.6119109620263369,0.8846941579153136,0.9147788289689132,-1.744573765450298,0.3329537279667949,2.0291669632462934,1.2136388492093242,-0.5652123033192711,0.8018056748722573,-1.2062937590870695,1.911466318136757,0.7950934816020703,1.4415631565230198,-0.29488776324412347,0.40050796283219764,0.38696122174725744,-1.1114524770289995,1.8729210489954504,1.767936827201855,0.5406353527874581,1.1280948536715485,0.6075999492732649,-0.11107045627682115,1.722565512367918,0.1870412860300081,-1.57160531832209,1.188034307290467,-0.3260903312249852,-0.36850599342756823,0.28228895868277354,-1.36652348356358,-0.1920122661791067,1.4475815433546173,-1.1983316477328798,1.919476676820153,0.929510621017213,0.9841144062084255,0.08779575481206103,0.09356016360744039,1.9553966694575968,1.346613798463364,0.6981810665843793,1.5660006315850323,-0.30400066207170806,-1.6962611832105874,1.1570600885773328,-1.2679671939704855,-0.8874496084057466,1.0544592887996107,-0.5712685679058124,0.572682408509331,-0.6546698631680148,-0.30803656014263636,1.5502727418781077,-0.7178250706188383,0.7566282719696985,1.5863354711447875,1.0356128719868236,1.3136063160035103,-0.16015894417828772,2.233876131436286,8.050284367902945E-4,-0.22703442982268188,0.004588564510295106,3.068923665223006,0.013727882925347866,1.17555513359273,-1.6957775963800943,-0.7932486027817065,0.6880292819895943,-1.553585167533699,-0.45909242809842565,0.8470493687814735,0.15004210991230174,0.3665925324850074,1.4688870781439316,-0.5828164751520174,-0.8331277974217098,2.1557027251324956,1.0323282568567549,-1.1910884955917436,-0.4023345649495597,1.5127113172336646,-0.26177059426139454,-1.1932931345207858,-0.34633235152700437,-0.5340455925199331,1.2467437650449142,-0.9175195184137576,-0.18696026858701587,-0.2628021436330191,-0.4760117635463464,-1.8848846181969987,-0.2201067296525468,0.25377418662767215,0.21767108099920496,0.3253574399466955,-0.5587860186424275,-0.2774481763567668,0.023459639342754947,-0.661683718183001,0.3562989637803216,0.536958326914362,0.45570192562242134,0.382184567598578,0.3238742030103618,0.9538355530824262,-0.20001431792559082,0.07294985667016368,-0.2602079409444,1.5788390751233616,-0.27257899715736095,0.23314746958615434,-1.421567986203214,-0.7271232646673838,-0.8167290052393986,-0.16824338411272988,0.8754639439614663,-0.20157848273386886,0.2814730085963055,-0.3542593041489387,0.3333894676255766,0.1658557009747499,-0.6747254929091672,-0.7952222635822458,-0.6937633442716414,-0.9861296573559618,0.9673141252277225,1.226736181444435,-0.07434448521880926,0.6498308523994528,0.5735002339693743,0.28089398986093844,0.3547832099653774,0.3438148296641785,-2.5288869191187184,-1.6573174248891245,-1.0686267335787334,-0.08283303627926636,0.33281326515503523,1.838771286409958,0.2716694270358397,-0.7516817828675579,1.3377124216651846,0.204968227723298,-0.9843643612949279,-0.5117901205949019,0.4674941958534897,-0.955746486488208,-1.6584975436591427,-0.4384461152260068,-0.1492302111040281,-0.7902861556212172,0.7333167628490029,0.7844725134220494,-0.4885138195695891,0.6380429339176146,1.5727511526840061,-0.9798370485980582,0.7525670546366717,-0.2526525509664712,-0.10255433294323406,-0.2228913896825658,-0.8493198442725133,-1.3589810049988809,-0.7935412898734898,-0.4447324909929931,-1.3962433884954673,-0.0019043075704784944,-1.431806935567898,-0.02799479501198628,0.1913918569797061,-0.5519049069179097,0.3540749134332799,0.8431110163595155,0.1942905633236593,0.4773594711088842,0.17424478495729334,-0.41379345731795936,-1.2259475083550133,0.1182852213002127,0.2323873927507652,1.583285379514836,0.1641541076152812,1.3305019486924181,0.8186822428427285,0.5573766894558769,-0.5156753347436362,1.2650913202162763,-0.5043585206078979,-0.9281936809419175,-0.6941017712406773,0.516976297441567,-0.4092548733275346,-2.3432555143468385,-0.3895037848639304,-0.6920813960556766,-1.5362812057378947,-0.15359081842959313,0.16478619653234158,0.7573312092267933,1.0838203047961181,0.12029822798265194,0.9754239089074079,0.7422343421508686,0.7557215523823237,0.45162668592521926,-0.0725280356397542,0.4329499092356419,1.5265818365796193,0.40197121982058864,-0.6068537157976609,1.2660220699871536,0.3751438567768941,1.7201575075169018,0.9684958241393492,-1.9600947013394312,-0.41241135922163524,-2.0388115509932696,-0.2381724255892664,-0.2532179925361508,0.24605093769697145,-1.192233081548774,-0.6151813063306664,0.7450180145377633,0.939526725044825,1.7097816434184012,-0.31475323145120027,0.411417779804235,0.27627861440284285,-0.36451032321924765,-0.10550551530363081,-0.5356457185934599,1.7113658514215124,2.036591854188032,0.35334227403778035,0.2648391433121245,1.0544984639477593,1.6341706467023287,1.1835373598700718,0.98594018500735,0.6157771646016788,0.050473037750682084,-0.313655388068446,-1.9478019689002117,-0.7187707710349912,0.07602740584497754,0.5005295080471159,-1.4801832714863,-0.09083206561469322,-0.998213082931826,0.1993234018087762,-0.013696830955705366,0.8676696876372071,0.188844938331723,-0.18515483427806323,1.3983351079398363,-1.0287426450118822,-0.5891825532511802,0.906519222844149,-0.13361271329546925,-1.205641962739114,1.598204946392567,0.3591277005899024,1.0856215462958752,0.8173190834767129,0.2739423531656166,-0.00955019675184266,-0.5354400901944734,-0.34589135323856995,0.39845590870254083,-0.20243855724129367,0.18252517441444577,-1.0465106810666385,-1.8637399756454827,-1.3287778749700434,-0.4752030039053568,0.9843552080510832,0.34715611078025793,-0.47168591513583424,2.405202763635873,-0.296271152263433,0.9824477168722273,1.8621279029931237,0.5568318042154494,-0.05750142441822372,0.053216394306268,-0.32186969170028973,-0.13200284542409868,-1.2489222001751692,-0.8119919756419276,-0.8959137020968121,-0.42794786705119997,-0.5832399547331633,-0.14953067021912597,-0.9958808558172991,-0.38570525934813465,0.07749493313582222,-3.5934387947758757,1.5015117033375085,-1.7883103531572606,-1.0435486237522975,-0.513356434213014,-2.353850497069076,-1.4745530226537051,0.6762612382084523,0.31443705104029124,-0.4445482315095548,0.47704156810786763,-1.4084556940297759,0.39630386951512325,-0.4810958281620948,1.1582345163339423,-1.053051249083097,0.05729644203921903,-1.7494622086592235,0.1342857780287122,1.0672492028078808,-0.4118896555983844,-0.7015143039063421,-1.0142558198273781,-1.8230171024381823,-1.2615879065391054,-1.2503393351360057,-1.3903127940409614,-0.42131916363679106,-0.6247500767305691,-1.0866260429239403,-0.8363640369591043,1.731477503194276,0.24305297837665846,0.4746816143043255,-1.2148117786531722,0.9737242259437149,-0.5414489415251572,-1.8613687020613594,-0.3993789070908135,0.8149997492485521,-0.5658918721131473,-0.5024892361619482,1.0259728463081546,0.6760869889173142,-0.21573430566254692,0.05947963055192705,-0.7762240060869047,-1.8190626970207844,-1.799320529778888,-2.2774986271004503,-1.2065700859353496,-0.8249256586122294,-1.100233504908463,-0.8103773249391449,-0.44854537179287707,-0.33967522482104967,-1.9922393537205056,-0.9246280049100417,0.8296438146841038,-0.6179939995864452,-0.026854463599307536,-0.6932195825067192,-0.9298324972524586,-0.8878590902996885,0.040499133744755625,-0.5343172903356483,-0.43315255741668707,-0.07697456259566567,1.696200910566262,-0.5476529182779099,-2.5113342921615214,0.6498476957907141,-0.3830240317747418,0.255026130844133,-1.1205849195461541,-0.4645786603043572,0.5694847388282196,0.569075902856296,0.4019571520570774,0.5833507930775897,-0.3527263453736141,1.2462576899649593,-0.8311050699332504,1.357785017574726,0.26629999171064483,1.7849991490350752,-0.11704925414338302,-0.3880414966658879,0.06638066747772171,1.6020396066774656,0.5878696184969523,-0.25153793050578743,-0.6483275094344143,-0.8052501556400463,0.5021478362641979,-0.5467267964119097,0.34069625108057855,1.2245099361949212,0.2680434203859355,-1.092429985684088,-0.1834570802013121,-0.8523953268388507,-0.18134663292281467,0.3222450510024878,-0.23502262915634076,0.10091213604651218,1.5486043494095656,-0.7020499013626773,0.34473078949537356,0.1114223159788515,0.4185697573449373,1.5398675071647665,0.2415835054412644,1.3577562822946159,-2.1032920946862173,1.524564661950969,-0.08193554400625164,1.3909260072799745,1.1840893528232153,-0.0821827698730637,1.1539070810363543,-1.0622156384363242,-0.007953815176037783,-0.6517283790624486,-1.1416328210403812,0.22422276935144186,-0.6636890296511441,0.883664723806024,-0.48296119939490134,-1.037425428269199,-0.885500421016556,0.15347400372638845,-1.8720870914346777,0.8608531739664685,-0.8931618291358563,-0.28666752513250776,1.2957114344525418,-1.4961753029784362,0.5025250329969241,-1.2466493981071896,0.7363842502958187,1.0941208921464944,-1.3710031635689144,1.0693486084924047,-0.47490080406205354,2.4208626484368265,-1.134536093463285,0.8997306965459907,-0.9996808812300757,0.41257373751455695,-1.7970263966164106,0.6862242166693838,0.45682318543695516,-1.877227141720666,-1.0615591923053012,-1.6973619058557041,0.2807613383986613,-0.2670484773943603,0.29220288855596904,1.2024648583144437,-0.6408742710630112,1.1460912864307302,0.39030501588244665,-0.29240307669212373,0.5685506699079202,-0.6232419259407178,1.7077718819016212,-0.15402465813674396,-1.0750943415457423,-0.04958000270265002,0.959543879271948,0.5710412941303101,0.9546463049131919,0.6064690843176996,-0.012637190395663215,1.0083287699787113,-0.4377852775477383,0.7816380483038656,3.0065349605614258,0.41423678734275443,1.2339366412068378,-0.5955209121611138,0.4447411419487009,-1.039719540656793,-0.9738827025868982,-0.6318252919001537,-0.694311389564085,0.8584221328319884,0.728397145353993,-1.7220003159895878,1.5993231571025281,-1.5815558879002714,1.3067455689229333,0.7410375518066072,-0.756264535027706,0.03403469605424448,1.600035689840749,0.3916244120515181,2.1798035245517373,-0.15367151604256107,0.4527065456178477,-0.9987363810130401,-0.4081394932750291,-0.6619682010556481,1.201328774777699,1.2341429541651987,-0.621655384352862,-0.16092242322831132,-2.201325656247285,-0.8195630035564593,0.2581315014876498,2.265172150746101,0.8289569805391733,0.28394899022881853,0.2747033457100247,1.2854506525642257,0.09021229790728014,1.0544954890990854,-0.39655572463660266,1.6406394220259133,1.105406776065477,-0.6715226681146631,-1.2906021708808821,-1.8782339240377948,-0.40824307698029155,-0.14220823111029152,-0.14927214624,0.17462857002187998,-1.5208000687189176,0.9961342656488229,0.9961793433611392,-0.6401514725890876,0.10706634433556307,0.5811513152809661,-0.7986257295345519],[0.11174981974084541,0.9115882215248633,1.389219456648945,-2.0192495124208594,-0.6546657948713129,0.9099771512089921,2.091492267287742,-1.1491518930402072,0.5413548061981024,0.1142165398273655,0.15450025703415274,-1.0632493967078085,0.4825989013685479,-0.49749645966641637,-0.8689427043837641,0.4001033842744027,0.45144490356181327,0.36201851660982315,0.43717193179922564,-0.6609485657380044,0.1633224696008838,-0.5938955259050547,-0.037399337895532396,-2.4588946345725318,0.007037224945311009,-0.8699019261678577,0.13949896891135483,-0.06124365879245507,0.44738300999678354,0.0837506033634911,0.8019085851230165,0.6768150859892633,-0.6685431893591377,1.7826925449211681,-1.0866635380639869,0.520504940095447,1.8686215525592478,1.3204081481642216,1.5141001128114815,-1.2329979584573365,-1.334170406646534,0.949155336042546,0.44502580929866703,1.375839211703128,0.11393120896229346,0.4270281982140731,0.7698657435895498,-0.47339678175936434,0.4157239407236557,-0.9885938091453643,-1.49217625059314,0.5292635091236525,1.7027020849601429,0.4617506386576316,-0.19913446245013017,1.5017955762702329,-1.3264175560042857,2.5383961730434668,0.2221391208968946,0.8934800178227205,-0.5586377902163465,0.13929537193695507,-0.13771714796530382,-1.1491649521760319,1.273744361159035,-0.2971434664676254,0.9851015391495417,1.0213008201244378,0.3467353254631749,1.3780933694033504,0.44496277131176876,0.08865611323652214,-0.1587607204168212,0.03389775545833866,1.0977091807845953,-0.259781179844672,0.5510348574161104,0.8485119390733901,-1.9295132557225434,-1.277141158502282,1.220216795839086,0.35713464766400715,-0.056905596791123,-0.296360989626539,-0.3300316778230676,-0.18249714064861652,3.4821239595067444,-1.0667547086165452,0.49927150721762353,1.2922876698955033,0.17284412186317302,0.6534458811129767,0.8159608493679038,1.3443024575161289,1.1876738718766227,0.9922934760662672,0.6864841654944583,0.1690018562146476,0.03258214071484682,-1.5147038953977883,-0.7766718831128332,-0.24573733645104132,0.25724190411899656,0.6207227607998703,-0.6270976901073677,0.009512315516294547,-1.8031422173471858,-0.07508127514917651,-1.3059581272375498,0.6384393079140492,-1.6097682476160717,-1.5130402448410731,1.330188468690011,2.246784334469434,2.4085904946995584,-0.7579446349081166,0.6807575649526678,-1.154463369397421,-0.5189455976171985,-0.1794516200633348,-0.2236483752031259,-0.558137250922129,1.327734360504297,0.36080040359752497,1.0331689721816055,0.09220419827791664,-0.2528810098687083,0.5583441058491454,1.4610808974781861,0.7893415027189932,1.2937387986866022,0.7658759003548751,-1.66316268681315,-0.504714181425107,-0.34828560900811156,0.23898033017655473,0.464307980049764,1.246621091166422,0.9200579652451726,0.24448076605911126,-0.20946422043821553,0.1247640826296944,-0.2478713840407415,-1.3235753314935894,-0.18095271510435837,0.6799037532842027,0.38026645368007944,1.461989363199644,1.3276176602521708,1.7955576093693226,1.1674057915147422,-1.1815513267989124,1.2145715852932621,0.2081752071449614,-0.09041078311769052,1.3751016518656622,1.0606721268757924,1.519085344240761,1.3394954375461725,1.2069536387958144,-0.08998494631093393,-0.45999235984108044,0.6423854031409146,0.5846102141987349,-1.1956080961625526,1.3564013856454205,-1.425037457603424,-0.6526217725657486,-0.9507092615204265,-0.8074920476548659,0.6269438526291531,-1.462204416252062,0.045275783257989616,1.210897994823886,-1.451181692022809,0.7085204339323717,0.7541166784638956,0.33963244411255755,-0.08092264705484392,-1.5111673675487074,-0.7417885169501149,1.0511233557866575,-0.16471414773091284,-0.6830370492053304,0.031334749849820605,0.4266450420046855,0.9295892472187645,0.5074535368662033,-0.48266868152666004,-1.5122222188637102,0.5963842744627541,-0.933316423210276,0.7691254335431672,-1.5036696214198961,0.8402123537542093,-0.17919439453730598,0.5613229267253198,0.6660520557539347,-0.94900629298798,1.2864529809218426,1.1249959797797626,-0.1278666203048014,-0.5529115893107247,-0.9231348164031173,0.41025187479043757,-0.8263989424580173,0.7752933571836462,-0.5329168833333938,-1.60847104266557,-1.0399388918615085,-1.7708193951885909,-1.3266142343888396,-1.6789322185963067,-1.1357302239334912,-0.4125663439950107,-1.4649855473802122,0.783088703171255,0.5346520028692906,1.6926772318386307,-0.37763145490001354,1.785656158027015,-0.8127081583618564,0.9473792451373134,0.6073518998235254,-1.6232159067601237,1.3930572261405965,0.8392570136700698,0.34045355835049773,-0.34657069507260074,2.9477493692983003,-0.0508293194323654,1.239369484027817,-0.06347379651731402,-0.07576101446941612,0.18044182760458038,-1.6077959229370464,-0.48571605774087384,-0.020671252694417986,-1.2208435708639531,-1.3157578463843567,-1.2071206517606214,-1.7216912899474728,-1.0591025756449728,-1.1991930300005669,0.6347826375430221,-1.804074551260044,-0.5706194320394864,0.15217634538637526,-0.3746767041088414,-0.026521100957898624,1.4947898093542076,1.7109780043793001,-0.4395629320784024,0.6592809166107285,-2.0080140601529095,0.03353219019784177,0.7030738790568846,0.28962882329108536,-0.5222888264200454,0.39642307614138156,-1.1418158956235818,-2.2646301907269044,-0.36268937819986047,-0.5414952934749147,-0.1794279111584577,-1.4327180541087337,-0.5490049059581867,-2.4337694216203967,0.45546908034805794,-0.2920028614289306,0.17313529540911338,0.09953111191488584,0.5473384314045123,0.9160613191453032,-1.2125153966530884,2.5060561182700445,-1.3569342774486313,1.2500605868599377,1.1113900074887209,-0.8267578721907437,-1.067699887057619,0.7029758469501755,-0.49150383012571613,-0.2060444951349958,0.005827089766265002,-1.129562541123302,-0.6428265742875422,0.570806408035523,-0.4638304995614424,0.054287702716691685,-0.3454406879570706,-0.3541107973575381,-2.9369736342921917,-0.08241058162178923,-0.4311183254310549,-0.8001991095576664,-0.376188184067445,0.31332662620792745,0.5507999418509474,0.6697916502501516,-0.32347660103806963,0.14742953165805214,1.17918282905165,0.8780432341217655,-1.178670779272733,1.2598405283174696,-2.0168053054121673,-0.4767790535092565,0.6019554223015504,-2.1066851490587784,1.1737407316936224,-0.5184429720543132,-1.4032021476262773,1.4216825999019185,-1.1660188258182038,-0.6243082305588538,0.8234712851384388,-0.33341553846983585,0.8383681924611608,1.594316093110257,-0.5828216970197141,-0.8004915855731024,0.18477234586566454,0.34367119693493536,0.2848113586249468,0.17746858037579868,-1.5956818510063142,-1.606466977727589,0.9411328827772489,-0.6914400528952125,0.6116141158872977,0.9949979505939271,-0.5648722844686193,-0.29411160844708945,-0.8161330565553899,0.4524872057525571,-0.871547284620601,-0.7567009759463624,1.4800975122864957,-1.101796227829943,1.731240984717038,-0.017313807418433146,0.48894257276897307,-0.07669414523445406,0.44312771503980597,0.5382515267313425,1.6648573256653878,1.2427343534031847,1.8938534846556947,0.44647929664987224,-2.3300866614747915,0.1608691945632281,-0.5005527642398077,-0.04519240493479447,0.10947646389028333,-0.605599232918756,-0.7254156167439707,1.707091737902257,-0.5451300483820861,-0.7643375572418237,1.6519534390930568,-0.4485218874823765,0.8809290766832111,-0.3923250814359377,1.721772291690212,0.9004265906092641,-0.14524511426831258,0.2569901718466304,-0.42942686284578235,0.12574144620026995,1.1708562101624513,1.3824835770882635,0.2363036154334713,0.7951104373459054,-0.24035829439961437,3.151995803276849,1.4828934509738922,0.19657422981541942,-0.7062139685832663,-0.8777330177790308,-0.13580852262414117,0.7925816911286532,-1.2435378475364827,-0.4945156249816563,-0.17169138012821403,1.2745546270834844,-0.6819627761049596,-0.30101519682018846,-0.5783691295032817,-1.7709921729189173,-0.8978277298889819,1.417379385849155,2.8049761148666867,1.457055274498247,-0.6485984652857835,-0.654627042775116,-0.7077902723029006,0.7892287049142112,-1.1187817489310208,-0.9321621558528881,0.7598464937801548,0.3611478691322024,-0.954282102659046,0.8332080085645395,0.13858506599990125,0.5828785155185516,0.12105985529609128,0.15852772120884265,-0.20107808035186833,0.061771821299869675,0.220998665618126,-0.7478986125723992,0.5997811091511273,1.0504557580793417,-0.2079722725504885,-0.6599456282246694,0.9946015109898481,1.3654184210396634,0.8200909135251645,0.7537962178284996,-0.9704557872097118,-0.05040523365970426,0.37882483786696786,0.26057604533815926,1.558660007121026,-0.06265649935569673,0.7649978108803416,0.31774252641052925,1.3256569825360502,0.6555752301232857,0.6985846758930402,0.7930926004305129,-0.15103310806868978,0.3952124883121535,-0.7668163729547623,1.0981702415623051,0.798346467358585,0.06544147617278347,-0.34378289837895887,0.37544402510215724,-0.9191781292897268,-0.3415342758625149,0.10895380643996234,-0.2397068154572103,-0.6798927779294964,0.07627466671701048,0.6004450454103362,0.2987990242747118,0.9061739823751446,-0.3182109372838568,0.9544712570109122,0.8415397519501627,1.7472500263135862,-0.9104266625706391,-0.22392440137572922,0.9411066430911366,-0.6794846656665697,0.9520731921749287,-0.5892278626712942,1.119645459771266,-0.17458803677860915,0.9924840114386733,-0.24261732545741163,-0.24069487771688686,-1.1744438007680218,-0.0591489535767437,0.2922255771462906,0.8943225014343141,-0.8512656783070621,-0.04365759741102652,1.481763419800014,0.694478164110149,0.6247380770559482,-0.263899249149272,-1.481999037584766,-0.5973583726479093,0.7118481132488167,-1.2536144011240364,-0.6935665769586046,1.354593381115593,-0.2590832440978855,0.4968858796067431,-1.2049317169207578,0.17501971131837643,-0.48734908461851006,0.39227336825578807,0.021890024532478767,-0.16194163614676602,-0.8365438421322559,1.0799637410805971,1.5035102657138606,1.560796220329744,0.6511759856377916,1.2326962858703217,-0.43706550287426704,1.0960224053278738,0.36516647647012634,-1.1940049439389115,0.8135409407450634,1.1498926519862773,-0.38334618284894667,0.3077558528507869,1.6184260419859477,1.1962059441604227,-0.27732189811684016,-0.6913048990210259,0.6828573869580191,-0.0017960859690366636,-0.03663239124795474,-0.37168062656421424,0.878922815038578,-0.12961589396236453,0.512615155269322,0.9241512163909785,0.1893298822287858,0.3307954790723341,0.3079638057796633,-2.412336870125946,-1.4145457482359565,0.3543638446978848,-0.18795565453355298,1.0256786316095905,-1.1976560858651808,1.3663367045299555,0.688803573774103,-0.7969693054849957,0.7281578150769799,0.22024773446787568,-1.3425007402851976,-0.04541606213156133,-1.267942112796508,0.46765533528416986,0.5885200836356245,0.9030599087231722,-0.785444992206193,-0.14583257956185997,-0.5467937311748049,0.8630595240211716,1.0721115990091885,-0.6466132140490143,1.4116235171684621,-0.4827193629286194,1.9265302813280114,0.4025725298836868,1.954670175733524,1.5197964565548359,-0.36031071063647757,-0.9581947144700738,-0.36311882447115595,0.8828407869347225,0.9655447320748777,0.6819757753215946,-0.28957933000513697,1.1312985066882186,0.38366547334209183,0.7237606657907685,1.2437743780920323,0.7314967464248245,0.8331482079617556,0.9689716171894928,0.07982190541882235,-0.7363866467563286,-0.07260597774072944,-0.6534790431112077,0.6025106467179969,1.627612294311379,1.4499455139303032,1.55456050982432,-1.4933421483664173,1.2487172284253332,0.4274864895926972,0.6128335051805113,0.8867897342634947,1.0311270253112015,0.5316410630231594,0.6413853245946186,-0.01892088652614546,-0.08621554306347613,0.2666625051908786,-1.113820527801609,-0.36858196822821215,0.5906477798517246,-0.8821233024925591,0.8065825674709864,-0.17927333068713713,-0.6761947594076738,0.3204870093745958,-0.15773995774169444,-0.1034419221809145,1.6849211755484703,0.5839126566284435,-0.11266764988429918,1.8277858829771356,-0.16259850154152297,0.5693438846592606,-0.6900184080308726,1.743266165721462,-0.6570591778951695,-0.5146125715764599,-0.2986873882590443,-0.7645515440650952,1.8389674024080918,-0.7549564037125581,1.462809720835159,0.10107909205536242,0.32419932092895787,0.2604163767866017,1.4181202048916977,-0.4576347396650638,-1.2897732317567423,0.4936336986029236,-0.6225852782667494,-0.33593687158737284,0.6277449147777685,1.1900847795528124,0.8719317948051497,0.770277287952716,0.5217570232157445,-0.8602932763599778,0.2002004623997887,0.29907032773684317,-0.1815424389767552,-0.8361063196511942,-0.8827666672509894,-0.6501876936764424,-1.3927273399399243,0.7464010021402502,1.0772090787092408,0.28585676259538034,-0.6264651457259628,-0.13608665557894387,0.8608356977899239,1.1032263055139218,0.666184223328506,1.3001806700907022,0.18435550815317814,0.8997936923139225,-0.23609132287465295,1.7825812077325272,-0.19540690600255908,-0.33259583338925375,-0.686795532921179,0.276264378776709,0.6070617215990356,-0.03787647358568095,0.23114068474724092,-0.6796544944426327,0.7998321731316753,1.2168345800736233,0.7704985693130492,0.35222045137986085,0.960957851130928,-1.0272910451457158,2.9949886490419475,0.843951972098934,-0.13019416921819565,0.014296938492187182,1.9928301441067804,0.6841865912599907,0.3236129462843928,0.8375609285941209,2.098061087857618,-0.8542124162353437,0.01858166053479666,-0.9728509423711761,0.16283742685882457,0.7984420629861546,-1.698241357984022,0.4665266029132964,-0.4122186142884734,0.09712975086807787,1.4796212393253083,-0.3026871757020902,-0.036686446881327474,0.06165121360299703,-0.8721515173520453,-1.348572023686084,0.18773164874351803,-0.27322182223963093,1.198989764533061,0.315369456117349,-1.3954006848287621,-0.6630380514439572,1.3778921053996882,0.4133009330079495,0.36194699070074826,0.14246325139427232,0.030538579082997726,-0.23241790692477898,-0.5191925650338951,-0.2239634621767413,-0.21940693660746183,0.07336746298889059,0.3443604559182216,-0.3544097950849831,-0.2862955675959393,-1.880722509494387,0.9472313828855634,-1.2695561282061727,-0.8787611769089333,0.3909633969269677,-0.5044311763882746,0.5147384221072003,0.18842468168950466,-0.5717296745628382,-0.0573273183525289,0.2824674821251003,0.8869730819212431,-1.7883382368738208,-0.5214192794055406,-0.6672645159508042,-2.8845863807393153,-0.6986113246467648,-1.5856153120748244,-0.24162903328634974,-1.3578318433456733,-0.7190787546969947,-1.1726062346751893,-0.7014123430072977,-0.5458687656354304,-1.2694030294202403,-0.3662689207944535,0.12369528917930343,1.5091470557031985,-0.4176424923404995,1.3595600165348367,-0.11340138232727764,-0.6898162989190078,1.4297781841866388,0.3116632756988861,-0.30158033277686097,-1.5244626446952692,-0.6723282452865899,0.9160940323848605,-2.4511889883344393,0.24661742735195782,1.0777856095907294,0.09546689580532217,-0.2905120233932286,0.9703944953643304,0.4914393594304142,-0.5236997671287982,0.6158015645174159,0.18001163151092334,-1.6625393033764655,-1.2411649334479646,-0.5649213521419485,-0.9507844154540094,-0.003083354706229686,-1.4125639761060338,0.6187749198398936,1.8911077064885782,0.7028282093785443,-1.2787385703996579,-1.2296491840825132,0.17482432335702733,-0.7193106833553785,0.23994248884553082,-1.7742623097149632,0.36883058740055835,-1.0808043006688102,1.0661088201404658,-0.854101699086104,0.6218532693584446,0.12003997375292089,-2.206553199016751,-0.5681225256815872,0.5334062214616385,1.3576928006698192,-2.074808832765954,1.5319616446755078,0.4289650992388571,-1.2262918995183438,0.5597769707001171,-0.3579296017931641,-1.229439562987174,0.42175584895790524,0.18538972519479258,-0.5044310967388773,-0.37265732829573783,-1.8927754569541098,1.7652919606475947,-1.0203658472849448,-0.30418827746749],[0.9901385381425875,1.4965583413429115,1.2185935915132473,-1.0051957407098024,2.273838513839643,2.5699226538046673,1.445737134680099,-1.018550494793143,-0.040848017432822376,-0.7213454350781421,-1.0215158396946566,0.829320502143299,-1.6035091713400764,0.2501527941133215,1.0098383677926102,-1.1826320584243273,1.648780477080063,-2.012507978358667,1.2478276313448915,-0.2653316997235379,-0.9193742966197457,1.0909477293410863,0.8773689930910583,1.0154970631910476,-1.0029594917327866,-0.8855851272621131,-0.582599478054489,-0.5673745691345524,0.007341084350987385,-1.0334921536469857,-1.4771847316300304,0.3679307623070936,0.6051942128992946,-0.21759079389208325,0.8464720920194713,-1.828224057201048,2.4598800302815356,-2.153519958557202,0.04757867454317508,0.8346194044629219,1.2633211267336468,-3.156289800745242,-0.010023154806625082,-2.3592579404597265,-0.31527851226617004,2.323629476927409,-0.1572003203174215,1.0046015237675097,1.513467403321755,0.36455917343631955,-1.5513486070247577,-1.0246252545381564,1.1890329512129956,0.13603293896322124,-0.8994084688254587,-0.6266401566731035,1.7600285690811452,-1.7214860347703498,-0.4499832299831409,-0.5461423395032315,-0.39625690713320716,-0.7113918453784351,0.3239364497641282,0.42634772271475047,-0.19694342000857692,-1.5929737623828226,1.5795476360436667,-0.4549601898323063,-0.2966517088823158,-0.9136402159398735,1.2484713827963765,0.38560273349512597,0.03157419342668913,-0.23513254370739303,-0.6426444903422264,-0.42742109322094823,0.02705502847956743,-0.831604714042509,-0.9466951063756659,1.2372034829444103,-0.35067764431206866,0.11825217733838865,-0.31263967880437954,0.008786275505224898,-1.202800787628774,0.8191261129586738,-0.2604097108171268,0.9041626942202323,1.3245099972763208,-1.8393086537679253,0.6574177198496425,0.6766111686845345,1.7472582785914548,1.4044856755929775,0.12419584503031908,-0.8860960985199774,0.4758681196462056,1.1376629483959557,-0.313487848693415,-0.6769251437109822,1.0447139933630414,1.0990715050853126,-0.08274773765872367,0.9308469085455406,-0.7015948410160916,-0.46455227578599506,-1.3397467618243248,0.8173323421601447,-0.8473230995092523,-0.9690323569404516,-0.8555066082608159,0.7759491411998112,0.5834529047369528,-0.7989292285674681,-0.9573880595900168,-0.29134875637030505,1.8698642182135174,0.14547891563762713,-1.7097737196545808,-0.4135619849264949,0.6850856023866845,0.7478392090178385,-0.8934972255386883,-1.7919251082468428,0.21341379315569686,-0.2824305350452621,0.3874334915228835,0.5237159912043609,0.9993724072199547,-0.00702991592066355,1.2447084977957465,0.4669001873979512,-1.1071210281580617,0.8174961293848384,5.629223141680995E-5,0.553563136797396,-0.2592375664151584,-0.4195134869446636,0.5350176407505253,-0.3024871477680702,0.04872370419356039,-0.26462938584367207,0.947941935936529,-1.2857515766053083,0.5806760362048056,0.7820139725087938,0.6679048101956016,-0.44095394086651113,-0.6101838042846272,1.06197808892728,0.5019267144564983,-0.6344181907279732,1.0003861737948123,-1.5362307981820806,-1.3112888266543425,-1.2843126675811527,-0.7898862845720543,-0.8597439851149871,-1.1659590324592175,-1.3737977641456611,-0.5722200457279313,-0.850280471165165,-0.18672668913907153,0.8060200910020819,-0.37577361511760715,-1.555183425503018,0.9993343753420213,1.8479484209743453,0.5385328643791012,1.3976994867819925,-0.4873037237838613,-1.024160536280376,0.4765580457986316,-1.037654056823199,0.04084576015717372,1.3435157589954874,0.577559394379657,-0.5855234626465237,-0.38060696663476257,-0.126727493436138,0.46967410967848694,-0.20797972220644304,-1.1360863792329614,1.1364758093146292,-0.6172374944286432,-0.15790725715680884,-1.5128339260735728,0.04536861570169963,-2.4576547039341596,-0.6707996519500813,-0.21491374869479807,-2.1016799952949414,0.7356016460668593,-0.5451221314674257,1.6380571502133838,-0.03830471048238289,0.6946737626167162,0.8940827027611131,0.18486101503043692,-0.7510631015261862,0.16440649592293138,-0.659631205894451,0.4823425846434221,-1.204014825257077,0.05077603586879747,0.38326336491058155,-0.8219843315688312,0.9436345206366666,0.5037135791816915,-0.17185952857453268,1.3159141029029549,-0.007777681250233913,0.7461870354233112,1.0960151499484463,-0.5814490860577206,-1.2874104622304128,1.1262543154674118,0.32805602800246836,0.31269946215070354,-1.131352719464012,-1.509696335990459,-0.6853519957505454,-0.21621266923708501,-0.09658038671750448,-0.6973052937428791,1.1724805947434394,1.3883236394374996,0.8234241240871062,0.2458136851215171,-1.898217740037162,0.44014334500337626,-0.23409661888534308,0.42648163948851797,0.6095417537844591,-0.3195261933060735,0.6601845298313869,-0.8379027556232085,0.2590775457990095,0.6876795928147723,-0.332656964940926,-1.4213538042381457,-1.2527489003495185,0.2154830861290164,-0.2505592742419103,-2.4722468100154176,0.02283344148471763,-2.4129478261274118,0.1402162761658734,-1.7149613570560958,-1.5930781163426677,-0.5228528178715992,0.7402817936486609,-0.2878520932015884,1.748120478819685,-0.30110479182112204,-1.1283220244505452,0.5280360533006363,0.82347556124655,0.15897347614067014,-0.4577848792709209,0.2611443539595992,-0.63152632201704,-0.014949778653915667,1.3493198291254167,-0.4476985337353496,1.4072842163977213,0.6473483770094541,-0.7254744286242252,-0.0033109572408986485,1.0975049327942281,-1.5653395941908166,1.719963963783344,-0.5111292788358108,0.553888471929658,-0.338460092793858,-1.851934759893003,-1.1710945684405851,-0.5756529437532214,0.9243939953891243,0.32608954648906147,-0.37194654230313723,-0.23491207023916563,-0.6076134308360582,0.7924675064650176,0.3981953839039259,0.04876812196760436,-0.24549269899825832,0.10282578306833741,-0.5861881869713993,0.8815413985195221,-0.583415151645711,0.4652519013206207,0.6272643319734645,0.08466067760153254,-0.4105245810014976,0.08808455322502944,0.4125607031106447,-0.2915709696250454,-0.44949801365601594,0.12979618513395233,0.5022096481536583,0.9975009562926238,-1.3924221040672489,-0.7683399819473223,-0.3134703062524051,-0.38449484918633386,-0.1232362402149618,-0.405796653352672,0.4314267534291116,1.3480189733593568,-0.36679169458460614,-0.6449198747332913,1.262615141518284,-0.00671582409240011,0.6179733400198695,1.5208529335244338,1.1022888749042234,-0.4736987212921699,1.0095131194848048,0.2505395662536912,-0.19398080294370593,1.6353183594436802,-1.4352551206573492,-1.1919021040997866,1.11978781884698,1.6145017546543083,0.698986015091828,0.2397657916370562,0.10271788658346367,0.7597193490629961,-0.18305203660606018,-1.018382931801239,-0.7467107144044872,-0.7178817205707296,0.23062445321757205,0.27741068260253804,-0.04881080565168763,-0.7416412928553232,-0.9391231461116848,1.7975850739568258,0.9623673424090343,-0.03758382524352825,-2.0360900259436168,1.4268905234090283,-0.27148892356582965,0.010040717554059695,1.123917398814946,1.055650850839717,-0.9688906522031924,-0.04714462545389506,-0.5281249904510796,0.4851625229499374,1.7451243677399932,0.6507884097400309,-0.1337384989524546,1.0972276783822994,0.46857982040702006,0.7899956532200639,1.0787469425681984,0.20125788490262153,-0.5396713578120732,-0.244800427859365,2.890012923267302,1.5380698657081866,-1.6433280571582278,-0.8618012813705686,-1.3934105441491376,1.3287940675199106,0.060679367641296084,0.7621163906138896,1.5970349926216323,1.254529758300654,2.780275420348407,0.6183012928918231,-0.9254189257514299,-0.8636106011345399,-0.4696519383378446,-0.8497779264649209,-0.3428610518157048,0.19002788767426013,0.33896125120928705,0.7543831698838417,1.7025134464451512,-0.26613963613083974,0.961461730034043,-0.3513998145821576,1.0660495726159671,1.781958389655672,-0.7835626516087627,0.007866944577371996,-1.166065282738435,0.7364635335805609,-0.4984982312245373,1.5911541049344549,-0.11390843428646878,-1.323076416684787,-2.3859841046623034,0.03780606653290845,0.47647782148909923,0.15020488156176826,-1.5550932291191069,-0.2662717845809054,-0.16398481731755468,1.2088463656129187,-0.4702892354230483,-0.9398083273817176,0.815800428517536,0.8334805753886123,0.3474068825284523,-0.7468330985229175,1.8501289221990602,0.43950161736115856,1.3281287863914775,1.1061319782479957,1.8906892706915635,1.3772281401494413,-0.08826256495026695,0.4462255010752853,0.06977513015114392,1.952071783405442,-0.6308476587436983,0.8114541639842976,0.4480571393217956,-1.0430389882352376,-0.12151160145254314,1.1737572220578434,1.0333231940631582,-0.1286744317689332,-1.3568889731697114,0.8827129639814539,-0.5694811633810315,0.9199014347215821,-1.3004754308309245,-0.1827658538458762,-1.1722891040328656,1.070482990410226,0.13915958154433655,1.7642482885646098,-0.21274460817494562,0.8804766697564947,1.1802721614499156,1.2310403188839971,1.1602822332396352,0.5289047287461479,-1.2048342435060613,0.3467446220640854,0.5479683882123437,0.203238589383185,-1.4306969301424701,0.40303845435892616,-1.6465483317541743,1.358817480913943,-0.17310597367949204,0.08883638047602235,-2.534151529665478,1.150106941536131,0.003880787215893004,0.8787475254820037,-0.2106475080292972,-0.18290602712262793,-0.031309362234698795,-0.6010354636781868,-0.26672144293231664,0.6740198959821984,0.7988658779596914,1.6982608791462426,-0.620469279331739,0.9778532717024067,-1.3083043866211252,-0.5767523536873277,-0.7856855578235293,1.4890021442330774,-0.03347785949814821,0.5833643314185821,-0.11492703778937793,0.026644550256275226,-1.051235431872129,-0.7882451652817247,-0.5887281779459663,-0.1377676721690447,0.5006414823468045,0.24029300938384787,1.420535159528904,-0.4919484069237236,-0.46066467839978575,0.8015230283947307,-0.5431862531450036,-0.30571107583660984,1.3729842826091565,-0.6698040673417944,0.6799255143101447,0.5527940818771881,-0.743733601434104,-0.7192708980910223,0.11024652056496671,0.4148958674135276,-0.3317088369709674,1.5031841878041974,-0.6865669615649769,-2.1208537058251853,-0.8953425751352203,0.9994320446308975,0.384337896661385,0.9044619156438459,0.38788931579447006,-0.10236608155418504,-1.9396098681960414,-0.7170501454541846,-0.2342980461302446,0.5330933067444449,0.4788111993843606,-0.7552977780353876,1.336460717464443,0.714976357363176,-0.47493747930003066,0.03879933018951632,0.7634350447657653,-0.31619326062064745,0.620960523984,-0.19706114508573702,-0.04390404673837846,1.2901297314526274,0.08334890517737104,0.30958076461687917,-0.4315629171735878,-2.319727536624125,0.20691868001518654,-0.6831620049381163,-0.5690373581026122,0.7990306830603491,0.8987627939843416,1.2655454634764793,0.5207452849886769,-0.023299468694429153,-0.6186570390078553,0.589761896902699,-2.8829497692853923,-0.5847264717225742,-0.9529048959840223,-1.6652178197922407,-1.9762491827983,-1.7305304236073598,0.8350079502033666,0.02085325912888592,-0.1821862518136315,1.052302329400958,0.12529831850381892,-1.1413547270040683,-0.4799422292538819,-0.5945073580749329,-0.988354266715831,-0.35417739865169834,1.0457067514982512,-0.8725986863213456,-0.5018756891210795,-1.0263417695870645,0.6800677806289389,0.7994578842274408,0.39559020763262415,-1.502421807489375,-1.2423272963842444,0.12401245662067989,0.42986468352281293,-1.0437024592989748,-0.6871544827064701,-0.5464565826284062,-0.9325740723430792,-1.4584526673230294,-1.5056344188141313,-1.1410940785631751,-1.2999951544840807,0.16814631840107933,0.17007488492547393,-0.10280899953639787,1.1457132206071938,0.47065135793925855,-0.5341167467711168,-1.2461874607215138,-0.5005870241501986,1.2938935400174734,-2.1698888980687725,-0.31373734588679636,-0.34700337229178657,0.27930410170753783,0.42498996376127923,-0.2845688867610813,0.3505677803202715,-1.0563245444676177,-0.41808128051868654,0.4072278796121961,0.5099308825258321,-0.38344652543699975,-0.6446607613780427,-0.1636093279626542,0.7075720672213129,-1.5753583477156778,-0.9035979609438867,-0.9864956630141056,0.10976857332367478,-0.26942410760923724,-0.37889717459278227,0.10810046731978001,0.29711266738277614,1.098854897971631,0.3192906060469072,0.11363395229176587,-1.7754489733014458,-0.8411238676590924,-1.1602923446510622,-2.5162671435170547,-1.9245838296554132,0.9855992328202112,-1.6936012074886793,-0.0840976899808471,1.3250500718000335,-0.16434545809850323,-2.0310079477594023,2.6248225218567023,0.18728491468971525,-0.3987760685491249,-0.3919407212500867,1.5583226909049863,0.7410089228090521,-2.131929134808315,-1.1331738115795587,-0.010951463723140785,-1.8771228594906515,-1.7590657494832693,-1.65770340775953,-1.061974954421648,-0.9957994697336529,-1.1296596866218678,-0.9228007328527222,-1.191644494216329,0.2102150567611788,-0.10407677041364408,0.1455434196469121,-1.5676049152962221,-0.53041998174934,-0.17571312496297378,-0.6886268074409506,-0.4999267940005423,-0.8053945969382392,0.08327748483208124,-0.6484424208422318,0.042124554105035614,-1.0824479929916644,-0.5211470745379049,-0.7901985781054461,-0.5861140382627537,1.767932939267906,-1.1579350524302383,-0.19537731417240045,-0.4813189909836727,-0.36773661949759584,-1.1983700102492796,0.029531179422746485,-1.7769363217668,-1.773927012340961,-0.7502394798413674,-1.4565625053118707,-1.8119656587494537,-2.7754035424865564,-1.4017380656913707,-1.1265275282969998,-0.41883537504095397,-0.13685018241532312,1.1677713776445557,-1.7124307622761206,-0.46102713647358645,-0.7501919258457018,-1.3135088763800504,-0.6446097461610665,-0.6481597386513482,1.3242527094754528,-0.6230916538613014,1.0845911488446558,0.5923290940262355,0.9649901214732309,0.5428571585850159,0.06784654101262816,-0.12523973175550754,1.3634379149510998,-0.8180833172596814,0.13445188542146042,0.18191226385022824,-1.5431982851388437,0.5310087317917439,-0.0412158324663164,1.3174303552159023,-0.4633935244130412,-1.5738157681955676,-0.6954071795087761,0.7900627154896609,0.6393058051522168,-1.6652891501197218,-0.03479924439002618,-0.20781586740294578,1.1468761703908492,-2.3749179674910224,-1.206452734585027,-1.184128098396556,-0.8092555008838812,-1.0220053534160773,-1.633793514829989,0.43395833579964244,0.8886202137649417,0.15270824264693594,1.421847715468532,1.3832448945762152,-1.0189045385032078,0.10949958669359944,-0.3630678106083286,0.5016987878001353,0.17774623702897246,-0.2826475400380403,0.48352635795232485,0.766062308375683,-0.2350852176381285,0.13020397374729856,0.4139826462120745,0.38078649831883804,-2.6203790430172784,1.1733642113417282,-0.4277654256460993,-0.4106928763932428,-1.2670553939808475,0.8978118831993328,0.2584658447048876,0.572593126636487,-0.35949302762433927,-0.6201213479571926,1.3118798680603536,-0.6600363822636012,-0.8149721448229117,0.11497351339919398,2.1039281156207683,-0.5886034257997005,-0.3783499834239791,0.3520647377435823,0.787648990894034,-0.6240732627668403,0.19472435023111367,-6.439122755638254E-5,-0.334794940631581,0.5985675699550355,0.0018688954602873757,0.9598860113716038,0.8995780181373756,-2.2018226476076994,-0.4397046273166651,-1.869448700491916,0.33734061471553,-0.7530431266514093,-0.27922283788544144,-0.9151681620470521,0.40876652578801176,-0.7948816215287965,0.6115508276876763,-0.5565907921263441,0.7133630718493856,0.8518752290386591,0.43164052461247626,-0.4520068205305582,0.18640790781121702,-0.3847955264380005,-0.9366246017784292,0.46447157739530553,0.9198458676240242,0.10622635212539348,0.7781715354853109,0.37460654878211697,0.5122342406345219,-0.7966628470934254,-1.5558159317467763,-0.32788039131581553,0.2941986259503373,-0.7981457928424619,-1.04564004296296,0.6410339374761621,0.11310359880791121,-0.4456883320387845,2.170395471816629,-0.25363110857626775],[-0.03579184949746924,-0.2897544838154575,1.4498491483795612,1.5608782080940617,-0.38643250187480926,-0.13353520323568618,0.984723403193731,0.47885874290900265,0.957200447135444,0.9401865607530727,0.7239938255988013,-0.04286770617119784,-1.1305546489287588,0.12045128557323621,-0.05680210266647131,0.743544698728504,1.2823185685448892,0.15329863097251364,1.1010353067301675,-0.6367292855731029,1.2142111942102323,-1.541492663254727,0.9117211319930141,0.08585143401244964,-1.7699769798316523,-2.3698727459421853,-0.891232186385918,1.4192429688163162,-0.4287446151047178,0.5158818638130572,-1.7505535987897138,-1.4768835649244425,-0.696073800452748,-0.36069254406035955,-0.39386977798860945,-0.1739044826843334,-2.2668411568024807,-1.6098822266599235,0.5492715106358519,2.478777973996584,0.11133725447386111,0.4263096911639552,0.9152619736110411,-1.3947553959683403,0.7010959060858458,0.7414704332269658,-0.4311387335604566,-0.7217066735959349,0.2873487774933322,-1.1238140786414341,0.010304896274462124,-1.6742097460603598,0.2738613302713298,-0.09901817905522102,1.1816752144865756,1.34997708328907,0.5944514222089006,-0.4017771747411958,-1.062868612016243,1.0618560990114174,2.4173534550739326,-0.8820444435111977,0.3085724766245333,-0.023856944832667773,0.1893192084907511,0.007274656931236713,-0.4514372490114247,-2.4783604000420616,-0.24470490790367705,1.1546708452728474,-1.2643309163732865,1.2447726159165373,-0.6396977585651484,0.04327318307214528,-0.9141703415401102,-0.7105712442039097,-0.254802597171529,1.4386767926615802,0.0011291889254409265,-0.2949364236159647,1.5054218218421955,-1.4815123209956746,-0.6715725454435156,-0.6482849610542232,0.23085410125578154,-0.5835431722458855,0.28702934565182125,-0.2698647126014493,1.4333888530745789,0.19499521970637046,0.9334506201814248,1.1954874759992553,0.1610582420560056,-1.3438387139765575,-0.3650761513470761,0.982845954795875,1.0078706026946016,0.25742522501525816,1.2191632353180164,0.13606766583792515,0.8370608212191847,0.9429020386094504,-0.3972703283146901,-0.6969414570514956,0.9039402833077015,-0.34815258960040985,0.6092376662630812,0.48267524436637577,0.1943470663099129,-1.4245876274891585,-0.14365859030426886,0.4026934772946791,1.651071283343115,0.4011901195936828,1.114807237092142,-0.2908079175500439,0.9370761365685893,0.10379645551232539,1.0525916218749993,2.1303427841101215,0.23587448261396518,-0.04500241619117792,1.5432547637127596,0.6632526565312187,1.1737791230687318,1.9686080946063964,-0.5594254910688042,0.2648262147946639,0.2125509961838227,-0.04292216530270191,-1.0233551565845869,0.5057263355599687,-0.5127859164382023,1.2741451904161734,0.0013973718127866317,-0.645921912770043,0.22971557836747186,-0.9198856562621128,0.7181101903350927,1.985521875403022,1.1993591446525345,0.3412506114612643,-1.6218036095702606,-0.49910749995940196,-0.10176037732863419,-1.3628470381713698,0.18411320327242778,0.5052751849531493,0.3939472334531763,-0.8013945491535609,-0.7663190183111673,0.35626203536894424,1.557532033087657,-1.2775146149931536,0.3916931556419419,0.2673169238492101,-0.8990780433893593,0.909141230085349,-1.1209473776330572,0.2880624842743605,-0.24638575956120573,-0.2924906946894556,-1.2006636531477632,-1.011885101592477,-0.4409344807129357,-1.0998271212447503,-1.100036194133597,0.08759856090454683,1.4064221370353565,-0.6386871240464406,0.744458913831117,1.0561232187450056,2.2242710924775877,0.04508860120877735,0.8060062000642387,0.42109274124971785,0.7789949319543306,0.591061528054904,-0.5502725789653834,1.1791722585895041,0.39782170573293657,0.05618907456901486,0.3476130401872234,0.9558323760239869,-0.2073553293492073,-2.210269248337396,1.258321283428204,-0.5343052503112015,-0.045124243004493435,-1.08000391224475,-0.47338662606833737,-0.5120321683509744,-0.40777759270379843,0.8708154846456304,0.9936179019695083,-0.22172231637863812,0.11313990912569605,0.6229648293303517,-1.2211933477634935,0.1755614138775875,-0.3390058132847299,0.8162698430215176,-0.07201160223488053,0.05456069184621404,-0.0056596991736733585,-0.07081732505260459,0.15804914084694288,0.11088499429550333,-0.6581995703600049,-0.5289832903575155,-0.6392513167506914,-0.9946137290038259,0.6341558795598052,-0.28961802820339766,-1.033540235945126,-0.04096218754370481,-0.45674019850191655,0.9543174712561451,0.4210014507442963,-1.7798912055730294,-0.8140758277574531,-1.3370561333643283,-1.1306004282468047,0.5649016115549435,-0.10259169604985365,0.4596769982092695,0.2027859122464598,-2.1395328013608106,0.1501048452486515,0.7437300211364778,1.0179087653846153,0.9469876848209595,0.30009650718069464,-1.0565528849108807,-0.17658512012452232,-0.38101074297152443,0.49973918574506215,0.7996326800493387,0.2401619967319492,1.70739797586116,-0.6087192813889531,0.5519567821216944,1.4118304086545943,0.8784793361030584,-0.01433965808633776,0.5696112189096821,-2.2056731275852677,-1.6545641811369585,-0.9706968132781102,-0.8913640053928771,-0.8479463620753989,1.8720256213264939,1.3954745932436496,0.5366569562705238,-0.8584544614540077,0.036995186695452036,1.391824764106776,1.960671811919569,0.10055731012455661,0.29292940920109783,-0.42642268392688415,-1.2489679422993878,-0.23811457388031915,-0.41592406726795206,-0.8708282093781302,0.8620513534384527,1.2642673766738761,0.8121165321457031,1.2390820369131506,0.9038240583274967,2.139362545736027,0.5312171645811727,0.5889351678297963,-0.39014908432329676,-1.654071789760019,0.8005608016728255,-1.0075476425633396,-0.06110044761759666,0.7878324624341151,-0.7088901483362394,1.9132623768384407,-0.13145097645288709,-1.0574319678572925,1.7967650467204375,-0.32271067192346964,-0.45763254544128185,-1.3838715137096835,0.053986439255733605,-0.44653129149911713,-1.295894645896982,-2.0098954287640685,-0.012202279776191967,-0.24187470419025686,-0.1098217321951242,1.1957332176220654,1.0529951040845669,2.00123298772349,2.1852551917226974,-0.21039527474932718,0.79577360005846,0.8585525701130367,2.5768662140206096,-0.5634701191270006,-1.0729673791031802,-0.7867036407816866,-0.17257672179919237,0.44067338617760926,0.7050111565336744,-0.24766984470938924,-1.3202698962537063,-0.863676398242544,0.16279486170648122,0.36205341040654154,0.8926438083490171,-1.3855410142818358,-1.7556473303420834,-0.47464808031678224,-1.539533731230573,-0.7745846402995977,0.021956717495091406,-0.7727444777032442,0.1988715063736625,2.17428646444498,0.6040528898990422,-1.1780299369473504,1.167062577499254,0.09407750985166743,1.3281592756986282,-0.22382328411336253,-0.4179961056490705,-2.3097652640845814,0.4619303628977965,1.058262377343074,-1.1079711610145853,-2.0561760806333393,0.48834530230531886,1.3900849926590848,-1.301698648220048,-1.2024093967107674,0.4694231160482309,1.4582272225874187,-0.5562114018716077,-0.7412629797326279,-1.5717070501500208,0.09358931969672014,-0.21320165916225006,-1.767541522415473,-2.515305635884449,-1.2911235168043131,-1.6583752886172194,0.08168145243468028,1.0852847774301868,1.1159629003681506,-0.9329356045784831,-0.6459592875530201,0.10103904704217449,-0.5972115371908938,0.048516149807012854,-2.4733372774087017,-0.9315249735702468,0.012972483954859717,-0.5154607201061043,0.649538300128299,-0.3314861249071388,-0.9007849543808162,0.5859117619668348,0.40246558428278434,-0.3487526521374491,-0.043779281095665395,1.4634235782579117,-1.669502294216163,-2.2409989015292315,-0.16561594417903805,0.14323399855391247,-0.0829435396762517,-1.6220088433788469,0.4449490580862125,-0.14510876998281363,0.8967477880450088,-1.2117666680791317,-0.3877610832694851,-0.22785394528212785,-0.1289525943725192,0.41434033597664294,-1.2341032591851953,-1.8291876741495077,-0.5656183184376935,0.9440977400991704,0.7740597193079342,0.9000127774890375,0.11822664493203706,0.24915977689569477,-2.4888252731791094,-0.2704850794233392,-1.3566370103911507,-0.5324224901684524,-1.2817039351601869,2.330862426273408,-1.5636738792688016,0.35587495005607317,-0.15835652138190567,-0.05513765337377259,-1.1337631027087034,-1.3411264920545956,0.3028341533495515,-0.02824087539532808,-0.4229222506972296,0.4920143657352595,1.614445706730457,-1.143445132984072,0.9291991248479541,-0.33892564090354854,-0.3260720565690384,-0.24954336123479198,1.9272174179485908,1.2326280879782556,0.7658720569505634,-0.31761493078469905,-2.3400028079643507,-0.43998195358046754,-0.8828268545176586,0.5534886094718545,-0.2797546251912574,0.2549766264423947,0.6589666466252695,-2.6938707818371253,0.6530263136664982,-0.3595571000439832,-0.08071526719361471,-1.2050467788367114,-0.8418746727472847,-2.882674436188574,0.5508991328029581,0.27437683365509197,1.0902963583327632,-0.6975573422382012,-0.04560032592144931,-1.0948695124642354,0.6966927297341241,0.7272595416638317,-0.5324685559491235,1.6060168982372052,-0.10727945465464074,-0.5090536384609043,-0.040101379524630394,-0.1509226032103484,-0.5873931977742752,-0.1895169143271725,-0.6203323190713371,0.5260627730512195,-1.543213668516221,2.617526378883423,1.979409388781396,-0.012150419078890164,0.6708070721989497,0.4594041917854342,-2.3273902754563034,0.992305627852459,-2.0622903394302576,-0.05751272340708576,0.14878597859149217,-0.3025385697726914,0.15995910192135676,-0.5375502506670925,-0.5074654311273362,1.3683007752718657,-0.957354109714667,0.5124563517885311,2.1137364015501583,-0.10738853015302452,-0.27902506745061006,1.080154098771429,-1.6107633774063188,1.478299221531028,0.8216310472656572,1.095568945888035,-0.24303292183121666,-0.35464483085447956,1.1494766355012842,-1.1780261824148446,0.3446382264692608,-0.7857043582661012,0.8153046351530782,-0.05638040327002637,-1.4356814292155122,0.49041042094695525,-1.6783665790985969,0.15048317738373768,0.06270245813280222,-0.5860262378709127,-0.19384472042922324,0.46928817071597323,0.46311289946876816,0.3894610255114544,1.3997079621212716,1.3630571561136782,0.22886453154695283,0.6497275563467765,0.9316470979163016,1.357825707526928,-0.049939167938149634,1.645105912781951,-1.923568117036471,-0.7864278501382868,0.7054038492314825,0.6795068861017336,-0.8843612610014743,0.465698464941842,-0.23926483231274578,-0.40094869126464466,0.9862012459241071,-1.9414835690716166,0.6353447112405186,-1.00654261370502,-0.4004381798263555,-0.7099239447981712,1.2056602079362921,0.059300236093116375,0.8591532012254542,-1.004459027798951,-0.4246239256556485,0.7074438474342211,-0.13255081280807596,-0.20430169811667473,-1.1295957519686524,1.0927354416859993,1.5419025661418733,0.060367167593516805,2.001448434763021,2.1309169827598526,-2.7025542383986645,-0.9480603335147465,-0.7097732527283278,-0.24142208433108725,-0.4352258881154304,0.2297826785962219,1.3973922958794638,-0.34272613005252034,-0.09114246067159755,-1.4919450793971847,-0.7713616108961096,-0.842646886934981,-0.7088466294061889,-0.4649046002098949,-0.13530266268506405,-0.305164954184886,0.39924201851493,-0.48257200571378805,0.9081188270098451,-1.7286607767601205,1.5033662855714243,1.8787011528665991,1.5624329575976368,-0.5876666467367034,-0.3419673036324525,-0.46281731077247146,-0.8021685789878124,1.692133157166793,-0.7359508120227126,1.1185235893342742,-0.1527971172502668,0.7796445390614379,0.8810286801191839,0.03276606981386121,0.3695776844131631,-1.055515729309506,-0.9193749874543606,0.43472112901876536,-1.1054826003043148,1.5565991812914732,-0.4718673552895229,1.0893837628775485,-0.43517474283492086,1.119245235691063,-0.5786188512570448,-0.17988764039386487,-1.0656839351188003,-0.2807547153663149,0.3330189788589943,-0.2870483057321807,1.6768340161281943,-0.6125433125942906,0.0319322090755357,-0.1518010046093749,1.6626703817183826,-0.31355082333962486,0.3298221227561026,0.5318497434807952,-0.949124647303662,0.6752326212555396,-0.2352085441758491,0.8351403168801734,-0.5157654580031409,2.152256448555319,0.4229601241059926,0.6243626434510574,0.20798367874504692,-0.8004653468487505,-1.624375743219925,0.5691663162978908,-0.1379466332288671,-0.4291316346324568,0.6674307045431128,1.5977852900172322,0.21198048526293825,-0.3115232184807068,-0.9789858137417047,-0.9607070887044769,0.22788539620822848,1.4620805943954223,-1.4431416047739825,0.3963710788886885,-0.6795966403597925,-0.40469863071387063,0.34840009036272057,-0.1983282738342487,-1.4650891162890083,-0.3917309311185338,-0.4862234866403206,-1.3461744427047377,0.9541162145651744,2.337049247541973,0.49667305154111735,0.0053237474017427035,1.1072826640253506,0.0065934240544232295,0.573876147208013,-1.3064879965081366,-1.2580288689514887,-0.8814615263370208,0.812323712805797,-0.589755947446617,0.3679269234843219,1.7360359441296926,-0.8567120392257959,0.6662333764211981,0.18541294280043016,-1.0549587205635924,0.28663444646399683,-0.27179944866675665,-0.9723670361037908,-0.6297975771714114,-0.9493687359629581,-1.5738324756010469,-0.209801530721808,1.481827552000715,-1.2421802376051971,0.24150350765705828,-0.30298474495472,1.015324229797137,0.6131655742014192,1.8802234279901515,-1.4685577408078965,0.14057696405731074,0.4427178702355999,-0.12094531538066128,0.7751996240891021,-0.43317386283361864,0.5378504008713118,1.2107918729513347,0.5434401430044477,-0.04608228054867726,-0.259613961732873,-0.6745339873930889,-0.6058855981357829,-0.9995009370188553,-1.2837828267480038,-0.6439288992720015,1.2294220392634096,0.7738422552328221,-0.46174628603493073,-0.9365330243478613,0.650916866402455,2.9525292573689077,-0.10653683682882922,-0.007117081986758325,0.2682975330934323,1.4982880947308146,0.5774505916773373,0.5978993097782231,0.5112536758797904,3.11055977745927,-0.10835305422280919,-0.5992559909701933,0.7017197825383864,-0.11499668576227912,0.430235368279199,0.1790495563766253,0.1959211731447139,0.7080911607200033,-0.15141085105730326,0.026925513954201792,-0.06207100279831766,-2.138950476697837,1.0539444588102895,0.7154826746057156,1.23338124531915,-2.231062083034876,-1.5372731043225778,-1.9683550468300368,0.4060691744731239,-0.1076132810203446,0.1442954926604133,-1.2943227282362844,-0.0768215695896215,0.14985925471565928,0.95677143631257,2.383397826296,0.36155166830862145,0.6089635096588129,1.0787590142548202,-0.8260973610433725,0.33436636331320635,0.8442625461073454,0.24985314092701433,0.004001273910247624,-0.6403512292156343,0.9623238428117891,-0.6407186896150853,0.7709319917334411,0.5398096184588564,-1.5939735552196541,-0.22102920918221272,-1.8071073446581603,0.20291928431942247,-0.12025542374940246,0.8560574117156026,2.9828452357011592,-0.7492067417955658,0.7971275503139232,0.25862368513867173,2.701179077525908,-1.2268713683568064,0.8886736248540607,-0.527439515660408,-0.0012226228718281724,0.22834154559491704,1.5359390099406343,1.208542877612225,-0.9548425610605927,-0.19505941387081127,0.011486285386081626,-1.6998999794045833,-0.026849044822926455,0.8768833197532601,-2.020420013298937,0.5346839960950102,0.8163667227041503,-0.01498478600157129,-0.21944088052200192,-0.396909946817655,-1.5957084534240737,0.68587557771345,-0.6709485585832635,1.4873997512569461,-1.1848391856366391,0.2634315323036122,-0.8970011007798141,0.6717620921914902,-1.0383058611044738,0.14232182787234837,0.2835708475727007,1.1817565339133151,1.9056872742060924,1.0321880680064766,-1.0522701503437084,-0.2830217793371378,1.174960522742366,-1.2707781980984716,-0.7842991444042076,-2.000255191067196,0.9131449350704406,0.3229647300484858,-1.4429596827851596,-0.9347363174136376,0.5586443766266964,1.1168832655673269,0.9045778918432176,0.2624826386267956,0.652367347606791,1.36509687163771,0.7520027182043578,0.34929469968711707,0.7611064768360932],[1.9196789708007564,1.412874371379324,0.9220162950697879,0.11229667067232836,0.4650119353617535,-0.4771520072101596,0.6030890956855164,0.1616166611448235,-0.07121653780039389,-0.8814550097387501,-1.783475925629501,-0.47969129303138114,0.33318856342725706,-1.7366574168571753,-0.9359769862747125,0.614833640519199,0.9437674706836319,-0.7609447028349295,-0.049841784505109586,1.9714822827952978,-0.48693544361818947,-0.006608351772763892,-0.15380221457163265,-0.9858947820122442,-0.4429583876238297,-0.631940751312268,-0.6413679243814572,-0.8508858905035861,1.2179184161606664,1.2070666358058348,-1.8154733267334713,0.5663118555488033,0.7632587053312933,0.5744778909498154,0.051717492799284275,1.5281238397190353,-0.8909611892071737,0.6188552797431013,-0.7529183365127126,-0.6281298791914911,0.526477823731202,0.6601016111761056,-0.17431607219153808,0.2741098819561431,-1.201983508711871,0.23696087358740178,-1.046933455957459,0.4530852365563777,1.5435164262340106,1.2251846213148936,0.976802778433521,1.4427526619801916,0.6886535781067293,-1.1261680248691404,0.09202803302661532,0.318573352169637,0.3025251826725606,0.6828107352252307,-0.8257088941424255,-0.017846161925861227,0.15299724194991374,1.6276454232932718,1.434857317398793,1.3552610080820013,-0.6527052665595027,1.5466221358563166,-0.5734580655454591,-0.789231406409659,0.0880675079218106,-1.1341387963462537,-0.46693895067846,1.2816675039415208,-0.6240660263923499,-0.5885062093963597,-0.1435496865857942,0.3443855554595899,0.22356336264206592,-0.8356421276470757,0.4808946692256289,-1.3607323985524657,-0.15643808077059781,-1.7904008129815518,-0.9248578347255478,1.032608342421073,-1.911772051468814,-0.3173407246394862,1.586031338688256,-0.2994028008219642,-0.49066635490476523,0.6141767605731542,-0.40502523808460594,-1.6230152010936008,-1.2828435494501687,-0.08244109655108867,0.12410557529909487,-1.270328778254837,-0.04939208282227819,-0.11316135587933834,0.175132627771318,1.1752093001318817,1.8476816709712878,-0.800862162419124,0.022618462518564742,-0.49088004906583543,-1.2460048437660216,-0.13949488736738205,0.2897655426769813,0.0340951134782471,-0.7573377464610936,1.0258951573440913,-0.9602520239173283,1.2643698812014015,0.09321785762125971,-1.045503645740415,0.46670488676103206,1.356658695294152,0.27665189214375413,-0.40688069163683116,-1.3853370469783155,-0.7050059590819026,0.04562362144742025,0.14317339260877138,0.08645408106173098,-1.9142262659117293,-0.8511855808774104,0.15259354252710955,0.7311348306275399,-1.185592260905145,-1.208193008720266,0.4251293538586993,-0.9198615590906516,-0.18055781885688002,-0.04504991232014585,0.26595998651369296,0.9480617541943104,0.7858504626993343,0.797223208560933,-1.0853145293759967,1.0816209605661713,-0.3384039561148661,0.026031613499644127,0.23739377816699486,-2.123072899895502,1.8056000291877927,-1.4219691590166974,0.5234061149958902,0.8611910444645806,-0.31269355758444,0.7715986031876969,0.3183351476032438,0.1908401930057574,0.9360329531353438,-0.666614985711635,-0.3931941922860134,-2.306965502325147,0.6165528200356062,1.5041515360177873,0.09771581490930317,0.3911867617281199,0.11984976553958937,-0.27893675835150006,0.3649870073485896,-0.08411671722747237,0.8447157811140374,1.6492672275515785,-0.9573227204047975,-0.5629736159196282,0.7296875207312606,1.6396464115757787,-0.740767178234088,-2.0326526910729625,-0.12105524296415794,1.7282747862075722,2.241282766532199,-0.001674438639487165,0.0328539133014532,-1.5608935787367895,1.8036570906636622,0.008621030366021592,-0.228020253530495,0.494206158133433,0.5293744261796377,-0.257006285197594,1.292902171477843,-1.016970053843778,1.4862692556478738,-0.6497665860887106,-0.2640549046264887,0.4125681889465554,0.45834592481492686,-1.027909484660716,0.45123442889021187,-0.46696547920839576,-1.6205636793091298,-1.817939095190924,-0.2485383678515981,0.8293101573332035,-1.3143132803167907,-1.1147875403203285,0.07655512571642578,1.4382634834740273,-1.4446404940227224,0.22549962510417576,0.5477968091403086,0.5591335137465927,-1.007088791435905,-0.41448814679529894,1.2867595137195043,-0.17950117677037145,-0.27048799775272114,0.7952681088035103,-0.26436126503261187,-0.7308179559804492,-0.18499965868260634,1.1590160781317267,-0.4495642316962783,-1.3584290785245843,-0.6289821688360518,-0.29460745712644315,0.9402547299351631,-1.0570493663490061,0.16850228495119543,0.2926012116569731,0.18998526598851384,0.34382859817449457,0.49147286345773994,-0.45595871958595735,0.18581507285398133,-0.7102226865185556,0.6850165815636574,-0.016066774702896216,0.6464533253918568,0.4617003702080353,1.8399490576132984,0.3997111502417051,-0.2499762433182253,-0.4841174588857978,0.13970665889838904,0.08402708421964059,-0.35056428557402286,-1.191315903137387,-1.2179406728567113,-0.5410119276224955,-0.5779731941606004,-1.684071429912417,0.6997213745066746,-0.9733331136779522,-2.3169269429092414,-0.004799828071695021,-0.8452703516906085,0.22882755720949524,0.11868543828695846,0.17114381804999426,0.2834312721231659,-1.229226276195264,-1.7266120389328834,0.46293921856345727,0.9921381150321541,0.5787780121055573,1.2512212640225133,-0.06644873784157507,0.20665531888708172,-0.4012196157096423,-0.4331429324525527,-1.3158428658448231,-1.7737317712786402,-0.21599506058937384,-1.0616225060311906,-1.2773285624675161,-0.4254365853990293,-0.5869614659320329,-0.9954681688310236,1.6283855035199881,-0.19528435377108166,-0.2633990632336806,-0.6767471652385018,0.13595165062708314,0.4018524851746119,0.9073205252429106,0.8583940491061756,0.5816724039798211,-0.023209792760485917,0.4253026505784671,0.8656388865017481,1.2286070088164456,0.09164846326715295,-0.6239920198877328,-1.3693517435782594,-0.31202190411713754,-0.51974180519356,-0.6777398026015604,-0.8421150011573518,0.20542687777806465,0.6686157077297349,-0.1343978974095703,0.9753863421903829,-0.4116346405799678,-0.043887284112693915,-0.6399978903298135,-0.5373577896724162,0.6309428115567175,-1.0704350365448843,-0.7161947008929754,-0.126049564469018,-0.8070402067476823,-0.32179618756519257,0.2089374031179522,0.4987891257920391,-1.4680855730262492,-0.7481883039294024,0.8359190315301678,0.4321616463063755,-2.096659751121348,-0.1496415838388844,2.1762767442438524,0.1995712165127977,-2.26307990209332,0.8051461017783538,0.19758763622653466,-0.36822347700343766,0.14441330910581054,0.09143722718408996,0.9295764140645549,0.7476477154480096,0.810161434098116,0.6760201475373675,0.9763407538824627,0.14817583817753976,-0.8165321901902579,-0.08652330062638401,-0.029096967117339726,0.6451653711263902,1.6990381171039273,0.5273570880269354,1.5747502067286767,2.170553252336584,-0.4909008684865668,0.5812620949040215,1.9329654362854893,-1.793912451988805,1.3079062815780618,0.685392351531965,-0.9873114819633457,-1.4828314865358505,-0.6564644417467829,0.7169623429921802,-0.4245340214894189,0.7160975713262381,-0.34238721437338693,0.5420978801608921,0.41759128477662855,1.4293469232176759,0.765332967363437,1.3786590879985359,0.6315769281416996,0.40593305398377433,-0.22938351090982692,-0.13441480910532969,-0.6047772532386378,-0.22496580224811552,0.015366398493105768,-1.3211597229713272,-1.9652704435202466,1.3843003442457404,0.17964461331298373,0.6357078280377877,0.8751349522808368,0.5879653946093235,1.0456581333879367,0.8500039527125492,0.2903688145997963,-0.8399603154805623,-0.8173021788985892,-1.6514592470836489,-1.3616332276194425,0.3852010718539151,-0.37808636662626705,0.13397632473478183,-1.1982361419400647,0.06050348759875484,-0.03991513741385288,0.7932247344203055,-0.4686799553533863,1.3088004080515458,1.566064547117311,0.13220265873612763,-1.8300644712768777,0.13262775908853888,-0.3017927642754921,2.2123303391284765,0.4955692059909276,0.8553078213660623,0.8093961144380266,0.01617605329944468,-0.7711961256037129,-0.21554773620025083,0.2847028254630001,1.4192861894278856,-0.6658674417802648,0.6009138622542944,-1.8189996387165766,-1.8318254927518283,-1.8485643520317674,0.9758789394013712,-1.1100172362405516,0.9594656161516397,0.49306543018051663,0.023142849585057263,-1.1539406751251033,0.394184071552134,0.33006883747834426,-0.621917962073809,2.1139740394235322,0.795498161835251,-0.2120928453238906,-0.22671460519409736,0.6420281471697628,0.1004460497814995,1.1636248904896564,0.6949940520837404,1.7607988384362248,1.2212334733740267,0.628412290396957,-1.003364252192584,0.12135328337443838,-1.0550902358588488,0.722146158151452,-0.3186410648333761,1.0208077890937255,-1.0778120963272984,0.19053211045751844,1.6023119375717598,1.780591328867185,0.03208524336273534,0.7056311940263869,-0.16967075431934053,0.3211652360152321,1.0702474465745733,-0.35342903522379115,1.436124728227911,0.5848255195238102,1.125505851238251,-0.15013601915618383,-1.0562087690652882,0.02119620579314468,1.8686548170196124,0.35291421821663677,0.2589098188002309,2.322493480008618,0.22438683057151457,0.23559168914804912,0.6779218918854272,-1.463900744976921,-0.2240474604339432,-0.7705516976882624,-1.198022342061868,-0.9023875064073479,-2.642925503583878,0.06981628779138542,-2.097728637640807,1.0259212843962018,-0.8706292918196392,-0.9769513042984865,-0.43261870906868294,0.6173699769739005,0.13511846309664838,0.058850036982710144,0.7170316058184593,0.7901794100692432,-0.11527117279727708,-0.3322433985040487,-1.1313255034052974,1.818341294920984,1.5226506270278535,2.435966325873747,0.718399707378306,0.8917397723419741,-0.3491288476977629,-0.24050938084280957,2.6413852332614978,1.1700707992679484,0.4359843752113286,0.45414090102069676,-0.2634516733986943,-0.8115785296712429,-0.1562869664555497,-1.1401523809872764,-1.8074503729572153,-0.5735341343136856,-1.6835512968827218,-1.0359604492952035,-0.2216239571847419,-0.5461533518216496,-0.8152044754714717,0.8312647581018001,-0.4479038111515816,0.24840231077048475,0.025424338405211903,1.3186164248620074,1.0231830985539931,1.799539369645329,-0.4199975523091845,-0.6277616441682157,0.35778017977376714,-1.1184384804054566,-0.22716174537382958,-0.15133734489219364,-0.6963683213074019,-0.11337696791277689,1.8142246619957685,-2.134595060355198,-0.35647269268117776,-1.049509899147007,-0.9174329653254196,-0.8964725305821702,-2.1051794557949948,-3.0587379007568116,-1.4999474712365468,-1.6693835427612973,-0.007529081732552852,-2.2780335316903777,1.1653331060704257,0.47576456850492327,-0.2866982943235942,0.7506959071900366,-0.20267707008964442,-0.6433308744672787,-0.20062704936325232,-1.4575720693172354,0.30767998226460225,-0.34074580744329547,-0.830069800929158,-0.010152070099189931,0.5332672182814229,0.7528324944759069,0.34318933365332965,-0.41012742089720716,-0.9327561437575764,-0.5821807571898039,-0.6609332999462535,-1.06276046649479,0.24461942301147283,-1.8600365544274242,-1.3194682044006094,-0.7665939077422955,0.06837017030327605,-0.5156540956015966,1.5129496397137507,2.3533674515524035,1.1328863786057977,-1.1473875535551015,-0.3884830641765244,-0.3632938809593402,-0.6392052515056535,0.30700845053218057,-0.4295108339408984,-0.8717064485024109,0.5880429299784329,1.0812838047433233,-0.44360818386976164,-1.5383861270655592,-0.8022611940831081,0.1618312137622906,-1.0937820598527963,1.0883460099518305,0.28248003802531413,0.4966230420333453,0.3709064828254129,0.537375372137359,-1.4680511825583282,-0.05611478870170615,0.8526157527783591,0.41849194265822676,-0.4461994207578392,0.15614815352320804,-0.5747608447120753,0.9054341765369149,-0.8322436008182893,-0.16732081746966054,1.4221739278393015,0.12358335957454972,1.4436647899730646,0.4129307521949759,-0.2157536601483958,0.10145354434245497,0.5023387862710651,0.7284398648317215,0.8020035161788719,0.004562415017410798,0.13293825861882258,-1.079445442738895,0.5701772412932213,1.5149420411230985,-0.012617786675934798,-0.4639636224511412,-0.3464330534561868,1.324620553844456,0.7410696964580029,0.7619218062925035,-0.6583148104597594,0.0964105034851791,-1.065994748979399,0.3423159269977911,-1.0149344858023386,-0.42004110502757697,1.1014033649511772,1.2323829566348254,-1.3513849893834295,-0.8262648620274458,-0.060512075719993945,-0.5487087804926346,0.14242249026287385,-0.37335564529832965,-0.36357983095323354,-0.7121147060483471,-0.24018950736995634,-0.005497334912509664,-1.1746270762154047,0.7668746948551836,-1.0083135153654752,0.5242199379123196,-0.20768453838727838,0.8512065800901887,0.7742424185025467,0.4495953538863459,-2.0801566605947253,0.4847783423633872,0.24832691665249357,-0.35674361432855456,0.5620446868589413,-0.45371673243895966,-1.0786323578234613,1.0141859933076878,1.031348891845977,-0.7645797466755184,1.2284816993101233,-0.8601479471555656,-0.4653116663592653,0.9519658593176243,0.40151601499839873,0.6931109160929094,-1.0344487679800656,0.08504720689589249,0.18984945723503516,-0.8098494006460143,-2.747674304955542,-0.47009630954429943,0.14409929380257533,-0.9120371723343906,0.09133323073850147,0.26053046121265,0.5380930895217627,0.35607417092638405,1.9749187611294239,-1.1531865899730072,0.5737668504960628,1.5678534810302025,-0.03761358252439212,2.248159888486144,-1.2154578190734842,-0.6287608572102881,0.9576753675205012,-1.5898821222333746,-0.18034523833981336,-1.8108932942045424,-0.4995423609117285,1.2829372873521518,-1.1009680295265885,-2.0484214293142693,-0.956012772635784,0.0557602290282385,-0.3869213842173497,0.48045377573895043,0.7794586160203882,0.3430313513633744,-1.1998486702201019,0.47773486845490704,0.3624327617955319,2.2398522085627426,-0.33849372692976254,1.0021087140899534,-0.513640790549703,0.19558654307057483,0.9435185014965639,-1.9924014911366565,-0.9905705487391622,0.5844945049789081,0.6817603934960156,-1.396817086341079,1.1783081862725342,2.216871578588799,0.003132776861572116,-0.06736041552675553,0.5673863923786348,1.0468141525898782,-0.3177241487733777,-0.29728270226953263,-0.1411994799725335,0.7067121344628361,-0.15876988139328108,0.8796479440514732,-0.4001237168496188,-0.6108426007391166,-0.7920741214592288,0.6126841499551081,0.04560086624820416,-0.46607941589114343,0.2889449165651795,-0.21311863681029244,1.5626814866380294,-0.20334231558924545,0.7374919226811297,0.3367129345925675,0.126866613807116,-0.8384781412148378,0.18274924785358768,-0.41820778803554814,0.6376855099879206,-0.14086397130627779,1.4454937662711387,0.7037284885072799,0.627467613680658,0.6596757182266842,0.285048086583542,-0.37086234161982845,-0.7957756573084794,-1.0473573920089898,-0.5107382280213526,0.20141529376376457,0.5826669859119098,-0.4214643118386561,0.7690744101786687,-0.4113085669626476,-0.688782600377705,0.33604195287856636,-0.3448309229639494,-0.7223674996138145,-1.4231266741644033,0.913580754414002,0.3479668536386388,0.8287028098685183,-1.7268128410625883,0.08941381632323628,0.5269249549420414,-1.6679059574830184,1.2063417060366217,-1.0490602483211666,-0.9836571098656018,0.5178889889996143,-0.7017366932704353,-0.11798179401375049,0.9690010642317142,0.32695750030516213,0.5744706109744918,1.0813463830703514,0.4284234652994762,0.6302951352689729,0.4575997003729058,0.30173496466794925,-1.8167576057778119,0.47736732504278384,0.2687070295371447,0.8042146126393689,-0.7452384075195965,-0.06342377132682989,0.7901994861266063,2.0638525259646237,-2.1305415756008284,-0.6931891691096702,1.4466771044933242,-1.331400597331484,1.1814450122502318,0.19134941287058696,0.5185016930729174,0.08225109410707267,-0.14111033345345672,0.7997645260043864,0.6736945946338921,2.32214024697831,-0.8004394300781291,0.11497419773431002,-0.7742246336001706,0.6043146699855733,-0.4076678853559377],[0.16647953701326548,-0.24074052426752177,-0.8896530764499598,0.11093952063946648,-0.8483162902919237,-1.5205209123898245,-0.3343650698152692,-0.3481281434540194,-1.1629985734944102,1.2647578697268504,-0.3998929157191831,0.3673466776056614,-1.5995373352074103,-0.23993292894188833,-0.10506551891419251,-1.6712260677653854,-0.41183723471983175,0.26055410142335006,-0.640305288519939,-0.8034829806241556,-1.9632474913277482,1.8907435397833607,-0.36084375193855117,0.0820499393036237,0.9192910047570675,1.0774437686543015,0.15187105980881502,0.14226892632844676,-0.3326061184282336,0.19281636288092643,-0.805540891084871,1.0259374940711927,0.11509395585461764,-1.1794666827214122,-1.1215661793143783,-0.6820381831851159,-0.3936720124748434,-0.5216143428750146,0.2956618199241417,1.0308201914819581,-0.26421310386200797,-1.1808870612978006,-0.6065191055435734,-1.6333017161412733,2.600933250343993,-0.6779466796430823,-0.16515488803683764,-0.4875067323288232,1.1202456357725485,-0.3188934843810294,-0.512192183300604,1.7047522830627666,-0.8706334639343168,-0.4286587924327916,-0.3619990485912119,-2.0369448888854857,-0.06305009277155715,0.1906496599160944,1.1484009889903597,-1.2706932246434917,-1.0291951522422738,-0.40469317321318005,1.6299296906759546,-1.1749548670530872,-1.9448405403076663,0.37728999576984545,2.555532354059794,1.0981165470957888,-1.4552273049289182,0.10952504134620748,-0.5861698408115695,2.3957126905057207,-0.3500387716997061,0.612085621525409,0.22397773734325527,-1.3060631360544497,-0.5643633645631392,0.6667131444014587,-0.8034243012394559,-0.15505448260801277,0.7733100442586784,0.07641047138380336,-0.15136769049630844,2.221783940346332,0.13332877942944368,0.5174439503925023,-0.7022432139599296,-0.9871820564170635,-0.40416694328633596,0.6976808418370821,-0.08076148918594284,-1.1837326525141196,-1.2741652832904686,0.26355725565517024,0.6739974994227621,-0.10527159484677458,0.5852090417502952,-0.10380845699716089,1.3365830179852096,0.5764565511551053,0.46547665390087073,-1.6711997817513642,-0.6575649868597384,0.693025141212388,-0.019806141600475686,1.4251948855848084,-0.4847218005860095,0.4402474208427804,0.34672700566022496,0.20460212053847995,0.0542179182828394,1.367791171291441,0.4881089903609395,0.718236442539943,1.447766619968016,2.683072508841467,-1.373669172949893,1.1483453977845761,0.5574362718977054,0.33025597357578995,-0.8262792030425931,-0.7418027009480161,-0.3980103176851626,0.565600756893679,-0.5955752634378052,0.7930065252854994,0.8031572389169604,0.6367914278637304,1.4837307820866448,0.5181000982108795,0.45441933632420334,0.5729239426540403,0.13454926149404076,-0.14695172560409453,-0.20930071618874924,-0.23738006677099108,2.3103935131759523,-0.2012837313674072,-0.8709932379350612,1.3227451418979526,0.214118751054359,1.029169955334842,1.302381907036313,-0.1229480896907657,0.8837187440018439,0.11141773656984429,0.864742830146489,-1.2270907782853433,-0.04000982557428643,-1.7905690368514007,1.0296938024531124,0.88839442045861,0.7076596967000766,0.21941240275885487,-1.2830275344900288,1.5091685110872515,0.04350100535808479,-0.542087079823812,1.5213578839577553,-0.7801658726373681,-0.16696285665032606,0.8908386587074105,-0.10556766555730132,-0.8316262407980017,-0.7439857289976521,-0.14489489007675543,-1.3212448773688314,2.2049194020461673,0.3064851739855485,-0.0023960534781635296,-1.9003151986983733,-0.03139016453940269,-0.11133563266777954,0.08548436364381139,1.0136615331886596,0.46622115259555214,0.8297262294168284,0.6854687903746444,-2.0196605560208343,0.2232643088595566,0.6182844724931487,-0.22642787119842833,0.8586956676971679,0.7405955983522117,-0.7938970669964825,0.04952779061804516,0.4348241160121303,0.7774937260373531,0.5721497061663072,-0.9614316833585369,0.6428544595290099,-1.77948123475715,1.5418095814371147,0.9010908212467703,1.7883427194406487,-0.1847869090705857,-1.7185554008636523,0.5705142565585974,-0.512545264528439,-0.798539973813435,-0.9204314407378636,-0.45790364606081246,-0.15118850575984133,-0.3131090720347096,1.3824222797958248,-0.9195840210848388,0.6060666684507706,0.05518969991285624,-0.9819646104699076,-1.1759058232848136,0.3882420338883227,0.6700239467364518,0.06628290311534887,-0.03146444630437542,0.873106374303641,0.5453708197136553,-0.15817421542052376,0.419707663924627,0.8971589128697112,-0.45396386811632905,-1.4728128214460687,1.3390974702045384,-1.1049809174072414,0.21602452988028403,-1.156339393389225,-0.5538272497674097,-0.7729638910968449,-1.999396915383526,-0.5754379070121356,1.8998407066159673,1.5650801779743253,0.8222419070188621,1.7478980604676535,-0.8776945946454537,1.0870205383596385,0.3491651344999741,2.356633003068329,-0.30294592122065195,0.7666204716511243,-0.6121605951399192,-0.171651303478363,-0.8237362559304043,1.159080783057931,-0.5656192356519015,1.1650443457692392,0.8505502354839902,-1.1418194325673336,0.9551840099189048,1.8330317283324569,-0.9085147172604217,0.3542857654500915,1.0485273348190653,0.11650638113085107,-0.5205286046357198,0.16825482883904133,1.80309165102514,-1.7429750054021198,-0.2643756930030783,-0.6995046484719417,3.0272787577616764,-0.1374380109147188,-0.22462196446255434,1.1663751520779495,0.39953748037563974,0.6496640253056151,2.2605408657627395,-0.2509058957827009,0.7269042830300757,-0.6938960367313398,-2.643466131859499,-1.7081689494787695,-1.3260696043607039,0.09150923280424732,-0.923290704776259,0.3868606079261463,-0.6001087488670928,0.36157332246341395,-1.070282548351802,0.7879935059092025,0.9204324322760182,0.7591929720926713,0.1717322383975162,-2.5283392776385996,-0.6529073810840148,0.6952970435985594,-0.8048891080200298,-0.3910597332429481,0.3782720932044188,1.0211292997413977,2.1729436085573224,-0.5458131622476325,1.475024903726757,-0.4522880886431881,0.6041254147207412,0.12883878125649736,0.24615815216254813,-1.4396654954210244,-0.6749877855441603,0.21633039851880734,-0.9025110652073998,-0.3493191632469077,-0.7613638989311886,1.2345928151734717,-0.13779019352463162,0.8399954966216453,1.7194920676517471,1.3655275220812486,0.6459323910677176,1.2896968010580432,0.2715549108076272,-1.176451082345717,0.3874830350888926,0.7231874113109129,-0.7468464179010661,-0.42165480851791864,0.23010901720610008,-1.232940826978737,1.8245528557840385,-0.5329929905266935,1.929531180006739,-0.14570564994498608,1.8073071404494356,-1.7382454156565574,-0.10809046383779575,-1.3878320004635707,-0.5481125079785596,0.8029080548632969,-0.7332725060681563,-1.3452342315917007,0.2851477252968135,-0.04890075744643954,-0.5181793411752528,0.35965763743089496,-1.0523389669746184,-0.0385009980599758,2.2000153691119047,1.0655039085252371,-1.2969418301717452,-0.7985297385180183,2.9580056050343013,0.5391681760635351,-1.981148346516638,-0.8985600735679178,-0.47246563033269395,0.13467004114502432,0.4055281349244099,-0.07922300026697578,-0.2365767913823096,0.04111749571109078,-0.8753781831637277,0.6655578408872762,-0.4408510857618084,0.19176856674679865,0.7603557429392807,-0.266177109235023,-1.2564074849728153,1.150385887453552,0.41278079500220416,0.7071236136559809,0.9831713448763812,0.5115212390839587,