[{"b":[0.3659013714495037,-2.584606760226873,-2.281619101346609,1.505218427451499,-0.6988619767747372,-0.5768518311772044,0.08634639993785913,0.3643297010146324,0.8231751338667768,0.5059596630578463,0.22937887570891632,0.9967443845234768,-0.8487960676005991,-2.012430561944498,2.4548706329656134,-0.07214061663858805,-1.3788170405758495,-2.365931453280804,0.4577142826206274,1.282271417954818,0.5627161660951502,1.7314761871566464,0.7061448459523857,-1.6771702194364926,-0.2553781362083009,0.6994530551501044,-2.876385097507656,1.8821487932499164,2.5320942179755943,0.7120144005943024],"w":[[-0.7414780922129527,-0.13493537660711605,0.09464312034828604,-0.9846613424169526,1.7431043704092748,-0.8418679417896939,0.8997459377782332,2.0666861391845184,0.976694964739064,-1.2959305343194265,0.3613589448727797,-0.29517807428600085,0.18045066179443697,-0.7290025581583119,0.8553851582322773,-0.4774859497957853,-0.02787055346211361,-0.11042226078774826,0.4603100577271088,-0.7156414440048366,0.21892220210584135,0.9619375597624783,-1.5374330311118665,-0.3929126764876125,-0.10892879412837717,-0.5560939854805549,-1.0929859446112271,0.14393716585486127,2.066690379448733,1.213235262179116,-0.40200758878512144,0.8835545259807149,-0.737718982414637,-0.2795312757615667,-0.41983198899489765,-0.538575818057379,-0.8003771560886649,0.16346244920861933,1.983315213395189,-1.9524486433774721,-1.4118621959685902,-0.24585622367441237,0.5918819656409678,0.9787049565160933,0.9574116498185442,-2.253880707878338,2.3150560365007764,-0.3429724745453641,0.6625058564142116,1.7580278661762168,0.2676490198730753,-1.002256847585357,-0.5701932854575222,-0.39872285498760535,1.3845811814104543,-2.1771775648712492,-0.14913599559292703,-0.7245906230922982,1.0131089315165873,0.5469616469382313,0.7066801229600961,1.2547586598718403,-0.32298331351988857,-0.9098601770955036,-0.07917431623485446,-0.15921095569444607,-0.615273401288694,0.561954594198878,0.5301927545599332,0.26194440814407116,1.247447919005809,1.5047255129765122,-0.1873083328678852,-1.5802495319830898,0.23132457010592247,-2.1378627037452884,2.04242363023407,-1.4078727904205053,-0.19072857958886172,-2.165252056440533,-1.3960061674699114,1.1880348384229233,0.9107700884269941,-0.8324426814176319,-0.6196444866077666,-0.8508365580737018,0.6857375003885211,-2.272896022767851,-1.3874860506450042,1.4525852748902726,-0.589568240411149,-0.8783921061514218,-1.228553169977002,0.16052937973008236,-0.629409267138942,-1.4538043559199698,-1.8808195299950232,-0.36907392444618137,-0.9664608474158564,-0.5634945891723044,0.8417838578267013,-0.304803070399072,-0.908665783199821,0.7739309086735285,0.2935515211075531,-0.7636765478885861,-2.1907921961277097,-0.6630404585454006,-0.19568013632265896,-1.2727579490027057,1.3278530166653655,-0.6416944652144035,-0.7687047719425758,0.6758842607228864,1.3477667218698024,1.53155766742541,-0.14031719076287222,0.7906968951215422,0.9901756670956668,-0.8698061181171105,0.40701403851396545,1.1574552289518059,1.7970717668208158,0.6563943416738197,-0.61609214987639,0.33330139986184254,0.9709379777961257,-0.1347864999079765,0.5905935028636132,0.2637824367268145,-0.980985220120371,0.02760169719404701,1.0858412698753057,-2.026210157935822,-0.8332267395934053,-0.3330034041020538,-0.4360080778504432,-1.115887107807096,0.9974927359426927,-0.8982178244489921,0.3070757481902545,0.3075389072333764,0.3737540963760198,0.2529298623824444,1.651203164676217,0.341437931506728,-0.3483080282531669,-0.4040159178551082,1.6304929921281914,-0.46269332179928774,-0.9458156144008012,0.6322720884180318,-1.7963579520993804,0.4610118765987138,0.6031769466881061,-0.9783188257721358,1.9121657984643454,0.45587553903250716,1.1006949862144748,0.41952248455898994,-0.4937306713530454,-0.8992963809358526,1.3813346484522904,-1.5052857364132524,-0.3501411806383743,-0.09406151663100859,-0.22266337209543935,-2.320487782823132,0.6054205887116239,-1.00757843217721,-0.005880207262108352,1.6230866273449294,-0.39568254834594196,-0.043392610833108455,-0.5705362772077001,-0.5327796458462771,1.1135692288384411,0.33813083195695187,0.7353670683772234,1.0741507372762673,0.07156813852569481,-0.3927368290450424,-0.9179465149036427,-0.9629376444045707,0.6438871114554336,0.9303228323048982,1.3585917354122916,0.9204561992304235,-1.6411570594503242,0.6060353273687794,-0.6344506877972753,-0.2503453492815197,1.271776752673673,-0.41716522545184787,0.9570059846721977,-0.22202077684904234,0.9251142212654488,0.9942694244811353,-1.292424363637299,-0.19207504490158836,-0.4122385570973369,1.0341195405744008,-0.10785769624388657,1.0561338970326233,0.1067564349587859,0.35768077843379076,-1.766137249581614,4.244048565524277E-4,1.4232900770399335,0.45806444040490246,0.49019866152321306,1.1485545460124884,1.0605490337156227,-0.40273464186922936,-0.5793014314496027,0.7506524124835013,-0.4098152338276471,-1.40404028713218,-0.1047930606839619,0.2647080000526325,-0.21919625540727022,-0.5542004322733654,0.8184666353796843,0.4060969582967044,-1.6450026280988577,-0.4921143014312561,-1.2493684401786869,0.8952001036949048,2.2178472307982227,-0.7866801867451982,0.5556498259127188,1.3822851985652804,-0.08027768362522865,1.0486585464131137,-0.39343900343386434,-0.16549584577722704,1.5237542246309232,1.253071560018269,1.1146710963706523,-0.9535708600048712,0.7754708492841448,2.2478831762764666,1.259122765587237,0.8699501801395821,0.26049943195796976,0.36650737386041365,0.5144332788188062,1.7251146726384308,-0.8570687559250032,0.5548534958405468,0.3987390662525457,-0.04344748738936227,-0.32641994207698977,2.754250933283567,0.07305748249773399,1.5729988798383296,-1.5947497333698395,-0.6066878460465118,-0.4507236138035967,0.9390749404660191,0.5630040119460118,-2.290174156492394,-1.2656436190902165,-0.38133010511848037,0.2743140095416931,0.5557416104810523,0.3417799292697505,1.0647802581579482,2.6301772948576576,-0.8281801211452329,0.16255065095163967,-0.7624701136921973,0.5235388503324082,0.07474342053389921,-1.1194356832158947,0.031776519213025996,-0.07399682643765833,-0.6625618156741396,-0.37587726598119847,0.04236975568580087,0.2141970144419291,1.1061108995690283,0.1379457002778411,0.9727492927247384,0.008785805365253887,-0.04955586505308423,-0.6292392365468076,-1.3774013703229708,-0.4034793143823002,-0.08877558647889738,1.300010352661489,0.8551006112080708,1.6932120233293486,1.4587626450138538,1.9835345682984815,0.5845341904333045,-1.0651053839319906,0.6302216292812428,2.556167239862036,0.048597764376712455,0.5714872297363033,-0.2474462275322669,2.1994759143566545,0.04808449912528738,0.046559391019572446,-1.155934640568962,0.9109545608830247,1.37392536678301,0.7650526391771859,0.28998732465382654,-0.7341688404558908,-2.003002405748247,-1.3963216468705013,-0.500701876648112,0.5185467363766431,1.084426149711097,-0.6303124643424206,0.054770074260262196,1.4715504820524494,-1.524247339261135,-1.3029585087085234,1.9766170975562782,-0.3513323601799897,1.7795949531693438,1.7211921052492865,-0.6252950421626393,1.1678031418166466,0.5398969547086193,0.1101272030271442,2.2762178018690125,2.121351634580572,0.7933224526168433,0.5069968469801955,-1.7026943654165163,1.053901218785194,-0.06923783202750511,-0.6049084504777797,-1.585275330254901,-0.2927589688736016,1.447149732069283,2.343901780068462,-1.0169578905162713,0.06928254642246642,-0.268256753044559,-0.7839932664232213,-1.7847196459055001,-1.4803018274973576,0.2633601719729805,0.8233025303940643,0.5996361096049257,-0.3592340042003736,-0.37421688440122414,-0.3110401434388963,-0.14782272351251818,0.5927496875324172,0.12054373808461838,-0.8335276470845434,-0.22866244976520586,1.605785803997787,-0.6343121193750223,-0.905104427315981,0.59587851622692,-1.5163982166965202,-0.6516267237626905,0.01765280754993361,-0.4553282145235853,0.4042504106497944,-1.0115820262247146,-0.10004605620003067,0.7499823093202882,-0.710479661736254,2.1736812932611516,-0.08285917287793472,0.34851394250174705,0.7169213186426399,-0.36847508344368685,-1.3592441282083103,-0.9570722439135392,-1.4622244481624749,0.2648928765079838,0.4980488789162573,1.0153731485704816,-0.017934688795864243,-0.5310338201614178,-1.2021223969075945,2.0929856627760177,1.4202200552556832,-0.2744081883199502,-1.7047381279155662,-1.1046139685190048,0.557910286043048,1.358694209995954,1.5281030166928733,1.3115155261885958,0.26463426566653686,1.2598839560456832,-0.6347646024902213,-1.4413755102454868,2.831068456988419,0.720423538851479,-0.5275122481720175,-0.49923122122036256,1.863022315565824,-1.2627134703410783,2.218003389963307,-0.4172740755427417,0.7847662645404669,0.19083701133095377,-0.5532432547210406,0.20713722755191735,-0.3924618404218509,-1.6021658278722875,2.1563576598004706,0.8660837047117348,0.28514542880314814,-0.20939553049236065,-0.3828648856713472,-1.3679016991390431,-0.7138428902298223,1.7707783617936805,-0.5615525113814062,1.8931357961707789,-0.7897180658157095,-0.43838124750641483,0.029496478015835027,-1.3516023981360819,-1.4257488974433161,0.572862203993623,-1.588483856475806,0.4067730134709252,0.07277412367162239,0.8995645855045352,1.347134514174043,-0.11148249104381602,-0.7245111706761941,1.9999978747109999,0.22812683875106413,-0.1969856191016508,-0.5939569908448207,-0.20680737644472835,0.23687860011431766,-1.8951802576705625,0.6048416692153281,-0.37779946555585503,-0.7325692950592517,-0.874511966854481,-1.6717124114930795,0.33055011299797216,1.525491561267609,0.6837830110050049,-0.5284303698028702,-0.15931779449106231,-1.5677985336831197,0.28159085758435887,0.26678354846166014,-0.2635679361609318,1.8707741968815597,1.4644752840596214,0.23444546876300917,-0.334866114791606,0.5547689991926318,0.7300719509444359,-1.81485728293674,2.3017799148031926,2.4562031888273554,0.5610306405714297,0.5109813180498114,0.6933834562367476,0.7956957385922425,-0.26376437613526116,0.12359299275097911,1.3895556195211618,1.3362031135262333,-0.1993365971398236,-0.8027438790961471,0.30319495102643385,0.30564548360088756,-0.2750464463640576,-0.6990745812988521,-1.4952306069122459,-2.2883901611592674,-0.3952359150348716,0.13190515936685523,-1.095867279523004,0.5929561921815353,0.4028671935564815,0.9781066828140964,-0.6432114175468129,-0.4868892393828958,-0.009969043251461277,-0.2105748462532497,1.370609924637694,1.6778735777116351,0.9034958476282944,0.6063367372017312,-0.32112578894776717,-0.07887297278234247,-0.4024857636689869,1.071567775940061,1.1313806415332202,-0.5677278840654674,0.001859490755502662,1.2218709480798269,-0.11372653476471946,0.17414620820164936,0.9968903380127289,-1.2346758340233546,-0.46120029513735517,-2.550337734417953,-0.9723755419436224,0.18218034061179728,0.04331121009827975,1.714899071001028,0.35153427651063524,0.4260322447803087,0.9296471174378375,-0.30303389724138696,0.4400297356429143,-1.1094629128587674,-0.7378590103446673,0.11164032601032502,-1.3718655161705362,0.13394584542100904,0.2838201768136829,1.2688932356945024,-1.2738502532866482,0.39752966037798354,-0.208317059662195,-1.2686297638326107,0.0784784465421949,0.26855500768900686,-0.29686853153152365,-0.37940287174629156,2.2239327640732447,0.5346310170143197,-1.0850195850233348,0.43802820336588716,0.5066702531738597,1.4691054092206923,0.5361364053860831,0.12634498138027436,-1.6987128486958172,1.5792802068610454,-1.5481495320699874,-1.2457144180042934,1.0021649224270406,0.9899432014867614,2.991764359389869,0.6504452312608624,-0.2661674502318224,-0.9559954414107089,2.080917837330734,-0.6488943685822781,-0.8393372103776889,-0.3190082499334053,0.32925822054381537,0.5513401049448997,0.18465825397006688,-0.13854349733316548,-1.2810779684317373,0.5101161550503011,-1.4122876869861487,-1.0616330321547318,0.22950890042541608,1.3539245367405122,1.4476360206863454,0.19683108961153473,-0.03204835664601177,-1.7633778434662042,0.8866826558579975,-0.22901539682321043,2.0258060088765526,1.8242667100451158,-0.024030342294611803,1.6067002263527301,0.7617019066529274,-0.7542660841920689,-1.6579975668123141,-0.42689230249023735,-0.864208059543381,-0.36546344627132293,-0.6472897856872624,-0.48559855763889187,-0.6955028452981691,2.096488698214394,0.055758551319786735,-0.6541291035464081,-0.3987941451963285,-0.3239982200527112,-0.29732050892355166,0.19134305731506984,1.3954046560885247,-1.0740325320416346,0.7783585177543645,0.019458803015231025,-1.035114751800199,0.332294343705879,0.06758904707660293,-0.33048862641173715,-1.2630525205326917,0.2714509863889268,-0.5085076393057818,0.7695330582246975,-0.4258166678850873,1.1569630976270855,0.2518477780503075,0.093106760522929,-0.6161563700426227,-0.43201157839495846,0.7921592070354452,1.277050564631913,2.233349107949535,-0.34601650275855717,-0.7885786406699438,0.7155604621167919,0.08666220601073149,1.221599812244335,-0.1582615159690504,1.3010538999816845,0.4816266119995007,-0.6676827628677298,-0.11682321235778703,0.35814055887464996,-0.1902529086884156,-0.8714969237696759,0.17315331881316948,-0.2534710907952355,-1.2694316710179856,0.2725844404542003,-0.23972611723056583,-0.07697786575672115,-0.7973963130671735,-0.4051204805992432,-0.5103986443840249,-2.1727713461837324,-1.1667673813175543,0.7583034522130219,-0.06526053323853465,-0.6647608485678985,-0.39391557256660614,0.9860556083737585,-0.4385878445125237,-1.0493530651551783,1.76133243937181,-0.21262806670169299,0.2356815530104225,0.8021356618366283,0.05521159459238943,-0.6034290093076142,-1.3110123121446766,-0.13288433793637452,-1.435902939913842,2.323916714550903,-0.49239363000711917,-0.6182437201350549,-0.10493092867022726,1.379319212759978,-0.41531263731654233,-0.3661769078439032,0.07796157777142114,1.2466369630615248,0.5663005188816168,0.7839956782977857,-0.5504826210758041,-0.8202177567358758,2.137772610780265,1.2139906757418055,0.6324353213155471,1.6358760107246837,-1.8719223455993523,0.7073524359570913,-0.6148558220441329,-0.13749688476842795,1.0402976689600234,0.008093758951191188,0.9317164553730481,0.3939630067699511,-0.7254751513495921,1.2054851882843267,-2.233528299579973,-0.39411498047759363,-0.4456954686554167,-0.18709978705617716,1.3056296953522173,0.23273570939464064,0.30577895618841533,-0.5492038197052186,-0.6438935336279323,-1.6383463581922986,-0.3846166834013574,0.14400026339434732,0.8374960262690943,-0.7970982753428393,-0.8485706166774565,1.9657848592419818,-0.46373681817140194,-0.717263260687907,-1.4659444142916411,-0.7240562963552869,-1.4309942075179132,-1.0156342239641234,-0.5673936811385704,-1.6037156228571663,-0.30394089220526876,0.30392646399480466,2.088847008477351,-0.6396610626127226,0.46796950304317514,1.0199193776421542,-1.2541569187975685,0.7582141938721993,-1.220936919006895,0.9778559675177053,-1.2168380270293324,-0.4456235235977068,-0.5888778170326657,0.9363467328699565,1.6103393720614145,1.7838290918480022,0.12889467478393335,0.568985195934995,-0.2783854028453363,0.8791143157437803,1.899083994326555,-0.03132849879827975,-1.698262337887837,0.7442157204323891,0.11141572764932178,-0.0709978374137344,-0.10988931205570626,1.1148468724987681,0.23373819538380392,-0.9345830965871088,-1.0405306141908384,-0.6185551875413642,0.6778791915641933,0.04982786821590505,0.11285180962161263,-1.4782033807003718,-1.6227319471599326,0.4860507318060855,0.49170238866693533,0.36270562987002514,-0.6935002039949231,-0.5229803403528585,-0.5079579225278653,-0.47630068875932235,0.3936820248961444,1.099766136261171,0.5598829712411361,-2.8427831620473807,-2.424683608534944,-1.692686698998007,-1.2736077746621077,0.24853375624372953,-0.034976861069690494,0.8245522759483396,0.4952632040816166,-0.7740405105557666,1.2397939479741176,-0.39878654661925095,0.22521444121593842,-1.194054884566699,0.9735763459540494,-0.7632284617379455,-0.8377123131753534,-0.1488817506869951,-0.010907002528505003,0.3196079062697511,0.013087511047191299,0.13715108618267277,-2.2138769052454954,0.9603711810547345,0.37106810525356837,1.0139846458825248,0.3778329871078838,1.4433174365899624,-0.6456357130604362,1.2976748592678458,-1.221697537705521,0.5217536284127162,1.5986766586331418,0.7835500227595119,0.6328508052062893],[-0.19870833554455708,-1.2421858042921747,0.8858896011898149,-1.3098734533368976,-1.4474261695088484,-0.07833984160184582,-0.9013085215619134,-0.904293012325226,-0.7114346538773734,-0.07711306028096368,0.425227894938073,-0.9544887671954924,-0.39734426599173867,0.2448747570058068,1.9839024474565736,0.33583206365145213,-1.122660586689316,0.6370377762706504,1.0528827380808463,1.1153755370867653,-1.1277880491728656,-0.9731825186097288,2.755380239685414,-2.077998960003819,-1.1270267438364552,-0.5047231654811287,0.6881443158589265,1.9842323354456035,0.9544668760961296,-0.4026182411220944,-1.6037240705632787,-1.7012513778636769,-0.7599166317396621,0.36088448728054595,-0.2644247547685273,-0.45536248629994985,-0.5362336459607836,-0.262803351217246,1.277179845005368,-0.6451490094198498,0.10816123815334233,-0.8002982885587725,-2.1651713279597837,0.5348871763486385,0.9390674916271924,-1.8875012509678397,0.3459202622621981,-1.2460941535849765,-0.7262384426120466,-0.9114286749752885,-0.7997697830862569,1.2353670103735812,-1.4967980421366909,0.08575175145002313,1.9131528386805827,0.207921497257345,0.21738879569611896,0.6211820753295351,-2.108019277945456,-0.7690173049494893,-0.9191808517389539,-0.3643906637862619,0.28459149047876847,-1.3492638587244135,0.6795041061436683,-0.1931755836848487,0.9073443192002221,0.9248983142350593,1.148254492854499,-2.0092223275412215,-0.45471492466682306,1.0484958352990628,-0.7406976343217846,-1.8045485162800068,-1.9452852683973292,-0.5016883410364033,-0.8151228592097185,-0.1127811957427896,-2.011993150924578,0.6996569883001235,1.0623447701654558,0.37187198730237986,-0.1750298278655263,-0.6489825307808068,1.1528225895545159,-0.34097960142443307,1.9967714161136563,0.06696641070018132,0.38584909691247943,-0.5258561722578073,-0.8049752146983006,0.4561275832196524,-0.494618929053224,-0.5453889209565425,-0.6278976930138119,-0.8178690622135906,-0.5253197116027715,-0.03800485403428712,-2.781727419655231,1.4150609393704054,-0.3810872476135568,-1.3823427392938268,-0.23400974536440558,1.5094068890355583,-0.698516268991815,0.5173190737045903,-1.3544478966868911,1.6648090487458722,-1.359764628728956,1.2764730760461271,-1.3540122109967592,0.7709557901670282,0.3273499478293451,0.7539551971728515,0.5206034736169525,1.5862232823726319,0.5876026905302244,0.544248886974998,0.02269358017419087,0.37243814790595847,-0.5284220547250723,1.9415198209782318,-0.962138386705295,0.5970463152540526,0.06235909192148328,-0.6689430180842234,-0.550768853890917,-0.07013814804300068,0.9382021542771509,-0.17112322660370838,-1.7040184789514032,-0.40890203120814506,-0.3862379841372066,0.3548908829729025,-0.1994897841328413,-1.6750317169615487,-0.8135632450898602,0.540367149733237,0.5533451403161893,-1.6593506425760802,-0.5270203426511522,-0.5540883475876454,-1.4310668026646212,0.24247667782453558,-0.17060290864851962,-0.03997824974116329,0.9257058416328404,-0.46515026255200836,1.3221758700023252,-0.17121548818345614,-1.1170505281576248,-2.1565043975882494,-0.09311750736480029,-1.5574912560951821,-0.5621027233550018,-1.3016085986095605,-0.21891081021669892,-0.4973913839151534,-2.270556640123021,-0.17319858292733678,-1.3099852654254025,-1.0951139852131122,0.6314075587081471,-1.9993697088590865,0.05385387820338434,1.4404865235671027,-0.9987684365832378,0.007473121960796361,0.36382293550777917,-1.3615089290901012,-0.24831521152119435,1.3072662318158064,-0.6169353098650673,1.3502310545134704,-0.11056063538642784,0.122246790927535,0.0017466388178893951,-0.5157297891494141,0.9881143292624757,1.8107306864010875,0.33450287160168274,2.42536228389866,-0.15932504481581986,0.7676257104888823,-0.512575967706054,1.2144541252543186,0.7821241791455524,-0.00792803604287908,-1.8457268071115032,0.264768083187819,1.8634589869494378,-0.18631758394173228,-0.8442844777158147,0.2647065658012145,-0.7718673091993191,0.8808996465945391,-1.03626931477156,2.0712453110685205,-0.4919545282584169,0.6019466478503356,0.40941683602253043,0.9965256349742408,0.2161799223141549,1.5008805646721677,0.3457423540183654,-1.9365857202932661,0.09425169322732908,1.0886917394877318,0.1360359765100648,2.1394723643524918,0.8441296139376512,-0.020051806016086554,1.983860809502465,0.2908071417084859,0.6255453663897982,-0.5081468518043437,-1.0911138538863385,-1.0743726331914465,-0.6755315442911448,-0.9783017092979848,-1.608016878676105,-0.10098388132161369,-0.41948227592550447,0.7173697679244381,-0.08727890088455413,-1.3604716534480565,-0.5435620252871788,1.2571652833811935,0.12622782567133511,-1.1735735997010022,0.6482355548030638,-1.3827609700235233,-1.1808483439148776,-0.4673986040150694,0.8390106312245826,1.2867913739839503,0.22477310010876772,0.42678838706284883,1.1818053759980942,0.9848128794826317,1.0795699808889219,-0.017351879048499063,3.077773541653447,0.944599950035845,0.4335948064939395,0.3555695445040754,-1.4384303600415649,0.7898767768247601,0.49248311906954023,-0.5678761963366832,-0.43604271393596966,2.244855878576495,0.085397413648708,0.4587213431773553,-0.37787399008226324,-2.2451799473766183,-1.3983823858104318,0.48900504478205103,0.720600219299495,-0.24373378755439284,-0.18270453079558258,-0.6686976245545674,-1.7841061092921953,-0.8166925091758723,2.131443615879883,0.6418992145176603,2.1563654864756403,-1.7578114799642346,0.9800308333686828,0.3224746783446318,-0.6842438753356981,0.41335545636283594,-1.3449135037889806,0.41784735940177414,0.29048064515740357,-0.3149423345628922,-1.2212882615120904,-0.5308595296631674,0.8951865893415575,0.26567480944250355,0.28941974172528606,0.3154414986182615,-0.49937250003277855,1.6266360096858623,-0.9182782171765581,-1.0237426939482128,0.11042645974619718,-1.5659379450318665,0.7686466583013115,1.0650785247125467,1.7835549118475693,0.0056412472391815524,-0.8759620912436518,0.8625059279287031,1.973064606742457,1.2613325005447535,-0.05324773877660978,-0.7109444386079056,-0.9742530009124919,1.0443729068257501,0.8557866098481315,-0.5585193869515451,-0.6643897413728334,-0.8006019933819979,-0.17489945978660787,0.14102900955749212,-0.014268355548895788,0.1345302812209468,-0.493788461317377,0.13904701662278546,0.384295156354824,-0.32272981988860655,0.7675258632888755,0.0501978902865194,-0.45351560142037023,0.8404299762686411,1.5535033396394968,0.4270731803786587,-1.21911043357107,0.7093589613420661,-1.0056648632980087,0.8827666693965878,1.7547629839485819,1.7645168651497565,-0.542348220046402,-1.1359199843859833,-1.0792058596276586,1.735286507086665,1.591744753361883,0.013370377394099199,1.0537643208571092,0.3446160628982956,0.09339522821968917,-0.5011477250919169,-0.42960669946226193,0.5332551130020792,-1.4074075139295452,-1.3271467911689208,-0.7703503200454695,1.0370151295330554,0.36698878143875513,0.38009853823651657,0.09482203358165388,0.6307695535089076,1.6139318004385543,0.062324327701013135,0.7734083993254762,-1.1229690909134686,-0.7502704371368979,-0.3950860747206401,0.35529231146199963,0.3409433105689385,-0.08307737035572367,1.476246076776165,1.0528929335077346,0.9947601087443724,1.328914372997038,1.7825630316366483,0.10797624744516092,1.1927286605329825,-1.6247787633060107,-2.4216581053039667,0.4039497075919155,-0.458293813127598,2.611139910475839,1.5562577771271668,0.05676780469157261,-1.1587319698651748,2.175554600409642,-0.3834049764381448,1.4798455350173867,-0.2898976457988728,-0.6419252801768803,0.4752689397539422,-1.2283843724386387,-2.0855000095796807,-3.2957053271180494,0.8640136680111453,0.8882239190569087,1.398349718363005,1.194659183717193,0.6255084940517021,1.2032993899834428,1.4123013401374913,0.267719283632522,-1.5641957989964903,1.941275739960476,0.3517061254011101,0.3354143801920625,-1.2583034924042211,-0.45221906765098646,1.5262271355038115,0.9267513674944994,-0.3463110072733501,0.4187215792235462,-1.9304685781426103,-0.09885972885943647,-0.11304923074897391,-0.9980642314711143,-0.9341677128831188,-0.33652669535154844,-0.5896774291674042,0.9364259513600585,-0.6999854450920535,-0.9538485223620153,-0.3516587711831657,0.4705851577005255,-1.8961153117066558,-0.5282823211656082,0.15301127393619693,1.0663257973225861,-1.17228190247175,0.39332104201559903,0.4467402360464943,0.7386054395623537,0.532210071586875,-2.2028720527777885,0.43159195459978866,-0.20832496353177216,-2.5423651480437677,0.5011600715576331,-0.06964871292716529,-0.9419851710860813,0.008089534865282588,0.5744266750982188,-0.3014726398045275,-0.00514419559575215,-0.6020044400956952,0.21069413239069454,-2.113206591108979,-0.18236522554181744,-0.48665676792934887,-0.5202401919975551,-0.48379120359486194,0.2643858015772204,0.11365012102546797,0.8194657809301816,-0.8633703816338427,-0.12829144313967855,-0.3857220322936916,0.9555407484334302,0.14305448721088634,0.15385438366717538,-0.9034172321375527,0.3406302604225795,-0.6710025082711352,-0.0870118259396974,-1.9140249627297536,-0.09087593403037235,0.41056623778434165,0.25932709344904287,1.2519646227472052,-0.6503653643890178,0.9881318121543253,-1.148558964379376,0.4811162469581074,-1.4082138101735826,-0.44041200599262303,-1.5500498960754607,-0.9572302706498094,0.2291777073041155,0.4812821177077014,0.07576349493509817,0.6757889066609387,-0.07141127864012137,-0.44078150973059127,0.4166130630256493,-1.8018499170520574,-0.5730960743914711,-0.3565274994588951,-0.7918134485856527,-1.4881760749208037,1.3964463373011444,-0.9280708393631768,-1.1287508993884312,-0.28885072035214604,-0.5983002723013187,-0.13588252233479653,1.3878039423287793,-0.5022119110905755,0.2327398781746212,-0.8703842208630408,-0.4519796064375056,-1.5895374984978905,0.18352936305529824,-0.6016751758720852,-1.7598237209149235,0.3505247638177191,0.5709655960533438,-0.8479204452334014,-0.2964187577264345,-1.3981195694566564,1.47925542695781,1.5999589870764126,-0.11637432037674401,0.11140375805384838,-0.5984963047472812,-0.9986382433174414,-0.35929184623961624,-0.32799394326951664,-1.8851141939034266,0.3733363010044579,-0.22554366676155607,0.46217257584478805,-0.5543659714364456,-0.3916488396169429,0.4684722879726436,0.2869311735953233,-0.41757408277449953,-1.1775320723353448,-0.8976587617305765,-0.40882074265001045,-0.3575941152192916,0.4902850522251285,1.0224180026899377,-1.12822651243,-0.637655308942789,0.5127694000518004,0.9098707272521206,-1.5238828090080372,1.2989447270047036,-0.5809243785257701,-0.05802961441253047,0.1617129288943932,-0.14647535043455576,0.758606086227198,-1.4079792565064797,-1.258869268837257,0.31049215713501477,0.6416952059168414,-1.4718346474481538,-0.22305175281695278,0.7351890662868948,0.19684427757654896,0.4614421244188718,0.5190660355585551,-0.2655754201087695,0.4567576100955097,-1.0675411819148466,-0.4559387253725409,-0.2660400630530755,-0.3629786163234478,-1.1393677767212755,-1.6190404918556254,-0.2064641049885996,0.82837189014727,-0.8081142055954457,0.2650209359958296,-0.9048609299780479,-0.5164582952292738,0.9276386811366635,-0.7983994364664142,0.025317760322554898,-1.0205320634315573,-1.5472697310823444,-0.47925370181574695,1.1410112651234272,0.12353445862717972,0.02472543885847928,0.08148065459726712,-0.12392815617478051,0.5837809639957268,-0.32150828656638847,-1.281964886630266,-1.550235781445234,0.09102675326805575,-1.5304952543441426,-0.9226847251177221,1.7924079892241556,-1.2784840496605698,-1.4071859478557658,0.034650667974655686,-0.3401739071359744,-0.5023966031631348,-0.822047642847788,0.01685019146730305,-1.255607364374558,-1.5174540957097298,0.9305310689044591,-0.4568947490133296,0.06008478340533159,-0.5350666760772249,-0.7921477361965548,-1.3705719645548813,0.1454260311104504,0.8884773410274298,-0.6111790006912564,-0.6281816125535903,-0.5009258707069966,-0.09824593209840296,-0.1446487856627748,1.004821461216105,0.2278514093943406,2.9145634392179285,-0.3882075315146998,-1.07955893861661,-0.8895878517240894,-1.0093738929467466,-2.109861406528109,-0.6514664350678557,-1.6916901236942925,-0.7654856655491593,0.5829159183628928,-1.2230288102656373,-1.5181085068038493,1.6395477310529247,-1.228813250800393,-0.8773689459971634,-0.7465037989038975,-0.444792676626794,-1.2521125845919536,1.1030307999077669,-1.8152576088131849,0.9087787440770697,-0.077992849768247,0.866226007978449,-0.09633816495042456,-1.1823296083741979,-1.6173898109505305,-0.24395279193369013,-1.023169979741899,-1.271480471176025,-0.8303342056742495,0.06605062366566544,0.4858407488344093,0.9677297768541653,0.15998092888052196,0.9000709762472073,0.5420846258438807,-0.8616143746643863,-0.9750898735864223,-0.5281403604519087,-0.3010059224825951,-0.5414128022873748,0.22023489671861238,-0.8521867305251356,-1.1368160901758337,-1.7571665471806956,-1.20261312849203,-0.387908390945448,-0.17863812189854988,0.22790324262897166,1.5288402203794003,1.3107945505076348,0.13298081052906366,-0.732254214101423,1.651803922551286,-1.5255197884399219,-1.546441289218566,-0.219935016457553,-1.4357317792061266,-0.5327243662728617,-0.5146886414409177,-0.7982644151822037,-0.3483354772458334,-0.9730775201885606,0.45814330249472435,-0.04125112231228876,0.9627244028231237,0.7616096438254141,0.6883322879892253,-1.1141906563390591,0.470341620848667,-0.6968413461956113,-2.2431719802144117,-0.2281266345325303,-0.7957056618582733,0.4676565303039415,-0.49769806325629723,0.9778644375047102,-0.12272450853274038,-0.05178304996484801,-1.1347033046092505,0.15502987874904106,-1.0168361548740867,-1.499256537741057,0.12393188048739393,1.5547635343445632,0.3775878536542529,-0.9546678044820461,0.4523938263366105,0.44799542781295965,2.148729348169402,0.7479122193255825,-0.777609418872355,1.5917984988825646,1.6138950786960042,0.6421141931466785,-0.5699323297923138,-0.36140123165123694,-0.5659870488738117,1.2322960388200137,-1.2198301000256004,-0.5052581115050507,-0.214963531142478,-0.2794605572282367,0.2800214285306653,0.524032767960371,0.17144607142513565,-0.8878912046231413,0.03580450300222943,-0.7071881942123245,1.5809602346683973,-0.48553885985438316,0.6271273206639078,0.05565764782714336,-0.1505217039891589,-0.04297357899226348,0.011167914798241273,-0.157208235501537,1.6926877089114938,1.8958973232870133,0.3436625107175179,-0.3764820188204418,0.9432633301111716,0.9786860756244603,0.6231764486037915,2.197862200868071,-0.9622012418807195,-0.617204081944769,0.6131088390334021,1.6299459603573467,-1.9754410420887099,-0.7852208929960298,0.49001771740154354,-1.8803715101699847,-0.2925445246344167,-1.0887292141372584,0.4024658714312655,0.08353980451580793,-1.5052215615285816,-0.5656053343601909,0.07588414532648864,-0.3204711549446957,-1.146221128918057,0.8708560260121488,0.5873831075849978,-0.31161526560565117,-1.0664860747314155,-2.368458774869179,0.307572002415927,-0.5530070317813341,3.5490601181868526,-0.2045381419989159,0.486414102820745,-0.023273295636167667,-0.499707244929525,0.31216856638614476,0.4711177924823224,0.3832557133886545,0.13201753177487738,-0.13440941603497927,0.9625972768156736,2.076094323459842,-0.4098545540498397,-1.2457957290310213,0.37326337061032416,-0.9124979029723227,-0.9727121204159106,0.11187507757573507,-0.7879231435793027,-1.261092596387759,-1.257438451522861,1.0098612856014213,-0.5886996723850347,1.4264436351418466,-1.2110563657828783,0.4027913743992003,1.6894517342417112,0.11987154887571151,-0.9113932567717421,-1.2922432636508998,-0.8315498484893473,2.433585219324472,0.514919574598221,-1.1727729275750656,0.262826309850456,-0.4998464866280428,-0.6496170865316873,-1.267509944961902,0.22896345078002775,0.6810070451864846,0.6547493289635724,-1.072893921810523],[-0.698043710056883,-0.7470161290140742,0.6692255184603474,-0.20521643320123567,-0.7048032987742094,-0.7319641329577177,0.12531930497770577,0.3915317013334356,-0.09010623821395636,0.7702952903512728,0.08525151063255121,0.32568235579616983,-0.437369868274595,-1.3733475804753146,-0.1715347519930259,0.4643580914849425,-0.6855643092915115,-1.7767135838676114,-1.3690706608097882,-1.239863831657934,-1.7368596981870221,1.1851162924380758,0.2772378665725626,0.4100701382529366,0.06550293480906044,0.43489524965513626,1.4989496539264096,-0.06544223576622003,-0.09589595721961244,0.4137762963918118,-0.09092264816768734,0.6530043519860946,-0.8927729748628329,0.2760528770841978,0.16343702003543173,0.23732047953422494,-0.2568284856591653,0.08828906108610543,0.4650020500884036,1.2613022152410496,-0.3165712344009887,-0.295618997108101,0.30972894852879507,-0.04795562623758194,-0.427507680810783,0.8110257202990916,1.14601481838242,-1.2719841804079381,-1.1930225454901935,-0.38167341699263324,-0.94571430599481,-1.1986839546051464,0.0922620692406334,0.7574683391040067,1.9969146788268062,-2.32266974276979,1.4776922761582676,0.2697817603779485,1.566245424112848,0.17966538741012406,1.714581270460035,0.9100566931772528,-0.877707705768824,-0.954100811459223,-0.7240669618145406,-0.021157772848568724,1.576125219907884,-0.5942624665838938,-0.050875808092455316,0.5749473874636348,1.041074939381425,0.9255436271757617,0.7732918265743016,0.14882489924504996,1.0188464994739321,-1.2368216704975854,-0.5047092185491753,-0.7221563457836871,1.86247862468355,-0.17742193378386262,0.5512226126264053,1.4514495312884146,1.4800253106226797,-1.102409538476346,-0.3045881498284957,0.7867696258969448,-1.1859958538647644,0.44046645197353473,-0.0550978449270085,-0.41871825229424986,1.8532923612544354,1.2160985638124857,1.1346841315779717,0.46603862608375574,-0.741483512539714,0.9691488720516327,-0.5752782447852982,-1.6337743824899615,-0.6209411099007042,-0.020829690608509706,1.4228049176244049,0.9627262472043137,1.663844611605685,1.0967273748634256,0.04606997902493937,-0.745848595826903,-0.7838939698142133,1.17215534604536,1.8244629899969627,0.5572994798295492,-0.7247273727295688,-1.7020056497417841,-0.12022746359546198,-0.17156020429599197,-0.6719318162694599,0.5204686605059061,1.4610212117885637,-1.2807934457330112,-0.5787870830091546,-0.7985456381585687,-0.823314868355705,-0.8855015544611435,-0.8400757845899696,-0.03413453259155377,-0.5614290195110958,0.7655672416552917,-1.0182793465427598,-0.7124139329276931,1.1327372743274136,1.0918790045152271,0.5281717110802239,0.23011957299570385,-1.6898395280827339,-0.7823791401007043,-0.9469091481479702,0.08756761843902046,1.1215082226116204,0.12184357635444638,-0.16684521424310406,-1.927851124594735,0.034884059401940386,-0.48495126877572103,1.4292639885264393,0.9255481902931765,-1.2807288922287026,-2.3630277594945057,-1.0112557564521543,-0.9798011304791253,1.0942724034539204,-0.7374278213128402,0.5049608987949986,-0.10764273295232167,-0.16808070886571128,0.9719505921498186,1.6122918349175863,1.8643782515904022,0.8500235292539804,1.3448308350185634,-0.8967478225416263,1.6544316564172834,0.4566816084760554,0.23031990282016798,0.2065200866960097,0.3976579956038384,-0.4761712438147154,1.3392869146770077,-1.9032824254522833,1.64935906427366,1.5485004987733888,-0.32685763640983245,0.4029082733253113,-0.9026333653706569,-1.3105229563008316,-1.001982352641453,0.688164233682493,0.19869550075500544,-1.028859510659024,-1.4519173039862658,-0.6970867019179666,-0.41218093479181955,0.09692885273202288,-1.2485021093606543,-1.1849731740584504,0.7317772235914951,-0.6095543254963934,-1.8553551613205206,0.6558273767648201,-0.3520843951138271,0.6415376488571354,0.275495489707884,0.4610745172776587,-0.5997687811827024,-0.7483443645820614,0.19163772672662238,-0.22411099291531758,-0.6400558203330654,-1.471775941720452,0.4373714868732504,1.2907612975454794,-1.022719215366933,-0.6630044527628624,1.4792787095407092,0.38092763932449114,-1.5538058867440196,-1.33731931314024,-0.28823201609769833,-0.11145561661604889,0.27458320744094233,-0.35479191958849854,0.5611208636822834,0.8558491734218541,-0.8527026088069426,-2.0297590370811522,-1.9031733739850991,-0.9999789676509914,0.10655037458302773,0.9702563256609245,-0.3914276692677119,0.15024796319608358,-3.0961664957259325,-0.9728042364332475,0.23647636759128485,-0.13076150174256035,0.5336593910239112,0.34565934266866893,0.12062615278602373,-0.7756724394851431,-0.17379203996186207,-0.43641218425508044,-0.7431417880566967,0.7801973429190614,-0.03238615057965431,-0.050435233121736596,-1.0481369046244255,0.7343322916536004,-0.8563281995406891,-1.2858804271987334,-1.943161425554436,-0.9591629866160172,-1.3374707275398516,-1.583276231129738,0.22261850050108756,-0.7777282075872356,-0.8363083785099941,-0.6651312220520005,-0.5549157740034043,-1.1709346309956223,1.8115271132008273,-0.9960007541560238,0.6548795809551918,0.08729568317144377,1.6694225555458861,1.0699668555815869,0.547014568373225,-0.23041416429162453,-1.378978617863375,1.6833186512689504,0.6546766659798348,-0.806436917597939,0.3733973101015193,1.2856798335986024,-1.7229532910335779,0.06268525802485614,-1.3647757968523635,0.6474681421580214,-0.31713123623796424,0.577457956950541,0.17887274372308565,-1.5700198038148319,-0.9659919129224221,0.09503503635607674,1.0561790015602825,0.15709730621554996,0.1297309638395996,1.274979245212639,-0.7880341967301466,-0.3268992901303453,0.7411697781590922,-0.5069925266702997,-0.6105681055209696,0.15850902269489692,-0.9054659942080642,-0.11612150525205908,-0.02705654477391165,-1.3315328787309975,-0.6329739605583378,0.5864417535424424,-0.07807854938980867,1.2883613739035547,0.26764041502567615,0.7102681655474319,-0.43549694339698675,-0.43069286119781197,-1.3486885218114788,-0.8621005658389815,0.9688826098798885,-1.1577716464937922,-0.7975343756581856,0.25908981832350936,-0.2832995762945133,-1.195030521409695,1.464059076571343,0.10204502794632468,0.8972671591402009,1.3375826007325766,0.35992465057014417,0.09676818521010457,-0.3661528640847641,0.3815153212175841,0.06070437141336373,0.20796811610085245,3.2205163256076452,-0.5756275580029008,-1.5466483102145643,0.055729450335604815,1.1257246480130791,-1.7101002120025903,-1.2652825739903077,0.5583555023420426,-0.9605694262227807,1.4313252271301506,1.410067941220695,1.7568868152780572,-0.6320010995442661,0.36386641777671835,-1.580522977836994,0.28214725134058166,-0.891028984076215,-1.1313104941508692,1.5037444126115433,1.9861287001780548,0.054990679452869805,-0.2578800818577512,1.3216969314319817,0.4487711471500055,-0.23041225852935698,0.9859075077606358,0.5476777627802593,-0.3600853829174687,-0.9997803251491627,0.13534666972285808,-0.22508129411088784,-1.748748541741783,-1.2480017194483832,0.6016107945270043,-1.3448042404038252,1.2624655682539596,1.0762607484299354,0.07230984433930934,-0.6147605462400493,1.75395505039249,0.12367954724358665,0.057759478962684706,-1.1445036576602072,-0.42934046173732515,0.19363959813559728,1.2326670841981942,-0.30713927429575194,0.7852998943602748,1.5617036367740762,1.5823711002397107,-1.0627982303727694,-1.2982156489449177,-1.0268866869331195,0.5340554294937189,-0.16257000037794436,0.31095621557974273,-1.41134483381958,0.3493755083297075,-1.0698586211058323,0.40558085231267305,-0.26915011153767104,1.1647033085997494,-0.05686892337200063,1.3096016074155505,-0.5946801194546733,1.6018632035831168,-1.2736283051839339,0.3389928646855889,0.7297885546834674,-0.03761886862054544,-0.17178084041049113,0.21533781405539654,0.8954438395335634,0.2982873935664917,1.34371394614356,0.8438609115579828,0.12423237662371399,1.0126356502681177,-0.13332661486227054,1.1555311967665807,2.548820277359472,-0.3886751553021241,0.78100016591697,-0.4336920992468348,-1.0838134861673625,0.06922779524503149,0.02044076741552885,-0.4294866115611911,-0.5649567423361682,1.3401696833825787,0.17278210670093136,1.4366412990389386,-0.5043843295797363,0.6902753252382559,-0.7686946720051454,0.24960779243295653,-0.8652514290305606,-1.526587099018687,0.3322676592697426,-2.1352362508591662,1.4863411603755259,-0.9514681869485856,-0.5197284775337637,1.2170327160512364,-0.09966806293954185,0.18814408319253365,0.320068288816926,-1.3716832293815202,0.014474316818542894,-1.062716774482196,1.023090239247265,-0.2117707676228715,0.8168026524725935,-0.27481662986322863,-1.0641958351758514,-1.0795292802209508,0.7184243967511543,0.16756833515250807,0.9586858466608279,-0.40074958996207755,1.5396248265953556,1.0530384238140942,1.2027254814675312,-0.7615438239787239,-0.7397323176846696,1.4417150551546387,-1.3789206427920946,0.7370734562831918,-1.1543051390345813,-1.6380744891194616,-0.5272344463449787,0.5149034119701434,0.992682059761298,1.7090773900831857,-0.31359687965077926,0.33877201799293755,0.8759133112265247,0.12039766042754817,0.22105070175637295,0.7436451933574828,0.3837029725538991,1.0295361261931208,-0.7607330506038583,-0.6757844474916646,-0.4372497093832951,0.44901664618620973,0.358352916143032,1.7436588998177678,2.1026166934191797,0.23332413821545156,-0.7819215134717291,-0.28287501290204276,0.27564403588577535,0.006675108973892812,-1.2132683495251404,-1.6109111464067234,-1.1858734837326383,1.4671163187015503,0.5136884489541503,0.8457462679628784,1.0122156163495872,-0.20485333135471434,2.184431427627635,-0.6670998461137347,0.046904926566659726,0.4236978808202005,-0.3385641535307883,-0.20713071355443494,-1.5943272796125574,1.034860647031102,0.6769215682264373,-0.676109617458559,0.7183073752271522,0.26996787787892523,0.2981014353982601,1.1384072580973645,0.8566937849824184,0.4766791454722941,-0.16391397291366316,3.2551847439330626,-0.9872999552503839,0.4223522259508041,-2.245868636121771,0.7079993132440117,0.8727899840758234,0.5597350526655005,1.5816205196542499,-0.24556444121212442,-0.584136965933079,0.8827053435024438,0.25942302268724987,-0.3770216758890905,-0.2024056785740227,0.1767112186872072,2.925973465711511,-0.2996882045323474,-0.3928678245770579,-0.709685277059866,1.2148724408502392,0.6344862137953828,0.09661073562953426,0.1706417657722939,0.2864160881461429,2.135181183422827,1.6188242381962301,1.4571917975500621,1.690543019871943,-0.6295073375179766,1.0183631008718415,0.12529518188359848,-0.3963751422468329,0.5719328954038798,1.2518429715381352,-0.3254594695024552,-0.9517533560050707,0.3080688831870277,-0.3692338430103118,-1.639412896515576,0.537986086094394,-0.7650572484535458,-1.3969864381194073,-0.044329672812021256,1.3158532325341474,0.9586424669997146,0.4959369805014909,1.1599235257525868,0.8240673538113479,-0.13512183136878078,-0.5269692342916131,2.779940718571877,1.8995994929588147,0.1744636027298761,1.5160014327336486,1.6572824814957539,-0.31008711930786054,-0.24457031039313204,-1.327549463058622,0.05666419102118591,-0.15568478651912449,-0.12804532988672987,-1.9009184362698912,0.4109741698866306,0.13072788736168825,-1.2324516557593044,0.8051984717713563,-0.5376918614375595,-1.0045383196441333,-0.7761783024859511,-0.30195652655547855,-0.011612130288103909,0.5322797885319559,-0.24077393239185715,-1.0107126009748362,-0.20517759063017818,-1.650068848739113,-0.7657173721951477,0.33160429669354635,-0.7338580599074199,1.249931977328488,-0.43983610867112566,0.4660597383201138,0.9923398127397361,-0.6212796797281108,0.6107506184854772,-1.2520631852353379,-0.5532651359124763,0.5438795943955453,-0.1533587062847134,-1.6117828401060263,1.2803160018119917,-1.3311929771922748,-2.162492985222681,-0.03263297617899306,-0.6037412511459718,1.3714277403239212,0.8905037057957008,0.20969325449860068,1.6779761878544248,0.4602296783974243,0.515130744464171,1.3040721376355877,2.480659818335583,1.0561833066381328,1.3385645335617884,1.6154028420552375,0.6214749724218953,0.7752500860268459,2.188609435526997,1.0033718607914184,-0.20316354885810575,0.17028337863076878,-0.29132796010059037,-0.3934624334391962,-0.9394941204812767,0.11910940066489584,-0.10413902645450308,-1.8782764216749546,-2.1582184491554814,-0.20061759434196627,-1.2755480201067502,-1.2770060768196219,0.26334884688105803,1.9209465349671815,0.4714107162624261,-0.6632763186190452,1.22784637201118,-0.2163878300325964,-0.11387632320806487,-0.6332210920483382,-1.2085613976662115,-0.507317601339177,-0.07050632682217306,1.7984269907299433,-0.1245529957669365,-0.4249414044014161,0.4850558902189516,0.221538952551051,2.1224588863260263,1.8811796282856748,0.11079430247382104,0.8304212602175702,-0.04167184261220686,-0.4052810931314221,1.712867973972082,1.0633096164242886,-0.46403693785208455,-0.4451736945167305,0.44967685501175697,-0.9277902435174649,-1.062951240928056,1.0120113197614968,-0.8198647080386927,0.6806059768729571,0.06557171836069035,1.1516125245734956,-1.5081667221761994,-1.4292214728070591,-1.117005186008401,-0.9343405969321933,-0.16070365763394234,0.2426782868775523,-0.8632640381186798,-0.37956307856245297,0.6153582400627977,-2.52940352088281,0.7227470384211286,0.6778779996363855,1.7955074343721944,0.04281086073612928,-0.711314361797925,-1.494199641789756,-0.7766218078758368,0.1958178926689344,-1.5586692642898217,-0.6273018101646665,0.031750093323925595,0.5393315346119447,-1.8262700082137597,0.18927110773333125,0.42107366111390887,-1.4240439451428846,0.11740817534994974,1.346020757906296,1.7723623804929247,0.21744172137518886,0.5413220512376493,1.5886745668106719,0.7926560060711413,0.4838008920648326,-0.8484682199409628,-1.356082954806382,-0.42001209247241517,0.5385317580446614,-0.11026796274389196,1.1519006814768598,-1.1637221602138466,1.630876724792599,0.7206564903019262,0.8431440797285459,-0.3603785340799924,-2.4455268189400847,0.475723587099595,-0.4120203313648957,1.7608940404825733,0.38319524436408425,0.1898992516026652,0.11839485388682577,-0.5195412448276745,0.293931901251609,0.5541910817486249,0.37569591865953533,-0.6061952217557294,-2.5357026593732175,-1.1627352726223918,0.8822110872101226,0.22047308885057845,-0.4683413032486203,-0.9790021008241471,0.6043259439696941,-0.8568080217894491,-1.2413341063378194,-1.1351597115747656,-0.30224399364163235,0.8449867266881849,0.8758493867504218,0.0361777511476181,-1.0548230673513106,1.0381326635743453,0.05499410255510977,-0.7801443483857379,1.3543653754133391,-0.8424209945706936,-0.029759904505734035,-0.4255121129250009,-0.47104516900709065,-0.42624707316834504,-0.20471383384509623,0.1711528179443961,-0.6101290488666401,0.02329901024097111,-1.004670119494229,-0.18907095867152018,-0.9166702042165539,0.9897599845422217,-2.1753895665565817,0.27454171688588547,-0.5492285715365749,0.1145786093247381,0.6602915244435216,0.2529308262981567,-0.17416977189593602,0.776867979444698,-0.14664915834359893,-0.7546080080369311,0.315690394886856,1.967615637740106,-0.7745407518798648,0.7985490230093868,0.06128460962601241,-0.4751894254784604,-0.007738014152751993,0.7737853013215331,-0.11689086783148624,-0.17602907210367633,0.6517894969609938,0.5768124834578361,0.34963070304989585,-0.3622487997765456,-1.3658413932071611,1.6944959681737535,2.0786801897674243,1.2538626612572792,-0.7658011883564447,-1.5884167339168525,-0.5495373700265499,-0.8122719329027603,-0.670941659041319,-1.6528638286671384,1.9812904337439075,1.6915724669808483,-0.8732361753516019,-0.530276699278446,0.3573935538232507,-1.455700818137262,-0.2724748226210576,0.4952791286898447,-0.9821926093605737,0.020492427830659805,-0.47701547116180215,-0.9564904938163828,-1.7210929125286776,-0.09961943233328704,-1.180036812355897],[0.6568853339376274,0.09467047625806274,-0.4424432446309005,-0.7811957449498409,0.7111103106371539,1.024429567354917,0.9257305596141169,-1.1214224809065692,0.7968510499762144,-1.847041857943839,1.2095959944866228,-0.7249293973071549,-1.1935647848899738,0.260908037368338,0.01756211110545546,-0.9061476151941394,-1.0931551639071146,-0.9038082698793894,-1.02618957851728,-0.011681490784831362,0.7062824842561575,-0.4177098400788721,-1.4763448643402235,2.4113737687122407,0.1404039081310059,-0.4353469552681502,-0.02468854777726396,0.06571427061048017,0.6443450579639975,0.5044776949490861,3.547874161819625,0.32198587100283205,0.08353401622414042,2.1174426459882225,-0.31262038287315685,-0.2519691221545092,-0.11029249260909306,-0.07108537169408283,-3.0635642892903077,-0.2813001320429741,-0.32718891043196835,0.5848633629286066,1.2558676754499567,-0.06743182418343907,0.5599710403201428,1.24334505793504,1.3482283853040782,-0.4948821848344764,0.858510037657242,-0.5417465547190936,0.3580353874008449,0.3942728937741894,0.05934103589484844,-0.534175296815367,1.0283162114969928,-1.0648893928274745,1.4985902307197132,0.5079529521032765,1.4794232902089888,-0.7618500184686827,-0.6134038190220862,-0.036505531866767464,0.566791456319639,-0.739150979663817,-0.34652684492326247,-0.0028933572468400675,-0.5088481457221857,-1.213393976457498,-0.48536333088701544,-0.645452138668868,-0.10585968920016496,-1.9107656700477076,0.4031855387127527,0.17121432149758195,0.6279805408801585,-1.0193755137909826,-0.6865417338128064,-0.8663998612327577,-1.5792112501309683,-0.19334624598511221,-0.17668056774397223,-3.0053569484720875,-1.4222987087021524,0.3468504184747561,-1.6428902363563733,-0.575196771588928,0.20991479435752244,-1.3463039171433888,-1.3187582686040444,0.17112628684879921,-0.194089140439095,0.6420123696940992,0.9177120098489253,-2.1216572749061,-1.1122132302461263,-0.16719853691071235,-0.5893766393414873,1.2944421093957355,0.7025578655348289,-0.5289569325563666,1.7646096501404087,2.455426232442068,-1.136174549510315,-0.6324786420331995,0.2160946986801055,1.1139501885217207,0.2419443043273883,-0.5966814769705945,0.5506664295675192,0.6844159777466946,1.401047686001388,-2.1527873168699605,0.7074804569972893,-2.209234725046191,-1.2331045462286814,-0.5651962153504935,0.28667943334376583,0.7388140220597377,-0.7111497134795156,1.3851132413247818,0.32909695224033625,-0.8859917400533914,1.0197546963507431,-1.1029559896672854,-1.4376530825513671,0.33169041828586854,-0.12433472850512609,0.04541772639615886,0.3493792591831163,0.4796450693703819,0.4276332395772318,0.10904603229027737,0.3303041219403836,0.8672903319479288,1.0796960962685584,-0.5335088382910489,-1.5582884015847402,0.26083246072525995,-0.4545178650515233,-1.652420767406154,0.5066973462206854,1.0481760776355156,-1.499226946357539,-0.33238586858598296,-0.587768523422876,0.42661224775297546,-0.40749046788262744,-0.3177145187392222,-1.0387096944257528,-2.4202188277914867,0.4409332279762953,0.8399378962126903,-1.0753259044774275,-1.1988320669720522,0.2196193960482261,-0.8330288916169232,-1.458437435503898,0.15111736885904825,0.6535218924827975,0.17973172600505538,-0.6729674961393374,1.7680841597608352,1.2108761305604732,-0.02540458822671902,-0.5291061249357836,-1.506186053012559,-0.040491231730143996,-1.0102869520138755,0.8040841042690515,-1.9603633502023372,-1.498795644029374,-0.4164320946007992,0.5988134542628651,-1.221581930394167,-0.3695914441134628,-0.11172702816874434,0.5907353700295287,-0.972644139737283,-0.29489622279767247,-0.6473832469652147,-0.9401451036371057,0.41435660322927387,0.09806444455190051,-1.4674434376574284,0.804323340167515,-0.2794832181033989,-0.26650594389627685,-1.4095378507429648,0.21509698904439747,0.47121880571047203,-0.8899950618859854,-0.2965676227427199,0.5165452529273923,1.0134806295017835,-1.3472377414006353,-0.14386211679525193,0.611259693363416,2.555937854127549,1.9998628815173878,0.6231685889026162,1.8976567067376244,-1.1867976851339594,-1.1813861921645192,0.4847891864330476,-0.21745952112512995,0.05887502755521294,-0.7336306776908823,-0.5390304056322056,0.24677625626823615,-0.2328047922969887,1.6682316625435687,-0.6232780377479473,0.8842433507231635,-0.33198974459573055,0.813470860802212,-0.6329958252868125,-0.1822495171276567,0.2809800180471685,-0.2420108964501709,-1.1510842276991202,0.8853106613803273,-0.9834405784268662,0.056989388534534766,0.18761276533919674,-1.6086664756304359,-0.8132215445632618,-0.6610482058721245,-0.7275424572806839,-1.0177579323192505,-0.45417267765493835,0.3673264263559913,0.5574146427347678,-0.11825183389187768,0.17486013983512258,0.30369090821406497,-1.288701930568598,-0.9686056140099554,-1.279401715398471,-1.5880529515805062,0.09585555957524071,-0.014847564770159721,0.47701669820703907,-1.0059454034346862,-0.8256371594642223,-0.5053520544668605,0.9240595484188164,1.2138354760307108,-1.2671830575237706,-0.7253340183686681,1.1347073046185372,0.2648532726962258,0.9402164081583819,0.8176980203681514,-0.8844146376679662,-0.22307539584710318,0.2859518387747414,-0.724634553129423,-1.1500490561328602,0.7688015031784242,0.13130484259485534,-1.110781910035899,-0.702045502050721,1.225166598374337,0.9682350425731004,0.23890709225399054,-0.5922693384207239,2.0016377134739747,-0.29654117612134095,0.32024515652304847,-0.812316766563703,0.4216934799378354,-2.312530691677394,-1.0989130608944373,-0.7855735501609488,-0.07248952854329667,-0.4063244401522835,-1.333060373100798,0.18327197093613648,-0.020231101604203272,-1.271914049578853,0.4599905901049952,-1.3353110849559138,-0.5394210711963701,-0.39874438905356385,-0.6108821393664402,-0.8566540356734796,-0.7257657618037938,-0.2473632735083994,0.06253237889718823,0.9152224396811063,2.4973329660824746,0.2245587559249949,-0.7864132039089461,1.0813637502644984,-0.5534909598898038,-0.5648219798061227,0.6301472153796001,1.4970028735356298,0.3913411854523243,0.0413564987784324,0.6405849043520478,0.8017844509673725,1.0339653073354707,-2.482028493113747,-0.2721263793604494,-0.43106126396589256,-0.10727049048811026,-0.23087912627405618,-0.6165365584974964,-0.7301087364638297,-2.33777268942704,1.2488561298646883,-0.47022340872932133,-0.06566223576889162,0.5194251665945758,1.3128409514315553,0.2525364968737451,0.014375551011108257,0.49138578907234565,1.0714291721861073,2.198051078478585,1.9476002032888704,-0.7207372967189513,-0.3518888236658869,1.5547709821102806,0.3825334543857198,1.1209263477372198,0.7212606164023914,0.1997458183455804,-0.8919235234044378,0.437557553626895,-1.4132307645032045,0.5930798619983483,-0.6406711086373638,0.2538189839704891,0.7559444036856402,-0.8961123664130796,-0.30709143309831627,-0.40757501244854777,-2.446054444578089,-1.2940024823765108,-0.254599990250988,0.32298723434646703,1.0273652401791058,0.6363165248368967,1.25398996814694,0.24810237951462827,1.5842853601632194,0.9047317812205063,0.6854790660091727,-0.11908068179154259,-0.20102727714293145,0.6038523589224859,-0.7728697185407453,1.0185094470468241,1.5161206797032247,-0.9718374245235905,0.3966865646598419,-0.4556146533381816,-0.3418227335315612,1.586349111411825,0.630549048829649,1.920301117877167,-0.10085026001760546,-0.8515076467645871,0.08205245653738823,-0.31729271461464237,-2.1170053908187376,-0.319350631827244,0.013251201902131462,0.2919560036746931,0.47368767959201363,1.4112149637846358,-0.10439450010491157,0.029472806144667046,0.9370681602664098,-1.9808198224290312,-0.2826873116995538,-0.7542232302436738,-0.5098149709087753,0.7826552857056422,0.471959303286011,-0.6847973575392451,2.154038838566393,-0.41555873545470307,-0.06911597669280198,-0.5512443463920036,0.40765138877806484,0.07386630908507243,-0.7032956749302086,1.0651251374608581,0.31016531507729456,1.0283709159823704,-1.44829875569197,-0.8073907217089819,1.1604594103211996,-1.0353802380409602,0.7272514927888618,1.407707694961904,-0.11986218507129061,1.4306777378663844,0.1734536772795306,-0.13977478212629324,0.20175471280322327,-0.11872629074910004,0.8443232816153163,-0.6607390364443501,1.1556269425964452,0.8258079984225233,1.3661386849647015,1.1004936885129362,-0.6554096011958555,1.2453180506070207,-0.002049355646914945,-0.5087345620481811,0.747442198450769,-0.2587710196186002,0.7589457437927857,1.366850066568463,1.7149663906557624,-1.2362327583631518,0.7304040678771131,1.22414160666745,1.0402884837685396,0.1340212151088891,-0.4316610456463369,1.6395673306973837,2.4463542024833047,2.1349332712660205,1.023890651737044,0.1815157730952628,0.4529161654215361,-0.7437571893263384,-0.9300234167009227,0.14058995438314706,0.6887429974124584,1.8465140688412918,-0.46590530906562366,0.7736247208812866,0.6452440493631706,0.04128488826856278,1.466022447682001,-0.6966368923430474,-1.481154704827286,-0.41782216656122106,0.23680738079623162,0.7542004058681435,-0.8821774179776928,0.7741230819985472,-0.43312651018420006,0.3064675123764218,1.0708325555850104,-0.06427170727290157,0.47584471830649855,1.9477600518800045,2.104520722897425,0.2991405235838702,-0.49120480401004063,0.9494925847028007,0.8061775675897118,-1.8049295162539463,-1.0659858514321214,-1.2246863899627451,2.038001926898168,0.9216370686644901,1.16505581080738,1.2048431930258663,2.283649152503141,-0.3506074472304347,2.043739702777205,-0.0018444337604420309,0.17475678385214663,-0.16284961980309576,0.5841121065685998,0.6989549041787882,1.0085492629357475,0.34538655351294156,0.46566983820577723,-0.3590915927486077,0.6334538061879194,-0.3089503772574003,-0.3069171655623832,2.0583719062687678,0.607604532281467,0.5710608805017303,-0.11709510518892274,1.085359656705774,0.2510652430174138,-0.5303358796351612,0.05533171694103552,-0.5079702210656389,0.05039252746046257,0.017539690350262767,0.9357298655315222,-0.06583843813668812,-0.027434283635187552,0.4576998543261426,-0.4166971795116213,0.8821580384996149,0.8744064308562489,1.9787853563516211,-0.06685283855190145,1.6176595829594738,-0.03181980250298083,-1.2337769364075564,-1.3476166922268682,-0.4446596842098046,-1.5308631383873836,-0.20138292756226114,0.40244033555934955,-0.15247917606068814,-1.012731603514534,0.03554133260180624,0.3902558638195042,-0.6658692627436484,0.527512593681363,-0.6855904584246814,1.369285741967907,-1.2713982592910194,-1.1558652600195467,1.020311781489107,-1.465613440238258,0.3992337906153636,-2.3255653285588704,1.4734218025860033,-1.0692820457350456,-0.7540149866678446,-0.02622814657828788,0.7244072526257946,-0.07315233926874164,-0.08008119248503943,-0.6393311600259011,0.3448340709137852,-0.353747263971693,1.2168698878184339,0.3215723877741194,-0.3216784636045372,-0.08201640375030686,-0.26327337871931916,-0.36230926580392586,0.34635214243153556,-0.08086216672621592,0.2749434847931444,0.3675773021854073,-1.9472931329725929,-0.4305664178046196,1.0713209170541196,0.06718999058800681,-0.1734079715586599,-0.0716232733452609,-2.0718271195677973,0.4085914318499119,-1.4440094525589047,0.7902942667079232,0.07677422691510444,-1.3444077500295948,1.5273603431657183,-1.303988141940842,0.7782038488075869,-0.4180402087050344,0.4024847006882172,1.781295649639237,-0.03309395807669297,1.651024690728421,-2.5367710257004252,0.03164729447402499,-2.5614622362399655,-2.5511834728854788,-1.2805738430721845,-1.3811379980133147,-1.7766224796236119,-0.44100074817396895,-1.2511516227913875,-0.43825035681287144,1.8101827200418588,-1.1122752041118973,-0.6204509756893736,-1.2591830942342843,-0.07710077444236843,-0.9273368327450929,-1.124460754689815,-0.6694371081878643,-1.4970929767278691,-0.8608144190711623,-0.5089823568395828,-0.6229080200180422,0.23519815725281887,-0.8806936709928305,0.7525481265472286,0.913131617631761,-1.7319756231600087,-1.5796142611886261,0.10257693967122553,-0.10448272591497014,-2.042615321748531,-0.7373605883576893,-3.188920706097955,-1.626086597340911,0.4641510978174952,-0.6119521261377774,0.47145687985309803,-0.11303444018021708,0.3670642845447003,0.397127661815804,0.4837538147643615,-2.6660044218391827,0.5509000511486745,-1.4805132415664595,-1.2580256896092132,-0.5502615326129854,0.40560794124622396,1.8608501805968871,-2.016401884586801,0.04439927483984117,-0.19133194666797113,1.4774565054680135,1.0509637392923596,-1.0023758386672648,-0.2244660622803963,-1.09711734138058,-0.31648036055003725,1.4555442385073496,-0.8823158532540608,-1.4984748311756309,-2.2813929616697313,0.3330244837803158,-0.3874848194543892,-0.8502800671848197,-1.33113362388754,-0.7224607100622357,-1.0283541129956355,-1.2055981578987947,-0.6688931172255559,-0.43189429445206456,-2.947966049612292,-1.4631280584373887,-1.128525066351753,-1.530669833795811,0.14890715594218354,0.8978663731283376,0.45936021312450404,1.3354563141011808,0.2265658743401454,-0.28767532451088296,-0.05750016248341304,-0.015402618360775201,0.24466369889196318,0.2938131027324163,-0.6399545912781787,-1.6625164808003425,1.1208393690704193,-1.0316972357741656,-0.8672761084600444,0.1490706786156145,-0.5792206946311178,-1.7284256223389525,-0.3943158191356388,-2.547100941663632,-2.558915370274481,-1.770318554795382,-2.2352195559810117,1.3134256439854277,-1.6799489626393809,0.529171462550923,-0.16541163016064103,-1.7920636952970563,-0.42517132744590574,0.9720910967144583,0.557003333572457,0.775105846611317,-0.2986464034107322,1.8537793455497191,-0.49072758281882556,-0.12224089426797347,2.054305114133934,-1.1438175484112454,-0.6539509035462047,-0.24855905465782463,0.6261133413610771,-0.44172739923974086,0.46527829882430416,-0.7866433602404234,-1.3300839443030323,0.7251389104142929,-0.22544178306643028,-0.31892743450804467,-0.6458137142661479,-1.667012086555112,0.5745337212966918,-0.1943984700338692,1.3213956675205207,0.4389586543191471,-0.5775680781828361,2.581284785194391,-0.358779714985582,-1.1242130297566029,-0.31344504801821366,-0.513185627878243,-1.0672646195146676,0.2479576889682995,0.4593595133450158,-0.8866193848729079,-0.07672756772962434,-0.3992138504422544,0.7083552634141278,-0.16990268095744296,-1.4636851947488516,-0.2879925106326273,0.9565002809216815,-1.263143483627263,-0.8128342768204445,-0.34105039559672995,0.76631869808201,0.2568093407090368,0.8581788073455753,1.047013097762808,0.6175570076014877,-0.3695268502681492,-0.18296693810594117,2.808055495416524,0.06935782008687366,1.3918536543552487,-0.9927055121081562,0.9941202142530828,-0.07172749802770022,-1.0374927463175447,-0.7363605822374543,1.9762596701750181,0.4924948908376959,-1.2389017564244698,0.056728814441496016,0.9208730632398667,0.21098241570164783,1.2765006603666593,-0.16201030566105967,-0.22074490827407311,-1.2705669979571736,-0.6143207851538044,0.07470499665394145,-1.3617583143053962,-0.20990879536016785,0.9323166730928596,-0.9510231663627635,0.0601456834273948,-1.107702947591622,-0.09426571916751667,-0.5696850065372596,1.1373921612715565,0.6407815209423022,-2.2656936250994444,1.0721588479015665,0.9573471019138889,-0.7687174509558002,-0.6367131267973563,-1.465486696718601,0.8623371902176299,-0.7847044743848742,-1.6391967101460316,0.283867383834799,-0.14120339806094867,1.4336125075235397,0.29901942515512114,-1.8467978250799122,0.7354619262919007,0.490945131700555,-0.6702832429270569,2.3132276918376835,-0.35198550844225057,1.1675464077090443,-0.2796529009780831,0.7368887707542429,-0.45487065929833015,-0.21919553039054077,0.3908466888309438,0.4293824398218309,1.4981572737788043,0.17565929872692418,-0.14735510164819554,-0.43044772043498836,-0.826642306844873,0.25988695850917803,-0.5476601126346566,0.053845279184696226,-1.218054580336148],[0.8164612420862729,-0.477474385331582,-1.122655138411275,0.43480149486122494,0.873241644223126,-0.6284001518227751,-0.6990524205420934,-0.3722276807726568,-0.2606836888529498,-0.011680029460130211,-0.3722558166369055,0.5006425772204205,1.4791560486946387,1.0585331844763968,-0.03638917928293797,-0.479215248471735,-0.09794710163704562,0.8165449412227358,0.7907605428744406,-0.6789699024816985,-0.062263455112213664,0.6346313632063976,0.6401225644350307,0.02075276878439326,0.2112651610494948,2.400196392896803,0.8295030042545193,0.9302997655834326,0.7533715606845693,1.2016627163473956,-0.5786789525986952,0.2989376607781157,-0.050106348266866704,-1.1859260149126092,-0.6110237410264625,-0.47684585626503845,0.5797561091825155,-1.8611542832991452,-1.4395888226589915,0.15941263637540043,0.14971392464722305,0.6677273831925731,-1.1138186339528562,-1.2571228339682008,-1.5293625239637376,2.0365182882005386,-1.527068535276769,-1.5916708177174754,-2.3842686632702534,-0.7711353245566328,0.5915214337199269,1.555774719785263,0.2863271140190364,-0.6812489517722875,-0.1670392970747116,-0.01335092030812147,-0.790346636384603,0.5034879777722987,1.2199304349977989,-0.43169668685871776,1.2921428366711438,0.9899847924901718,0.309781937736342,-0.07206693597781476,0.12042964535346415,1.8509573228089575,0.526085888674499,0.7873456749682828,2.8496182916740467,0.218477080580755,-0.22809708348649566,-0.9784591066550397,-0.12867379220382202,-1.7571976709492385,0.3455107578586183,0.6151591924700761,0.012674379322177291,1.762843948034465,-0.7799915367985754,-0.40938419833108747,0.5333017271677415,0.0787572215232041,2.1085882708383874,1.0904258513888085,0.0407928894269349,1.1009007573767549,-0.7253638715991853,-0.07795900678276901,0.09686138526150014,-1.9837178212464226,-0.5834950354445152,0.08357410381888697,1.673403825186778,0.23899820809617722,0.268239687605197,-0.10135596451179563,-1.2200415978272117,0.02717692323439628,1.019819125948508,-1.4689066994818927,0.7054607191016706,1.6076265889304284,-0.022256603961352192,-0.14969055125686886,-1.9096595278272162,2.4407406125184683,-1.1164676754445715,1.2971310548889854,-0.20675612878394975,-0.26712894425494604,1.3532879019250739,0.4783032516020998,-0.8437630084057122,-1.408856295484209,-0.12112460138374709,1.3866632249275916,1.771230636109565,-0.26726063359205054,-0.5506820061782244,0.5097125805640752,-0.6729547835218695,0.18165313801819855,0.12313729955841606,-1.9005264894313891,0.3912011445070778,-1.2081361877198191,0.5198942292927317,-1.2065175151853427,-1.2108998985686326,0.1868661529930514,-0.6775256194350652,-1.497007771423124,0.7224868306674344,-0.976447058839184,1.6220262200070965,-0.6084103469740977,0.29197534173660455,0.3119748843054073,0.8459137912734487,-0.04002628465617401,-2.122306846566762,-0.9935278752954793,-1.3518764040712536,0.35964908651918887,1.0135750084280781,1.4406453492350098,-0.49980916570295275,-2.68494739340434,-0.9160149585532976,1.279376918864079,0.5562014297467948,-1.9755527562497357,-1.0307295899757383,0.5018830452945418,0.5053409745403797,-0.4481513528118772,-0.6980281449278545,0.9428294340849096,0.08704627447632915,-0.03658280018328936,1.0475511185323203,0.5002587652473705,0.14956208588102068,1.9213583604700506,-1.0839389651154803,0.19497203547117745,-0.40981303736411007,-0.7630098127880889,1.1766034783335264,0.4889158652501434,2.2526819691541045,0.327864191925573,-0.7391546191123167,-1.2298561410928217,0.3219187423937261,-0.3057718158363103,-0.057439634695748844,-0.9387773980779315,-0.5543266678720443,-1.1283069525336737,-0.8984412881386269,-0.022487534010421886,0.734633588839027,-0.008459672640831084,1.4910557674852505,0.6556080476926143,1.1661228446932743,-0.505127961900607,-0.7449792081276302,-0.06156028410176654,0.35322024860423723,-0.2699503060714796,-1.1658875282618808,0.5053979177353767,-2.062825563108366,-1.6521433301460104,1.0866933751646506,-2.414416277606408,0.3124164759059642,-0.533733885470327,-0.8089072166480928,-1.6225615303622807,-1.263687142073256,-0.5968363622657419,-0.816548167099564,-3.000251926354971,-1.0464983665576382,0.5709057073025422,-0.7411668940576385,-0.4739776091948601,0.031204381538387574,-0.014414418559948674,-0.06102546031545813,-0.669634647079333,-0.2610305373433215,-1.6477249495961155,1.027301678241334,-0.48483379735388676,1.325591428651949,1.0032988054423408,0.17121473811792118,0.9349230655290719,-0.4594268791337614,-0.8330924270576119,1.5003036605963638,-1.3317255101307286,0.8117261888038663,1.0230376374060939,0.2781903751506242,0.6578269389843503,-1.7726387876361176,-1.730195274272363,-1.1786557190987736,-0.15583069536430544,0.795942709626701,-1.6297452125851186,-1.5580494100681501,0.4245878172127435,-0.35188145376032126,-1.4651764782871914,-0.024231154044376594,-1.5033782737893007,-0.8084530981764747,-1.1419921434399456,-1.4112262429132463,-1.1028622104033101,-0.43688272721969623,-0.5829190178529693,1.405275910163833,0.6657648382048628,-1.0607944207744189,0.4897953927593252,-0.8676213816673474,-0.6179542860230632,-0.8041287086852912,-0.2193284238648776,-1.2855874803091225,-1.0550643336328231,-0.9648165918623044,0.31766673755481695,0.5320379158459272,0.5934988482166997,-0.9369632442395791,-0.4879435724709869,-0.6650135393405991,0.354668407139771,-0.5244004826739075,-1.8753225693023996,-0.7172735938133206,0.7708411913787844,-1.6006356646460007,-1.1520622029989287,-0.7735081199019709,-0.4332249242768323,1.9771931932228002,1.005929075603632,0.6012891067181698,0.33700616535829775,-0.5679408331840224,0.3346268243734225,2.318430755613437,-0.8075723812978649,0.78101741036761,-1.480565174900049,-0.42474068550943184,-0.871977892986778,1.3299639115608022,0.9705220021779294,0.5564358474988503,-0.27395420598779213,1.3792955073416806,-0.1500949313184554,1.5015716385995397,-1.165598038091979,-2.000316734245939,-3.0527227230666063,-0.40384011107393814,-1.525759664911526,-1.0273144321896726,0.7077707064143779,0.23150325639327324,0.40479030004554345,0.05022602647378405,-0.11438608396182441,0.5717436514208561,-1.0144490519645546,-2.191071116540397,-0.713433692865561,0.39529294128324255,-0.8165327884312151,-1.4245693919108262,-1.2244725643755836,-0.19588450551836314,-0.9877778631818627,0.6167725894479802,-0.6392576391523526,-0.2472013402462164,1.2777307896590886,1.4069493228496623,-0.4998960729700709,0.31752468897984193,-0.9818248784186169,-1.8754627897394194,0.03840687290794141,0.12001567264574141,0.4504890197644659,1.0522694812718394,-0.7733166594099917,-0.5402422825081316,0.12279823172135163,0.6355198904532975,-0.724688054258696,0.6823991422291601,0.6008545312048613,0.09334325216867188,0.4571524266354544,0.3135018389131118,0.41074469705152655,-0.08911371606839365,1.258168431752347,-0.7270988634772088,1.2214506628258064,1.3903134812880549,0.08283598504134917,0.9158402804056535,1.7074189972099358,0.9593655043124121,0.8150446469647378,-0.46425005972544775,1.1148472298146117,-0.6421521683640181,0.29848566332295495,0.33817015875773265,0.6608081102787683,-0.24298321948351606,1.4633204056975886,1.5281016939777397,1.7872994560520135,-0.9268437769997042,0.04939987595007598,2.014023618520333,-0.6120497026793087,1.2561931890422107,1.3575189594731139,1.2958657809268577,1.5625708655445225,0.033352278066020695,0.316588385196765,0.43509663069927756,-1.0812725954840574,0.6602187118765228,1.65076937603885,1.2769249724103087,-0.6243560548641833,1.2716662680040458,0.5505805874428322,2.6652442001740044,1.131466630420538,-0.06548659219587025,0.34495935057355354,-1.0851305514555047,0.17676825026823167,0.0027958365911454276,1.5168197069929616,1.4859034417113979,-0.6261576889375267,-1.3067810139105287,0.4847551016542714,1.543016506003241,-0.7731243472188598,-0.33131381432946805,0.9614874301104545,0.22060516727371,0.6278650727702237,-1.5247274840137244,0.2806786245050566,0.7661016194129548,1.3557040807242646,1.4508144664357996,-0.2728027466065319,1.263962722623857,0.8533420687267799,1.9519049689504127,2.66739833882127,0.10153573212664306,0.8814145312189493,1.4617339592783445,0.7569821832274827,-0.4446958935504113,0.751278223988017,0.06357754603291191,-0.02845897915878735,-0.8030253931242102,-0.8123742796657923,0.6624091054015567,1.0126747761925523,-0.18835944211312494,-0.1439317109386976,-1.5010190880777492,0.22739086081130877,0.6772753224521894,0.10527591940343435,-0.5399722687308661,-0.008666923201443915,-0.5449729182256079,2.4669634707865105,0.8712419587918767,0.482164749670396,0.8436918706160486,0.5015092089447114,1.319356997718969,1.5655450723402708,-1.3407333744349486,-1.1847098395023528,0.9101946576675024,-1.0061626706699922,1.2174391105080509,1.5648354057830658,-0.44065084871189264,-1.6761405165725942,1.6188351436032589,0.8022184577557548,-1.563402127387949,0.5670395396633574,0.5554313598039284,0.10009973176532871,-0.2824699557669755,-0.866154506497157,1.0177245010848304,-1.2023286979528576,0.21618686618125424,-0.8143123021842713,-0.18302406147605604,0.1397091369534069,0.9516690804610057,0.8646767689468885,0.6290083003736251,1.3979422285413807,2.170428946832499,0.6475292087240775,1.112931531978496,0.21572758812571569,-1.1865429900845454,-0.04608442787987639,-1.4715073285781137,-1.46792496771246,-1.1060573001872847,0.26531317156219814,0.9089064619625911,-1.0782348312538625,1.7475527852678188,0.02144620458271293,1.0149282220594766,2.69067426092,-1.4429024838144242,-1.1809290716886178,1.6149667116871318,0.3379862828137155,-3.1880385700269653,-0.799023357110472,0.6202100134536817,0.9078104666986635,-0.44563474676717735,0.7464935222549864,0.31844323786838474,2.2494396302720796,3.332699564316796,0.36474880051741015,-0.5604647747634387,-1.0799420986893156,0.23576481618121947,0.34478770963111605,0.6812523962011209,0.7945224076247193,-0.018825682381171854,-2.055225218431694,0.17468797056006988,0.5173241803463214,1.4708864816964962,1.8175421578476878,1.127590766277202,-2.0074446323754294,0.20088086951976605,0.2591418605360255,-0.35805065066259395,1.037534241938493,-0.43230672817858085,-1.0580981288085898,0.5273222000356156,0.934380392942604,1.0832924580150383,0.4211559999583478,1.444312772917059,0.19037960244359273,0.4874300536228174,0.6314011102482399,-1.0442367895192521,0.1228254650469847,-1.0039498499136608,0.0389282832498798,1.1620997083673468,0.21167317780627176,0.45511500261812765,1.2820972555606693,0.1037767362335787,0.9259119206121309,-0.8682608831214245,2.027816158933612,0.11940585926979372,0.34311935289660583,1.040723658108336,-1.798619431074904,-1.2915877205901136,1.2140319843992355,0.027028512933475326,-1.2834120527032253,-0.18091661653207294,1.5381029625411666,1.8502793697613145,-0.5970454705237492,1.484789174927628,-0.08270716470087565,0.28066244248576433,-1.0696113494379085,-0.7274487918744111,-0.47031301721826446,0.6136369873001344,0.2923513120844729,-0.7918464588275548,-1.1853667610630791,1.6812786008431142,-0.18685789782635406,-1.1640424881895812,0.270128309170093,-1.1183881039211454,0.6163373592657727,1.6883340263414979,1.2895135760002727,0.2364614584122736,0.1703181611722627,-0.7851258710976601,1.013131000127013,-0.7545885016499311,0.11175742543718209,0.11948967270976424,-0.3759418678517438,-0.47573672754973706,-0.9780904114291152,-0.05599387734678975,-0.646869262370542,-1.5700413040076002,-0.29484392430676504,-0.9224603964263918,0.6393303708604913,-0.36488985514183736,-0.7491695078134029,1.0819486057651517,1.2018095624197471,-1.4959363010336182,-1.0588383399737546,0.6692951283089267,0.5952765937373413,-1.136774008178643,0.9265470798465336,-1.5858593299815094,1.6957133433629663,-0.07756384671574254,1.475954030712217,-0.8243286047483905,-0.7285425580725475,-0.9751597559536125,-1.2523604401564536,1.2274955259584566,-0.6861646407698545,-0.3812826196551281,-0.2897749717913883,0.7352790701360784,-1.6313384168504943,-0.5536610170952672,-0.07099271210716837,-0.8932133227321246,-0.13951674722865146,0.1572223585725192,0.4831844159060522,0.5671417010734349,-0.23431559930197474,0.12018829723251002,0.7841038398570611,0.9940955466176749,-0.013821720623894843,1.442965342572712,0.602618490632144,-0.250968655425534,0.49446807371486606,2.4930075999087355,0.5516982822656888,-1.5728201742349972,0.46316767521157143,-0.20777534037436968,0.5240899748230952,-2.968419869836106,0.9161521193121405,-1.4284784885963164,-0.4958065267761733,1.1228445657808264,-0.4811582947003751,-1.1928165306419647,0.9320765359221922,1.723057802720022,-0.714360767146288,-0.41778918869946013,0.09348590585184469,-0.8693955920586083,0.40363477403783465,-1.6075762576136579,-0.8148812083997075,1.399656320995809,-0.47545190661242137,0.5205404208332891,0.6281875464664401,1.1197143881742833,-0.2527905233541347,0.39234212591939127,-1.1550477447250929,0.1884803893366178,-0.15173777542805364,0.6998580033053269,-0.09617718990693701,-0.4125555456212235,1.7064645746095335,-0.22280199771373427,-1.5545802403777735,0.7545378804493649,0.49485699708880376,1.0144705733535446,-0.7782872520196019,0.8858802161303712,0.8012268905038149,-1.3945317578784058,0.48905487245892826,0.5811619506953124,-0.6186278142413028,0.5520858260802791,2.1544593591401697,-0.19487181510812018,0.8115822928048538,-0.8323978153626641,-0.21778456149285155,-0.3888207776806712,-0.1330721036463516,-0.5637542528446514,1.4332359909739323,0.5609567964701868,-0.6684164465392658,0.6327610132080583,-0.09974397189180115,-1.691444854392094,-1.3254520338680769,1.4082159043969151,-1.4085032881337929,0.5977029576428541,0.9034808312689513,1.3236898280776843,-0.7792775935020936,-0.5297430283823084,-0.46301293173932956,0.5924171209659592,-1.5064937196850294,-1.8713101081456076,-0.1182575355329984,1.3813413745268077,0.19505086244418898,-0.5428836249084763,0.959369676631844,0.3618913979624564,0.7350576455067719,-0.5582481784259364,0.14486516663395654,-0.09165355635411265,0.24892736281081612,1.1284842026006867,-0.8381372341352819,1.4535466107204773,0.8746671184702443,-1.492806439126629,-0.30044225197635555,0.08102569759611342,-0.08689876102085638,-2.020751593006224,0.011800268538225607,-0.4524195963961904,-0.506966009307951,1.084598637482337,0.33170954654765505,-1.9286561902959027,1.8880269967599173,-1.4900926896301077,0.5182223190654442,1.3060104827870134,0.8378297023284543,-1.1121271586791113,-1.5125314594566652,0.14322218033892764,-2.2002732777549054,-0.20770003670831816,-0.15663526840861908,0.17593539971597233,-1.2898798060613141,0.28393781371153987,0.7569564260713999,-1.074263473439877,0.5029420321305466,-0.6959973901877496,-0.28519753734447945,1.3162945397514718,-2.9489797944628555,1.1205456548753867,-0.17010192613414013,0.21880306925186252,-0.7958817793057715,-0.5758808591793407,0.2565067136991174,-0.6115834812985094,0.34265565502508444,-1.071345713012357,0.06333560747178955,0.05854746149034934,0.773565776568946,1.1766550597976277,1.0633829927785303,-0.7102308590520792,-0.043175405761701126,-1.491940329600909,0.6374041974931374,-0.8444370229682213,0.6716116161637388,-0.8815854670540436,1.3659980570954129,0.7504470352165292,0.04127831378796011,1.2148056039693333,-0.4844893547970125,-0.34025976485732823,1.9019644208825717,0.9823414825867356,1.118865167550001,0.5597461169054432,-0.9719748845520368,0.5446871108621972,-3.4752976552221733,0.11327094488168729,0.0031854308508065025,-0.3197414854026921,1.3303770989347703,0.3158737002295272,1.2298439159096284,-0.03309495563001745,-0.41993779339929416,0.5501307601386584,0.8629604418395973,0.06702389144721609,0.5780473599016178,0.4094393678439337,-0.7194095979131415],[0.6648989213357361,0.11846798848989763,-0.26745710604088596,0.6368403328626848,-0.5317724266194146,-0.31269957495071665,-0.7961666801095729,-1.4360260106763831,1.3382059498940682,-0.011547454921552283,-0.6752446505210823,-0.041081476975044044,-0.6316530923483531,1.5589996345521009,-1.3322233816617608,-0.9338254192384176,0.13419036390941483,0.28021369342952923,1.1661255472866667,-0.44893663600476835,-1.4271341673564413,-0.6710031209050067,0.018067145721522584,-1.5631546742495945,1.72630628321218,1.9947792759166414,-0.9485864549635756,0.3333851213857636,-0.46064432248151943,-0.26526955759079857,0.2822899334913532,0.2266421643050115,0.6363270992763879,-1.0905442541734596,-0.08412874215909093,0.3875477337452099,0.3766588720254157,-0.432688846370737,1.515596372659434,-0.6243396355714855,-0.4983717094375472,-0.08394659570735463,-1.2562516777238837,-0.4691741386044083,-0.8768315673849647,-2.1399765968116036,0.9677114180269872,1.087823234078847,-0.12438398595612213,-1.4660888572408273,0.8412614341039669,0.28538252824526233,1.7918075388672852,-0.9314396335830218,-0.8398490073149846,-1.4574210531419465,1.7566333452319365,-0.05888302996014583,-0.8391030037945539,-0.04467835016096777,-0.6414858929155435,-0.2766995469875935,1.3615903621057703,-0.4578098028158806,0.12674811550216025,-0.5953977275713566,-0.9006513008449935,-1.1181504470142816,-2.314103433673889,-1.7909681580735561,-0.7496387986820752,0.7395403073322213,1.3584500823608874,0.28347058953953996,0.11275247655071143,0.27607090089912195,0.6769462025675629,1.1800064580240992,1.0918448703416315,-0.8506010628383774,-0.6116599851821697,-1.9799391617876025,-1.2380990876473568,0.26921300788318553,-0.32672036830775086,0.234206683868795,-0.3542063469906496,-0.3061373395305371,0.22767142746159097,1.3834131543156842,1.1304071211603457,0.32085951580264016,1.116470892918501,0.6710247276145991,0.12767725989849898,-0.38992676010440536,-1.414723020250895,-0.44295300606256327,1.0516870576884574,-0.6766358856511491,0.7261155916611205,0.31532054350204247,0.22974305597845024,0.019311045775520317,-0.28077400198390734,0.28769623755417234,-0.4128906668032481,0.8976494467647754,-0.13424564810614006,9.091184818760594E-4,0.8372718562793549,2.99664613482175,-0.30310924553811175,-1.8874565958237381,0.49089362372526474,0.3012773626017902,-0.8281321934252319,0.14381593802395795,1.321179732330777,1.6845156837239474,0.7001365092252643,-0.5483587527367909,-2.4060096039361127,0.3837984298300685,0.36445924474962105,0.8899859248923333,-1.0276408809817577,0.5096763802288762,-0.09268421049714656,0.5397852087684178,0.49358413292716335,0.209357199211265,-1.3185952342379597,0.6235242617959228,0.010933296393349015,-0.20743628803639827,1.5784014468097671,-0.9395667680787338,1.938492085956016,0.6571677311961379,0.20117032242173274,1.3729776411377985,-1.2558005759031499,0.35814479385492504,0.48519373895530976,0.7666432082652235,-0.45922174617547473,0.8347473948720461,-0.3888480008095934,-0.3347102116468627,0.9241902546366974,-0.2080964319683705,-0.5601770992982756,-1.2712759157638795,-1.0697524829691318,-0.06798695057049331,0.7573235369031667,-1.7631074826883717,-0.36812013986947717,-1.2479193662580605,-0.0688669827210669,-1.4868906381779754,0.5902462424281388,0.06910274349232126,1.3471855317961727,-1.1028638898533414,0.2863718282104091,-0.6094277618637476,0.9797802553824583,0.892815868224815,-0.4361752334668871,-0.41255504145232663,-0.7304208688907918,-0.40960771959665937,1.7850707506951211,-0.9716606602321296,-1.027566985041861,1.38675544529415,-0.39629185062865474,-0.3313274183562028,0.28170775753431904,0.3187190356411652,-0.67319865978156,0.06035889704517882,0.48481266905354786,-0.45877276626680685,0.9321483255223318,-0.010730818524712983,0.9131019843746634,-0.932815979417308,0.6006480633257151,0.3258615551372189,0.6730523655119445,-1.0453889566376295,0.04783910775701786,0.16985055295007911,-1.4089914515075062,-0.31366516899179403,1.6233623341223349,0.7736294981879537,0.5804174498716785,0.22802281500568577,0.31124438524902054,-0.6864954281198995,-0.6264250977900653,1.2588576495392074,0.3479970410965608,-0.42291702260757913,-0.9968385461141787,0.9825214121054969,0.7350791103100427,0.7177360787968265,0.1342925306205847,-0.5574370558499427,0.06117144746820409,0.9728515670153463,-1.195265385984355,0.29708843832923537,-0.7933349230584659,-1.3908402921512781,0.8940449761520064,-0.20489165676881277,0.5746696621665226,0.42438296543296206,-0.7637296917787813,0.21958079506911435,0.7299047894416075,-0.4295640738907051,-0.577637576954927,-1.0556159159419616,0.8486072490941637,0.954888873565153,-0.30037225149857744,0.5444112205844734,0.5965373992200054,0.19610498069947324,0.20011314763289614,0.39730557053109256,-1.0383869332807405,-0.35453649965172157,-0.5181494576667754,-1.2857258735952317,0.05148045350418003,0.10167593878351536,0.2707482203298751,1.9767699047179543,-1.0597310854926638,-0.16790036604761177,1.880541361370608,0.9720924078428044,0.03216243056475023,-0.9881835635734697,0.12478121926922137,1.0877470073296633,-0.525595925324819,0.009987980301080529,-0.8273595149165677,0.5812143418247796,1.1789743419554366,-0.49948573709002203,0.9999629604592926,-0.45295433307195687,-0.7070259315802402,0.00503508211738743,-1.5121953066438774,0.2752850752283365,-1.5374317171228833,1.2084200447573823,0.21736380477891384,0.39703545395132506,0.3196880128070714,-0.683885178550052,-0.08510412964969628,0.5681762225531362,-0.31588787118220035,2.207582204764149,-0.6936671704443442,-2.3613668844204305,1.0451433675747468,-0.6033772573509466,-1.6265442982110254,0.5370850445009137,-0.9663736630407598,-2.1974728702187214,-1.111233128595869,1.1817441788140444,0.01523883304647233,-0.635499934917943,2.1643128210126408,0.09584428012846291,0.9348988931361965,0.004594421585868464,-1.6916624511330562,0.031196122657692792,-0.6188003796957154,-0.0878856083782711,1.5583701917948736,0.2585521818481626,1.9728639795788574,0.8790938946972471,1.3078155007070897,-0.26068932990462235,-1.0675296246778694,0.05689222075736674,-0.8201536000316705,-1.2091077990368226,2.161048354528135,0.29282877541610863,0.1446650478802001,-1.1034054441903758,1.1281930081847455,-0.41238466848030303,0.6626618841560075,-1.4466341318342382,0.37908825395524637,-0.48210352685525454,-0.26798529154674594,0.06057925219978225,2.1682176923390175,-0.09250972782066379,1.1491957759705744,0.45358778556265816,0.6571222586459387,0.7921941489158645,0.21101220163328155,1.586386626785286,0.2725635334728813,0.2140082268151088,0.5170147698157193,-0.5869321547690001,0.013639433058935375,1.1008995508906396,0.3096693592933189,-0.8913097375643099,-1.0498317487794377,-0.8473192998602505,-0.36269988075151127,-0.36988006688915703,-0.6079782608035267,0.03893790639632914,0.09630500991844938,-0.3276434824124011,0.07366333231961769,-0.6302593940095781,1.7291773543871856,1.3432613468087902,2.3241527079374915,1.572013034447399,0.45156392563827813,0.7945786742415282,0.5797085868571046,1.45880318005576,-0.04344334858869383,1.2681028066685283,0.1670160250555249,0.16451871867979972,-1.1773361251002044,-0.09009204547944692,-2.0731904670663313,-2.2822921525040156,1.0350357710151337,1.049440068716072,-0.17965707601972222,-0.24185612760490524,1.4685347936703876,-1.1533643366447113,-0.06772902306162291,0.3388657307772342,-1.4804010060060886,0.7214461100293741,1.5710099241645963,-1.1474616878537933,1.411246561406163,0.5586072793483329,1.0450966677801081,2.71127574315881,0.8280840394496367,0.53913362452705,-1.0903563587819531,1.4174910075895892,1.2835872427298494,0.36013960276210466,0.7579882922461784,-1.288754970437761,-0.03627507595937019,-1.0846723896468997,-2.6873582329203005,-0.33198672984240607,-0.37547188335391907,2.8586607372143042,-0.7774915296807092,2.261675610264091,-1.6940209827880595,1.9631349617764435,0.2079409333507697,0.28957139289933415,-0.2940353650164167,0.41902386072852155,-0.751072701563625,0.3781307706316239,0.3480988041180363,-0.7839956584060993,-0.6515380368717202,-1.563482545242618,2.044408882852007,-0.6115256405876575,-0.034409328133401376,-1.3388668521556604,0.061174416835031706,0.9227372172753626,-0.11079629835968918,0.8726330393715384,0.9638311916611202,-1.4753915869960361,-1.6122537356919995,-0.0725737704149005,-1.8643113031945597,1.2266604221856772,-0.46840025515133804,0.015246531056942543,-0.019608129060119783,-1.3127906162961922,-0.9664099433302419,0.36119265969346237,-0.9976620392816472,-0.5514340650390445,0.33553267843687334,-1.0467822698708837,0.3030414826963361,-1.1248222271109085,0.39372661765819145,1.6446102165639247,-0.9726998168912682,-0.7034709109868567,0.6666012230813333,1.5362977546365724,-0.5140848135289413,1.2631692344447472,2.147783908543272,-0.6546929983857652,0.4976286878026072,0.08997833179069775,0.5461078414115978,-0.7595919738836738,0.6983273959326602,-0.03859499777878179,-0.43934964139436367,0.9684787785286788,1.3200809511249039,-1.8715526545738015,-0.9878164892707565,1.5436180940623667,-1.2476506030172976,1.2006150608407302,-0.5655034419224695,-1.5547300782736906,0.21883062605744064,-1.5830006711402171,0.5459920237969818,0.0953295635366992,-0.4191388353382015,0.6093073108286848,-0.5273609646926796,1.946123573343187,1.147858307286882,0.2008123581535203,0.8926669110553651,1.0380039319294498,-2.185725929829682,0.9874095040516316,-0.5352185982790685,0.7130493070334557,0.5260843846076706,-1.2868438968288705,-1.1706504469451418,1.4161115819384633,0.67046405648119,-0.676134497616968,0.6407979767377088,-0.07896582548054895,0.9456302267632154,-0.16749965751245705,-0.0298209305912351,-0.3872681844219114,0.5671615817514478,0.27632566852080037,0.9224209548464005,0.5888319476224138,-1.50062301817574,-2.2167390762328028,-0.09010724744384313,-0.3645951708871827,0.9200454399156629,0.7173091849624087,0.7425495754924071,-0.44022702358581434,-0.1541115761309734,0.467548467070768,-1.212863039241813,0.9477038257098294,-1.3695842753003133,0.4742105847701493,1.1202976954076715,-0.334824966087863,1.0764721003563942,0.638711255218762,0.46814817177663803,-0.9818807863392496,0.6944318598459147,0.2349743081782016,-0.6808668283770378,-1.5938209801923102,-1.1103979821186476,-0.513389819778407,-2.1649946278131806,-0.6988105166211483,-1.1284864134488881,0.8959563593727536,0.35507614521573233,-1.2458103826762348,0.3574941892550002,0.12562995229176285,0.028474153712802073,-0.6563975954206343,0.18718262953336126,-0.019501765340008474,0.6063368093917914,-0.33053524135631224,1.6712935482734632,-1.247582407447488,0.09199402220118971,-0.07376775077714713,-0.5747534952879867,0.8076590487310623,-0.4913072880863544,-1.240778086246928,-0.1730413115528884,-1.5428563459617126,-0.3785784299900566,0.08123367076183513,-2.0171958072834206,-1.1641934760656203,-3.1964603278300405,-3.255563770847337,-0.7313394333187585,-2.4404516059497787,-2.1646175610643197,-0.3758218561596863,-1.4571701705670876,-1.6585144292824245,1.0267803369042576,-0.8071270679591241,-0.48944713016407143,-0.42426153343028455,-1.6797349522281555,-0.32835144988111375,-1.2594478656090649,0.34897760592299576,0.27665562485266615,0.4361653457999015,-0.36982347527125436,0.7700119122129389,0.6989746011407018,0.6814355269559513,-0.12945420013235565,-1.6020691084805276,1.092290689281529,0.13729709201390933,-0.996477938503614,-1.189633304938282,-1.053706361106149,0.07559513440492693,-0.674994389817848,-1.9986291530940945,-2.347680122083175,0.31974969536518943,-1.4536579916825867,1.1896638484617337,-2.2009154986938397,1.2668205273316546,-1.025005191928875,-0.6784362141736702,-0.6145159195278762,0.0667738204258433,0.7095625228857833,-0.2204004427592386,0.9858489525843498,0.008162636530389162,-2.3255363798735234,0.11834352695500078,-0.15737866684063037,-0.3222420601143338,0.2435528270011493,0.4342523219687844,-0.45777532611974536,1.7569316373090238,2.260588924941062,-0.02624142069100962,-0.4680115062048367,-0.368075409169284,0.7326949113792932,0.2734317797323462,-0.5593842460412328,-1.7479515538854666,0.021446724852174796,1.1345607757414584,-1.1319812005009005,-1.3245585542320129,-2.5701607735998144,-0.692589566094936,-0.8973073789129807,0.023342157704054553,0.08602155976588277,0.4106909339131512,-0.7333226200683131,0.3305469751109788,-0.2575273005986649,-1.0302460584840951,1.2600709346774994,-1.006378187874073,-1.6777064509159634,1.4740384537879603,-0.01931801728570076,1.6244541194136817,0.6950946022566127,0.28205708177170413,-0.5481739588805538,-0.6345381892214605,-0.06270580709208216,0.28574172471163584,-0.9147297049604238,0.5689974732227778,-0.32345515478283654,-0.09463387298610564,0.6752117036412947,1.5906953281943554,-0.028644126497442596,-0.360493646542734,0.48328265053424824,-1.1335801248867183,-0.7520189123595666,-1.5691013538142642,-0.6971641033791388,-1.0851845689368538,-0.6142576450898795,-0.7701620922817332,0.18301091580692214,0.721247520333258,-0.6680180601124961,-0.4916009077072667,0.543442546950925,-0.4572284732627374,1.8110024832666969,0.18775958086201264,-0.7419019583271922,0.3505252106290709,-0.9502042881131963,0.6607112052697108,1.1997830444963342,1.1276358840362284,0.6198159829155848,-1.3826694959727661,-1.3003347881187843,1.0986067285383723,1.5349807505638822,-0.8757996376005007,0.5468147588962563,-0.837162515602794,0.845043950746648,2.40608192660736,-0.23146730165075316,-0.26165303705826065,-1.1697189810415312,-1.1973361330085612,-0.471826667124209,0.095460510889318,-1.6260187585263732,-1.5418200777742024,0.41300597699518327,2.22949250270143,1.2929008656709506,1.9147923880147515,0.770938382697582,0.5150228512360058,0.9976512758962838,1.7607303242109067,-0.23468630305456809,-2.361025389490323,0.4731325200788593,0.5726863061319921,-0.0906910555861967,-0.4624480009377163,0.7934893698844365,1.7168530953349475,0.2370495233025812,1.1181816103401074,1.8051065382098797,-0.11070874019763063,-1.172446393323827,1.2963929287957356,0.01673841080323192,-0.6409982454756689,1.0302147158538015,-0.0324959048973687,1.2280849407602281,-1.5869496416241857,-0.9413165567249023,1.561476165017232,-1.648164096297285,-0.9553902170430039,0.23191085761500763,0.5604998552847913,0.6358587905386625,1.078413501961027,-0.010545981517601905,-0.5822155640705943,0.25857823342993275,0.4355660184349823,-1.036216530827145,-0.32881294471586314,0.9428194753297892,-0.42284919412754374,1.3827771554379187,-0.4276638023838822,-1.3176870936625487,-0.7353542913231746,0.8405837152076355,0.1473156279806213,-0.11029690965161693,0.32304286954572026,0.8044079049790819,-0.07645708373131599,0.9147186850085519,0.7784630547801245,0.8587513985548598,-0.22471646693486053,-0.10608770025245569,-1.2735667579174879,1.558960958940878,-0.3687822874698388,0.763594808174006,0.15872500874203402,-0.5003412856731088,-0.7380466047648125,-1.1971027932872491,-0.5396512249698011,-1.1018416677800125,0.5979641630317497,1.3450044838472823,-0.17001245066526957,-0.12411201401455031,0.2458968232144223,-0.1656129972556981,-0.6640455748194566,-0.19853929062503578,-2.432358119094575,2.6211973620711477,0.5007473506728287,0.14396189035622153,0.806516574551541,-1.7010073975490168,0.6670211204496945,1.4965192314644076,0.4154475214776867,0.8563110657345047,1.047555195748328,0.7897190029222187,-0.3335832781166863,1.0033855917042422,0.44267322583966906,0.8842160121310041,-0.5595465234163035,-0.3674578728253829,1.2779784659069817,-0.1013066448302086,-0.14028488623580027,-2.126698951478889,2.5182914785183614,0.6831831159513504,0.9981861146320402,0.6885641999583273,-1.118453701168396,-0.2335016011084949,0.358251541391089],[1.2536657106215798,0.9812220631962459,-0.38844412638746256,0.904569184647333,-0.9795235195679759,-0.8087674247355076,-0.2650452189927424,-1.1528669163031184,0.7090789864371025,-1.8806827772952446,-0.36684841951894936,-1.6136320016728918,-0.8461864535619555,-0.21226575839589096,-1.0087590494860572,-1.076721749515322,-0.04852725486380887,0.3697844544714234,1.5482812573593165,-1.3919629442821102,2.2061283140615773,1.837769618205979,1.0799973536416165,0.5382701864526733,-1.018930630952711,0.21081133940483102,-1.7378850699741561,-0.7787091501786794,-0.5413007209715022,-0.32573797480099753,2.3143274245398775,-0.4901469557817476,0.28634181328901026,1.680979546911088,-0.5793540875311947,-1.08984450606138,-1.3137434676981221,-0.9314204024820782,0.9933435586649385,-1.0413426304881923,-1.5052035860546216,-0.18679959731535947,0.815940275316818,-0.47171454244153405,0.20092316524814077,-1.1172115921631145,-1.2640174185950936,1.2539465875023297,0.6124096877339341,0.37902841335791077,0.17428795880248169,0.5866583977943648,-1.2078266963483155,-0.4558047027946251,0.31389313300326493,2.601713719484834,-0.6034996993438264,-0.396660788100384,1.0638266432951171,-0.5052857837456153,0.7590889842365351,1.5095735611695402,-0.9289020075417574,0.6155553650969317,-0.7055190919301643,0.1796770480371343,0.363436757757918,-1.7055460087052066,-0.657146819603921,1.1526212616131046,1.3117818571357525,-0.09430080045419376,-1.3301904882078934,1.3107240412788155,0.8722719852013052,0.8610805072814226,1.0805229650852501,-0.12927010058099284,0.5863861706168028,1.0000697136840484,0.7613781481551664,-0.017473504339162917,-0.8958403763759137,-0.5571130923101293,1.2796078115048846,1.1532992265856972,-0.2910128872178978,0.9124457230156834,-0.5085673532031937,-2.4897282738971223,0.5389677566435723,2.8512524947206623,1.0196904751864144,0.11584943934517677,-0.039042987432133865,-0.0012115674776221642,1.0673713824022253,-1.2239060103900405,1.0861401481074078,0.42961837565771765,0.11725002708117092,0.38026641350891194,-1.4410146091370946,0.3923375294325338,0.5616790252419575,-0.15298578306611027,-0.5043140136230341,0.1566496013977253,1.158230201457585,-1.8478074710054047,-0.31154539626571226,0.21736794338528853,0.25868127789720374,-1.9239184195397108,0.9696520846432649,0.11170685798887844,1.0156203559160375,0.29226651125903896,0.34133615703099107,0.30680783493527025,-0.3160816520478295,-1.421213650705438,-0.3740001536147032,-0.772811221474209,1.0882507841685918,-0.9864615822019271,-0.32985680625893604,-1.0499125281008883,1.0417412222409577,0.6822014565286127,-1.083517371185963,0.7173099282202707,-0.21854846518740575,-0.9895821418182663,1.109858999184378,0.921081193871748,1.1379742365689498,0.8340476089753149,-0.19099494330191732,1.0665250112634805,0.21905977843693777,-0.1780896440325318,0.4512454055898279,-0.23431410185981597,-1.184713358183265,-0.601336301603653,-0.22173767029607636,-0.7330504894687434,0.5930684340999387,-1.0887229849310507,-1.8939478741484053,0.3499595741578171,-0.23438348484564092,-2.36171435821957,0.30871181426843974,-1.5218201878165547,0.28910239971666857,-1.5146372809092812,0.8029013289080265,-0.6040376866311913,0.7388858355498635,0.4970771415377792,-0.753694971048561,1.0753846090967836,-2.088105335698407,1.0253085638846478,0.45851150648952155,-0.3457075853733581,-0.01591408140966513,1.9245783050992884,-0.7022471179602606,0.08538451791674884,-0.7162232481132416,-0.9571700636651772,-0.12743002006898796,-0.4997707827744269,-0.7971338497915919,-0.9624370393710168,-0.4124231636643113,-0.5870803361796652,0.32533559507575416,0.36029187736438795,0.19583784911827193,-0.04747414317121856,-0.5781133159127347,-0.8177700509493794,-0.8274374889843997,-0.6818173894055515,-1.2098361928073498,0.2752131091834296,1.4604795100167005,-1.2513233309361127,0.7874661019407189,0.03374566106378263,-0.49248656785603456,-0.8448443681163347,0.5812894158392506,-0.7067702940766579,-0.20143048597411314,1.8018033668047955,0.06001567520580016,0.3945357432715654,-3.7510518668330963,0.21168852412175249,0.9982367289622763,-0.6670234704999661,2.057207927754311,-0.29465481693887735,1.4551776948426045,0.41276453082331444,-1.340007241950284,-1.3126594612401767,1.9132097285652683,0.8083927078779649,1.0522549794973302,2.031153059128415,0.7857325221486019,-0.8393787913202188,1.7345421776334347,0.3491774909676492,0.29849962305053157,0.3830045901060675,-1.4567576086355358,-0.15378819879102057,1.68719123743768,0.01252694663922381,-1.5312673679147961,-0.3953613727252114,0.030955804185966183,0.7829410342425818,-0.8691740191699546,-0.8504599278428004,0.05260179178942501,-1.6192783665212,0.6956332819419032,-0.3936016904683933,0.2796174695253489,1.0190906492093914,-0.03354732568987766,-0.21753019167862891,-0.48002021482702634,0.9883224217483999,0.9447028221926055,0.008009599587852575,-0.30749787588020927,1.0653620174666318,0.18283627721603804,-0.4215569031861068,2.4500554502791214,0.1595922036983258,0.8253034314599529,-0.20219989089617488,-1.3427871701074663,-0.08455888753427547,-0.3844238313309813,1.3873272133839338,-0.9399517032864936,0.5158732733227198,-1.3689791148087849,0.27624450300186315,1.9197950438531737,0.6704578046628052,-0.2465763772163222,1.6349189478765682,0.8944052976319162,1.7190687964190798,0.02518377408644271,-0.19814508603050698,-1.4631513628040484,-0.27225842926333443,-0.09679751260782177,-0.8325784778378524,-0.25837753248169043,-0.6621633275957728,1.161445088372253,1.0089705490499947,-0.8289540513783529,-1.1960433381084845,-1.0946915110499913,0.2540966688575547,-0.03178949408011991,0.4389551117406795,0.5850326006360494,0.7066825909314824,-0.3229118483503325,0.9266924075646787,0.6782970345736332,1.0983996224195123,0.6419866406853466,0.9259908538137148,-0.20704858243241428,0.9821678370411013,0.11129065258136966,1.3903425495650117,0.827605125094942,0.2898637155768831,-0.8657791171069554,0.8880643688028965,0.3081669508139321,-1.5206628371292163,-0.9918142269637714,-1.659882020479334,0.4579830580896915,0.2085011098851946,2.380840791843859,0.2334580957147683,-0.5421455055809061,-0.941883063196329,-1.4334520470100676,0.22491399514665958,1.0693651815549137,-0.18360448562127252,-0.023658134442928885,0.7178813357785783,-0.6656623482079874,-0.9197155954569592,0.21129682156378224,1.7645244190984164,2.1855698801824817,-0.09359540763554904,1.347713487141191,0.5431930086818539,1.057159268081363,-0.41361195379333476,-0.2985003471524265,-0.8358461232673478,0.5122453143297381,0.4920921214506266,0.5764613319961545,-1.7866956809308232,-1.0424809028044222,0.019787303788513736,-0.029421067623843885,-1.130590639503484,1.084840077165233,-0.416565618128741,-2.175723697610762,0.3065332730647377,0.9075508018277771,0.7811371909148991,-0.8829477372377307,-0.39248142119203994,2.265553243349805,2.3399946669773652,1.4847737373775722,2.0412655892556697,-0.07003492451082577,-0.3884550731399311,-0.9758797519926075,-3.3433589041808203,0.5948715870144541,0.7651093210673574,-0.759360493659381,0.31138090004725505,-1.555851383131133,-1.0126916710830907,-0.8831589200499294,-0.40019866456301356,-1.3405431789027724,-0.27899542360325547,